/*
 * Copyright (C) 2017 GreenWaves Technologies
 * All rights reserved.
 *
 * This software may be modified and distributed under the terms
 * of the BSD license.  See the LICENSE file for details.
 *
 */

/* Bias */
PI_L2 short int  Bias_Layer0[]={
675,1800,394,-263,1757,2040,-388,-434,761,702,-158,378,1006,112,7,-138,631,1510,984,-614,-1204,-449,-635,1426,-590,-237,41,278,-33,118,206,-459
};

PI_L2 short int  Bias_Layer1[]={
826,704,698,770,798,910,532,500,741,572,740,802,847,947,540,807,824,706,370,1055,823,683,682,822,243,648,923,549,724,587,707,347,367,984,528,802,609,1135,465,796,658,647,573,684,712,610,497,503,558,785,386,728,432,660,960,763,680,395,744,997,783,1189,708,881
};

PI_L2 short int  Bias_Layer2[]={
905,844,617,671,654,679,743,582,1195,870
};

/* Filter coefficients */
PI_L2 short int  Filter_Layer0[]={
   -198, 433, 1970, 2193, 1935, -1006, -1760, 254, 1735, 166, -2335, -1776, 218, 684, -102, -2480, -2481, -588, 900, 1465, -2887, -1037, 511, 1358, 1303, 
    -320, 872, 2806, 482, -1189, 899, 1839, 2089, -309, -2357, 1039, 1079, 526, -2045, -2776, -385, -840, -1847, -4588, -1773, -794, -1378, -2551, -1317, 560, 
    1363, 782, 2126, 2258, 1410, 1427, 3177, 3024, 404, 543, 1649, 388, -1857, -381, -1263, 1924, -664, -1898, -1731, -1555, -66, -2527, -2608, -1871, -1100, 
    1804, 982, 239, -320, 730, 1904, 2077, 938, 1804, 1865, 819, 1557, 928, 1240, -422, 120, 759, 318, 156, -1345, 1035, 288, -932, -1819, -717, 
    1198, 201, -1857, -2500, -1867, 1684, 157, -168, -3767, -1511, 457, 2159, -380, -3420, -1443, 1790, 455, -70, -2078, -1711, 1426, 2849, -900, -1328, 1670, 
    400, 1946, 987, 2437, 2154, -128, 425, 2180, 1028, 472, -2204, -2073, -3002, -1101, -386, -2284, -3420, -4386, -4343, -2608, -126, 464, 556, 901, -735, 
    852, -133, -301, -1122, -1082, 804, 343, -1697, -1774, -2217, 739, -457, -1627, -2196, -596, 1821, 1861, 1471, 1585, 1392, 658, 2057, 1650, 1922, 437, 
    -2140, -2356, -947, -1844, 965, 278, -1096, 87, 1100, 13, 338, 2048, 887, 2863, 372, 875, 3106, 2776, 2163, -133, -1028, 1185, 1417, 749, 66, 
    737, 1254, 2716, -302, -1887, 945, 3027, 1420, -2293, -3163, 1320, 2546, -657, -2389, -2539, 2072, 1660, 436, -1226, -2572, 182, 1185, 1074, -2457, -2077, 
    902, 463, 1442, 619, 2762, 469, 1845, 2570, 2254, 2188, 118, 605, 1864, -238, -266, -1602, -2814, -3193, -1211, -530, -2280, -2629, -2875, -2650, -521, 
    -2400, -928, 1020, -415, -116, -1195, 585, 439, -292, 219, -651, 513, 818, 504, 1453, 2614, 2712, 1274, -530, -273, 2304, 86, 57, -1434, -2518, 
    -20, -809, -1329, -2762, -1938, -1034, -2591, -3007, -3336, -580, -250, -779, -287, 1145, 418, 1015, 701, 781, 2650, 2258, 1145, 2597, 2320, 1678, 1277, 
    -374, 489, 1325, 1478, 1115, -1616, -1021, -1215, -1608, -1536, -1464, -2069, -1399, -3086, -2644, 1261, 363, -1389, -772, -863, 1842, 1263, 1981, 3633, 2906, 
    -2742, -2111, -128, 484, 519, -3692, -2748, -30, 612, 3294, -2632, -1572, 855, 2568, 2663, -2291, 3, 394, 1313, 1383, -1142, 302, 901, 1682, 362, 
    -569, -2144, -1950, -1443, -1239, 2092, -674, -2065, -2937, -141, 1321, 1712, 502, -562, 137, 604, 1018, 1278, 1844, 767, 538, 1533, 1723, 2003, 2031, 
    -2526, -1795, -1100, 853, 903, -2735, -790, 166, -76, 982, -2570, -1445, 207, 2595, 2671, -2715, 331, 1880, 2432, 924, -304, 2161, 1707, 1475, -428, 
    987, -628, 2068, 2413, 2696, -206, 1031, 3434, 3045, 1216, 1635, 1670, 297, -1431, -1208, -1003, -296, -2438, -1759, -2671, -1442, -900, -1262, -2813, -2224, 
    1759, 2264, 2625, 581, 1446, 1713, 288, 616, 290, -1413, 818, 1178, -850, -982, -1896, -132, 608, -2396, -1799, -2645, -785, -3204, -3490, -1148, -878, 
    429, 2217, 2355, 3265, 3342, 2941, 1302, 2961, 1910, 1283, -9, -975, -1425, -1419, -580, -1482, -995, -3549, -3172, -1879, -2708, -2684, -945, -692, 106, 
    664, 1373, 1713, 1331, -67, -320, 2434, 2827, 1087, -2074, -53, 421, 1005, 1001, -1412, -567, 812, 2255, -53, 464, -1131, 825, 1276, 199, -475, 
    1048, 890, 1268, 475, 1344, 414, 529, 136, 999, 1996, -1251, 139, 617, 75, 337, -353, 927, 880, 2134, -518, -623, 645, 569, 1028, 252, 
    1083, -271, 85, -342, -952, 758, 2029, 179, -1052, -976, 859, 1506, 1388, 93, 596, -134, 548, 2885, -18, -281, -2336, -1485, -135, 1665, -856, 
    720, 263, 1122, -1669, -3437, -1007, 712, -167, 369, -982, 386, 1480, 1288, 1630, 1150, -346, 825, 2205, 1093, 2150, -1129, -376, 336, 713, -44, 
    2970, 934, -611, -1539, -2050, 2303, 1238, -348, -3102, -2003, 2745, 707, -2106, -3026, -2051, 2481, 494, -3195, -2074, -918, 786, -465, -2487, -2278, -160, 
    -2802, -531, 1022, 872, 1002, -606, -133, 225, 2732, -498, 467, 617, 1363, 831, -336, -445, -360, 483, 772, -1227, -426, 964, -48, -385, -705, 
    -161, -1210, -119, -2381, -3379, 464, 1915, -1143, -1742, -872, 1302, 2714, 346, 293, -75, 944, 1486, 2802, 857, 26, -105, 2049, 627, 711, -627, 
    -1066, -1478, -865, 325, 1417, -2313, -1695, -2231, 314, 539, -1268, -1347, -534, 729, 1075, -1107, -1644, 549, 1961, 541, -2135, 727, 2264, 1856, 1341, 
    1366, 2287, 2913, 1504, 2061, -473, 815, 2138, 3473, 211, -1360, -909, 497, -12, 2913, -1086, -2462, -2217, 82, -11, -2324, -1816, -2475, -713, -2275, 
    1083, 1665, 1209, 1019, 1009, 746, 3162, 2504, 3090, 2034, 93, 314, 1541, 2305, 1324, -993, -2817, -1367, -522, 203, -2648, -3311, -2683, -1822, 60, 
    -1271, -2220, -1811, -2030, -943, -483, -1981, -2027, -889, 173, 690, 44, 871, 1420, 598, -27, 1547, 1419, 2470, -297, 2970, 1460, 1229, 85, 1282, 
    200, -1411, -2339, -1765, -2257, 1642, 1811, 699, -1596, -3674, 776, 1665, 1197, 800, -658, -1869, -79, 1776, 286, 2194, -2438, 211, 1104, 1797, 383, 
    932, 1030, 526, 549, 1308, 2276, 2762, 341, 701, -1372, 1680, 898, 1110, 834, -1258, 1140, 1016, 1334, 887, -1581, 277, 604, -767, 1193, -650

};


PI_L2 short int  Filter_Layer1[]={
   563, -253, -1099, -753, 251, -1549, -1365, 330, -1435, 167, -622, -208, -1039, -30, -345, 676, 1323, 197, 1907, -335, 1576, 1396, 1141, 317, 870, 
    -237, 511, 1360, 542, 650, -1638, -1410, -593, -322, -525, 585, -1096, -193, -1723, 187, -55, -1239, -1312, 206, 70, 335, -629, 1211, -1525, -278, 
    212, -1123, -1053, -801, -989, -395, -1644, -398, -442, -891, 346, -1263, -1229, -63, -386, 526, 431, 554, -1350, -52, 337, 666, 476, 536, -357, 
    -912, -623, -1207, -1641, -470, -1, 128, -1424, -96, -140, 83, 800, 452, -650, -262, -291, 315, 384, 336, 47, -184, -438, 498, -323, 425, 
    -323, 252, -286, 1011, -535, -1386, -34, 857, 1992, -248, -1622, -181, 629, 2110, -627, -1339, -120, 106, 772, 607, -1056, -226, 22, -209, -24, 
    -349, 882, 319, 566, 270, -773, 939, 681, 1634, -604, -1216, -362, -942, 52, -440, 419, -42, 229, -1269, -281, 897, -482, 411, -749, -524, 
    -697, -1069, -558, -76, -1831, -202, 543, -799, 1012, -624, 1032, 119, 643, 529, 1562, -1588, 198, 1383, -269, -342, -1991, -666, -1612, 244, -1642, 
    -835, -795, 165, -841, -89, 635, -1159, 519, -303, -430, 653, 571, 1678, 1426, 270, -657, 1667, -1010, -308, 1311, -237, 811, -1109, -273, -1160, 
    -473, -866, -38, 676, -1549, -891, 378, 476, 649, -1193, -1886, -38, -1144, 1397, -474, -562, 549, 1030, 319, -590, -161, 906, 720, -704, -53, 
    -532, 118, -734, 400, 397, -1879, -1781, -879, -123, 1977, 1095, -160, -924, -511, -1262, 91, 329, 1330, -65, 181, 1239, 1037, 508, 740, 353, 
    1252, -354, -1167, 491, -615, 2131, 6, 1137, 667, 175, -129, 310, -1323, 124, 437, -961, -681, 1032, -1400, 433, -1233, -611, -1080, -76, -228, 
    576, -63, -139, -1311, 86, 2375, -65, -158, -586, 317, 895, -242, 1148, -724, 29, 335, -795, 72, 874, 324, -67, 224, -1818, 16, -1129, 
    524, 2141, -69, -503, -911, 781, 2132, 1604, 1285, -567, -645, 623, 573, 928, -107, -994, -29, -1285, 146, 412, -323, -2574, -1884, -1110, -224, 
    -399, -158, 368, 303, 1098, -1379, -2132, 383, -1034, 116, 2, 402, -126, -500, 1652, -527, -139, 1115, -85, -1006, 705, 485, 196, 1470, -447, 
    -506, 644, 510, -963, -1092, 1434, -10, 482, -858, -50, -365, 2205, 762, 1064, 1366, -1605, -167, -797, 576, 476, 110, -2111, -2191, -602, -1449, 
    690, 82, 601, -49, 91, 633, -1120, 21, -835, -1011, 350, -1150, -844, -1063, 11, -1088, 800, 911, 1101, 397, -53, -290, 819, -571, -503, 
    69, 207, -658, -514, -206, -1824, -1895, 915, 327, 415, 158, -880, -259, -2367, -18, 1315, 838, 391, 547, 1597, -9, 552, 93, -1117, 987, 
    -1109, -208, -1352, -771, -62, -439, -655, -1371, 905, 301, -99, -403, -1562, -878, 43, 1320, 201, 535, -120, -171, 1093, -831, 1922, 854, 665, 
    97, -1527, 25, -1710, 205, -1267, -439, -885, -459, -178, 908, 53, -1160, -1648, -1625, 483, 1273, 163, 299, -209, -37, 880, 1893, 799, 699, 
    -819, -1847, -1422, -361, -1202, -1486, 1160, -107, -343, -205, -282, 2130, -716, -1058, -2009, -231, 508, 622, 179, -1439, -24, -183, -666, 616, 1306, 
    -832, 657, -429, -1384, -761, 556, -328, 137, -553, -199, 1234, 398, 823, -1383, -568, 52, -316, 540, 1170, 913, -734, -479, 1290, 116, -213, 
    -1180, -544, -394, -675, -869, 449, 1088, -264, -1003, -612, 61, -21, -103, 900, 254, 1545, 1772, -334, -342, -859, -466, 369, 629, -269, 714, 
    -1289, -41, -1769, -396, -562, 1852, 1325, -1481, -1360, -315, 712, 167, 1515, 457, 667, 305, 949, 912, 974, 711, -1197, 293, -790, 378, -799, 
    -390, -702, -95, 47, -1169, -750, 41, 204, -183, 424, 524, -503, -1041, 1442, 891, -166, 335, 279, 1797, -433, -264, 1, 642, 64, 499, 
    -1892, -418, -1195, 79, 214, -865, -1925, -8, 143, -69, -918, 970, 745, 392, 73, 410, 462, 412, 771, -113, -418, -729, -406, 499, -1336, 
    -221, -813, -197, -954, -489, 2158, -23, 187, 792, -1953, 1882, 23, 885, 488, 921, -604, -74, 1011, 1365, 338, 88, -1172, -326, -371, -7, 
    39, -1281, -1803, -1163, 782, 165, -810, 1298, -1411, -935, -240, -917, -342, 684, 189, 332, -1119, -911, -417, 134, -856, -44, -994, 1121, -861, 
    -534, 898, -251, -1083, 227, -2006, -1199, -257, 847, 795, 840, 607, 249, -1617, -2103, 1461, 1620, 1060, 1134, 104, 529, 1407, 238, 56, 401, 
    -280, -273, -1157, -522, 396, -1208, -270, 326, -637, 686, 1503, 1927, 832, -491, -781, 1402, 355, 329, 126, -779, 353, -557, 506, 897, 643, 
    -727, 278, -562, -1084, -1324, 1800, 919, 72, 23, 697, 713, 974, -141, 1546, 1246, -675, -856, -988, -422, -1266, -400, -531, -1875, -1443, -191, 
    -138, -830, 112, 123, -1488, 138, 626, -36, 120, -155, 1804, 2116, 2343, 1048, 1415, -522, 235, 970, 2193, -413, -1501, -203, -727, -739, -1084, 
    445, 452, -1948, -1089, -530, 1248, 1409, -1087, -437, -460, 731, 1042, 540, -977, -1534, -949, -101, -1138, -273, 699, -779, -239, 266, 545, 306
    
    -715, 963, 260, 493, -388, -408, 802, 216, -1246, 435, 1010, -996, -1260, 298, 514, -424, 304, -191, 57, 199, -769, -1654, -1137, 530, 109, 
    -218, -492, 783, -86, -817, -2212, -831, 851, -521, 1259, 683, -410, 818, 651, -403, 98, 1102, 1498, 71, -753, 47, 238, -246, -1281, -1201, 
    -408, -792, -453, -405, 697, -2425, -704, 311, -414, -209, -1112, 1491, 971, 134, -1302, 665, -267, 131, -342, -1194, -1563, 270, -588, -732, 486, 
    156, -447, -392, -702, 539, 160, 380, -1015, -660, -214, 613, 797, 624, -73, 200, -363, -185, -579, -1310, -533, -644, -289, -246, -1229, -252, 
    1085, -319, 1177, -1964, -1484, 1657, 1149, 14, 119, -1356, -1008, -1183, -676, 1137, -1025, 65, 463, 306, -614, 453, -1611, -1164, 1223, -1061, 211, 
    495, -167, -29, -90, -631, -200, 142, -489, 1551, 350, 1552, -410, 458, -528, 620, 91, -599, 713, 537, -223, -1204, 30, -674, -418, 437, 
    -555, -622, 1091, -119, -712, 551, 497, 469, -1117, -1436, 429, 821, -1243, 119, -1754, -1090, 1560, -814, -1525, -441, 302, 194, 509, 158, -1340, 
    -1472, 166, 404, 668, 1439, -451, -198, 976, 749, 852, 57, 945, -365, -1723, 475, 635, -682, -949, -263, -1402, 215, -62, 374, -212, 756, 
    1299, 1125, 150, 480, -429, 347, 453, 198, -359, 593, -112, 704, 58, -93, -252, -19, 1018, 187, -742, -204, -688, 378, -482, -790, -677, 
    -767, -2373, 91, -747, -466, -775, -991, 1414, 516, -40, 571, 913, 1198, -142, -906, 1554, 1008, 387, 397, -115, -426, 130, -1565, 1323, 75, 
    -1470, -1680, -170, 358, -53, -171, -148, -962, 1003, -153, -298, -361, -861, 377, -461, 284, -149, -771, -2551, -858, -442, -282, -714, -756, -405, 
    439, 1447, 41, -638, -1061, 1405, 743, 984, -206, -1331, 22, -38, -918, -280, -1168, 643, -440, -18, 900, 84, 65, 597, 975, 765, 478, 
    1250, 1495, 1266, 531, -1220, 1125, -102, 832, -1173, -941, 1419, -1428, 213, 248, 55, 340, -331, 1772, 592, -576, 875, 1883, 648, -308, -229, 
    815, 991, -654, 1028, 370, -415, 51, 361, 999, -541, -610, -1406, 120, -26, -775, -698, -1551, -235, 326, 158, 44, -1555, -23, -595, 472, 
    572, 1166, -451, 826, 678, 361, 152, 772, -87, 459, 475, 814, -1364, 103, -807, -581, -1409, -92, 478, 145, -224, 532, 354, -96, 687, 
    -410, 860, -624, 1906, 867, 88, 116, 166, -424, 429, -591, 449, 634, -618, 430, -779, -1019, -1939, 428, 460, 1393, -828, 86, -142, 243, 
    -204, -855, -367, 211, -662, -980, -1451, 872, 1670, 1474, 602, 1123, 238, 540, -669, -920, 860, 10, -1501, -1368, 238, -342, -1335, -1330, -396, 
    -139, 743, 179, -218, 791, -67, -1003, 529, 845, 733, 360, -59, 969, 430, 207, -1222, 870, 452, 939, 359, 1110, -719, 377, -1179, -2080, 
    -421, -1110, -2414, -1342, 17, -1108, -502, 825, 1296, 1568, 610, 680, 1091, 98, -1296, -197, 1140, 721, 171, -1047, -320, -1387, -852, -202, 384, 
    -985, -590, -462, 356, -575, -222, 58, -1278, -269, 661, 512, 122, 82, 46, -1347, -534, -333, 259, -42, 447, 136, -569, -454, -1519, -290, 
    -853, -1135, 1163, 1508, -776, -1163, -904, -320, -417, -1225, -730, -77, -803, -388, -287, 232, -632, -424, -246, 485, 437, 1311, 349, -64, -1121, 
    -1431, -318, -161, 668, 364, 644, -512, -64, -1664, 36, 470, -436, -1018, 74, 347, 425, -1305, -1328, -1150, -1036, -435, 184, -197, -1856, 161, 
    -655, -903, 140, -249, 388, 167, -415, -682, -589, -1107, -364, 1413, 697, -1260, -1004, -1081, -123, -476, 481, -1147, -48, 1220, -1196, 210, -237, 
    -195, 196, -583, 326, -551, -927, 422, 486, 159, 1596, -921, 1329, 808, 1124, 990, -1122, 493, 1040, 956, -1119, 964, -1105, -1910, 269, -1484, 
    -479, -37, 331, 1251, 449, 392, 728, 776, -432, 309, -869, 541, 986, -261, -1556, -378, 35, -874, -828, 418, 279, -2163, -1353, -1560, -477, 
    -954, -859, -11, 288, 394, -903, 779, 1383, 816, 318, 1375, 1584, -1251, -121, -1416, 524, -120, 238, -848, -770, 86, 176, 769, 189, 221, 
    200, -750, 71, 1833, 1176, 807, -539, 1811, -242, -171, -394, 258, -1865, -1386, 1519, -1780, -184, 72, 1303, 240, -232, -2065, 301, 795, 535, 
    555, -1307, -377, 792, 940, -1034, 898, -756, 573, 1417, -206, 1379, 235, 1189, 522, -114, -446, 644, 148, -1391, 1263, -393, -1895, -796, -447, 
    939, -1161, -556, -365, 190, -1069, -256, 1435, 954, 642, -453, -199, 1363, -1339, -874, 454, 331, -147, -1633, -723, 634, -1355, -965, -1499, -247, 
    -1334, 751, 169, 656, 421, 791, -161, 590, 1376, -659, -400, -1457, -1369, -592, 434, 681, 63, -360, -320, -602, 1079, 1009, 382, -393, 621, 
    -93, 797, -955, -48, -572, 38, 702, 27, -830, -583, 593, 437, -1158, -86, -1072, -1264, -308, -45, -633, -777, 673, 584, -128, 1065, 1134, 
    -534, -1804, -1444, -32, -171, 210, -677, -1190, -1147, 680, 233, 1012, 1062, 847, -1078, -924, -440, -854, -957, -1682, -20, -390, -786, 98, 167, 
    
    -898, 622, 178, 71, 387, -1034, -35, -347, -140, -736, 1283, 62, -1943, 238, 1090, 510, 66, -167, -712, 1625, 1985, 553, -763, 3, -897, 
    -602, -209, -15, 288, 102, -588, 563, 1345, -1015, 305, 62, 147, 802, 579, 330, -563, 1596, 38, -929, 581, 442, 1067, -101, 566, 1781, 
    -467, -1559, -702, -1450, -1404, -1338, -2312, -314, 716, 141, -37, 1784, 900, 1541, 213, -453, -66, 766, 716, -593, 454, 1509, -360, -294, -541, 
    -1279, -2672, -532, -918, -1036, -1448, -885, -29, -87, -607, -1141, -174, 616, -1206, 571, -956, 1367, 1174, 779, -122, -874, -794, -472, -679, -1393, 
    906, 156, 610, -517, 827, 1310, 205, 530, -1441, 798, -865, 103, -704, -943, 503, -32, -1704, -194, -1448, -232, -45, 672, -526, -227, -470, 
    285, 469, 656, 1018, -903, 788, 604, -223, 877, -152, 1314, 460, -334, 932, 975, 1532, 610, 802, 1011, 573, 426, 898, 1071, -260, 711, 
    -841, -2060, -1546, -257, -743, -119, 1037, -566, -37, -1174, -891, 814, 502, 772, 308, -693, 510, -27, -1258, -749, -231, 185, 777, -1870, -1315, 
    -699, -1283, 214, -377, 244, -818, 294, 1543, 883, 609, 248, 992, 176, 1139, -116, 504, 1144, 782, 487, -77, -1369, -467, -1264, -926, -632, 
    -798, -782, -1352, 305, -2106, -2365, -1160, 285, -813, -195, -265, -2207, 810, 533, 435, -264, 1431, 665, 667, -220, -216, 6, -1470, -810, -356, 
    -1524, -520, 839, -978, -2010, -2793, -1407, -1763, -500, -929, -924, 410, 628, 825, 1608, 346, 837, 1632, 1279, 1022, -201, 190, 207, 147, 797, 
    -787, -1193, -1009, -967, -1064, -489, 356, -337, 1248, 624, -472, 737, 783, 1358, -1135, 320, -213, 888, -986, -997, 1062, -392, -937, -641, -1643, 
    -1687, -475, -342, 1346, 156, 244, 754, 622, 997, 1436, 473, 547, 911, 504, -347, 168, -135, -420, -1206, -968, -481, -625, -900, 358, -969, 
    943, 588, 1334, 1026, 1014, 1398, 941, 1092, 1330, 389, 1776, -431, -111, 431, -213, -1807, -844, 1032, -1960, -390, -974, -2, -550, -769, 58, 
    -2053, -1174, -1896, -644, 1350, -1461, -768, -713, 1221, -389, 1293, -163, 1573, 1623, 1353, -268, 467, -992, -157, -701, 821, -2524, -707, -241, -312, 
    -1064, 958, 373, -344, -286, 102, 1244, -1, -86, 404, -707, 1533, 960, 917, -1113, 745, -919, -386, -444, -798, -1179, -1939, -1602, -512, 315, 
    -1069, 373, -769, -47, 868, -1039, -196, 84, 182, -484, -213, 459, 1180, -349, 856, 715, -578, -1495, -353, -389, -295, -1028, -2339, -897, -1523, 
    -170, -874, 35, -565, -963, -2269, -2431, -1364, 295, 886, 1446, 1799, 481, 1410, -1039, 1065, 1630, 821, 692, -25, 600, 27, 238, -194, 655, 
    328, -136, -1112, 677, 23, -1309, 617, 249, -679, -950, 969, 110, 1405, 778, 315, 198, 1342, 2200, -424, -347, -706, 491, 779, 1406, -231, 
    -604, -367, 309, -1114, -795, -2070, -1447, -549, -1030, -803, -314, 1270, -281, -377, 1127, 1783, 1761, 1024, -598, -533, -1041, 161, 96, -237, -331, 
    -1509, -1962, 300, -453, -296, -225, 16, 927, -811, 914, -303, -1378, 1381, 57, -871, -477, 1179, 375, 723, 1031, -261, -994, -620, -1420, -248, 
    -192, -864, 1037, -15, -589, -1833, 35, -733, -253, 647, 1171, -846, 971, 1342, 1186, 186, 890, -382, -883, -896, -601, -977, 329, -950, -354, 
    -369, -439, -877, -642, 32, -736, -700, -1673, -603, -467, 1818, 275, 939, 330, -1194, 1247, 1317, -41, -681, 663, -38, -145, -165, -606, -940, 
    -2667, -1841, -1491, -391, 519, 196, -1353, -1164, -824, -23, -852, 1079, -118, 598, 825, -1214, 852, 198, -533, 521, -614, -265, -212, -1185, -174, 
    1696, 251, -1494, 469, 958, 249, -1273, 893, -894, 293, -30, -459, 986, -1253, 856, -931, -237, -468, 714, 294, -265, 1412, 60, -443, -1027, 
    -1957, 132, 862, 342, 235, -1169, 39, -61, -66, 469, -249, -125, 992, 514, 242, 260, 391, 274, 523, 804, -639, 729, -2098, -1989, 9, 
    -1993, -2729, -343, 223, -1349, -481, 326, 1469, 691, 915, 1300, 1588, 1306, -1339, 308, 598, -1207, 323, -364, -60, -277, -848, -816, -69, 166, 
    -144, -1144, -655, 41, 760, 560, 334, 796, 1334, 221, 200, 861, 113, -724, 529, 862, 297, -1113, -482, 311, 318, -1145, -95, -1724, 537, 
    -431, -586, -6, -1682, -1127, -926, -1017, -109, -873, -22, 1011, -1052, 886, -705, 983, -708, 1248, 791, -365, 998, -63, 1064, 28, 564, 436, 
    -622, -1864, -877, -386, 170, -1921, -1341, -437, 317, 1301, 1038, 459, -484, 1523, 934, -477, 912, 52, 138, -235, -51, -473, 276, -522, -20, 
    -657, -1041, -226, -57, 907, 607, -236, -189, 1261, 450, 377, -38, 2214, 523, 511, 1796, 171, -1632, -589, -523, -178, -1727, -409, 269, -2295, 
    -696, -727, -187, -1691, -315, 809, -40, 244, -1042, 127, 344, -141, 981, -1103, 325, 72, -992, -161, -604, 1165, -1550, -1837, -638, -1488, -2228, 
    -1617, -79, -821, 95, -365, -1665, -693, -376, 391, 434, -270, 826, 1028, 722, -57, -85, 1852, 643, -659, -982, 1491, -331, 385, -1250, -203, 
    
    -356, 181, -86, -838, -592, -817, 250, -887, -510, -625, -32, -130, -1043, -1091, 27, 228, 537, 1297, -852, -314, -111, -746, 418, 997, -961, 
    214, -604, -678, 1233, -533, -642, -1217, -878, -647, 324, -840, -391, 631, 1383, 1870, -1160, 785, -44, 392, 999, -757, -180, -761, -1263, 182, 
    -270, 1666, -624, -1281, -1039, 56, 16, -1535, -678, -66, 1273, 203, 582, 393, 550, 989, 1869, 587, 1095, -80, -46, -458, 471, -576, -134, 
    885, -812, -431, -422, -592, 1390, 671, 159, 199, -1274, 210, 405, -599, 175, -595, 977, 1109, -988, 807, -990, 1581, -131, -536, -50, -348, 
    842, 809, 163, -686, -1804, 145, 183, 463, -412, -1858, -1949, -1626, 380, -1808, -1789, -852, -1600, 0, -257, -303, 989, -27, 86, 1187, 1453, 
    40, 251, 528, -108, 1129, -1446, 505, 505, 1124, 1143, -596, -702, -889, -85, 1439, 2172, 1641, 516, 1742, 308, 749, -141, 1410, -189, -90, 
    -317, 637, -1243, -889, -361, 1747, 931, 1724, 934, 657, 799, -844, 1169, 333, 661, -624, -833, -1157, -457, -1690, 1044, -231, -619, -821, -762, 
    6, 312, 610, -302, -349, -322, -1496, -223, 202, 404, -1470, 798, -864, 641, 555, -102, -1056, 241, -85, -966, 710, 262, -83, -779, -530, 
    426, 1089, 785, 156, -1396, -1318, -574, -276, 168, -386, -1186, -358, 995, 134, 538, 1163, -532, -830, -1169, -569, -13, -2205, -1534, -1145, -640, 
    -2014, -533, 923, -1206, 430, 646, -1416, -460, 267, 1102, 335, 906, -908, 528, 1385, -1110, 1757, 1027, 1153, 975, 458, 782, 533, -260, 186, 
    548, 104, 1159, -340, 359, 22, -1434, 1049, -411, -22, 1322, 99, 765, -176, 122, 409, -1309, 247, 60, -662, 386, -721, -539, -1858, 379, 
    954, -1094, -927, 387, -841, -1215, 56, 218, -104, 1739, 364, 428, 1246, 821, -1370, -159, -631, -343, -801, -1125, 311, 1020, 456, 334, -116, 
    744, 1080, -124, 293, 90, 261, 88, 291, 776, 1319, 405, 1041, -720, -544, -1662, 1281, 610, 528, 399, -19, 2173, 446, 1061, 1560, 500, 
    -476, -934, 354, -484, -292, 19, 103, -253, -16, -342, -509, -359, -216, 774, -867, -1520, -444, -1191, -770, -222, -1464, -283, -704, -858, 385, 
    1461, -1329, -312, -1117, -165, 729, 1150, -665, 981, 121, -477, 336, 552, 647, 886, -1055, -1305, -153, 716, -453, -62, 971, 858, -846, -429, 
    1459, -832, 1176, -625, 435, -245, -685, 170, 485, -182, -1605, -659, 367, -259, 88, 219, -874, -848, -885, -1267, -266, -620, -493, 96, -222, 
    314, -598, -110, -165, -174, 773, 156, 437, 945, 1238, 196, 375, 539, 471, -778, -110, 1486, 266, 487, -1047, -1412, 41, -275, -476, -555, 
    -174, -110, 1233, 852, -538, 312, -820, 185, 503, 537, -539, -322, -1374, 1263, 1389, -1022, 1496, 155, 224, 126, -1465, 163, -149, -70, -333, 
    -1120, 850, 538, 1308, -828, -792, -1087, 143, 805, 1421, 84, 718, 218, 1146, 1358, 1864, 1071, 737, 756, -790, 498, -1041, -169, -213, -1375, 
    -224, -320, 1211, 283, 171, 466, -319, 120, 379, -289, -93, -131, 1051, 338, 920, 73, 412, -207, -941, 467, 146, 245, 154, -1669, -985, 
    824, -813, 522, -521, -916, 333, 828, -1583, 485, -1233, 1013, 1331, 81, -641, -108, 494, 894, 539, -849, 968, -1462, -1732, 84, -752, 292, 
    -635, -848, -227, -558, -1063, 602, -1170, 29, 385, -596, 745, 864, 1513, 516, 435, -942, -309, -183, -28, 25, -273, -346, 452, -991, -853, 
    1241, 457, -497, -1249, 519, 534, 945, -298, 1147, 1090, 189, 349, 407, 587, 332, -1329, -537, -550, -1031, 244, 388, 351, -792, -77, 1069, 
    149, -158, 25, 92, 265, -2678, -2313, -452, -1579, -1501, -1822, -1948, 389, 298, -426, -458, 202, -732, 1130, -958, 475, -247, -871, -905, -310, 
    82, 113, 161, 159, -306, -1331, -318, 1592, -924, 528, 909, -1227, -675, 177, 1198, -30, 1030, -1308, 1054, -462, -467, -488, -1451, -1214, -1358, 
    1400, 1019, 508, -618, -685, 1200, 242, -1001, 384, 439, 1046, 1077, 505, 820, 640, -480, 157, -906, -766, -45, -104, -458, 86, -670, -1210, 
    -84, 44, -65, -250, -14, -752, 375, -487, 530, -218, -1424, -1007, -1267, 724, -877, -26, -1155, 67, -770, -450, -210, -611, -456, -242, -757, 
    -1099, 488, -708, -40, -1458, -533, -246, 646, -761, -1320, 674, 1550, -1268, 297, -603, 333, 446, 1440, 987, 1693, 521, 1185, -427, -1585, -350, 
    -245, -273, -1202, 274, -1007, -24, 207, -1009, 865, 189, 921, 1128, 460, 339, -710, 633, -485, 156, 673, 244, -441, -1449, 302, -1395, -976, 
    2080, -1481, -1179, 930, 78, 799, -1351, 970, -865, -206, 355, 1597, -258, 754, -968, -75, 277, -898, -1088, -757, 393, 869, -728, 1818, -311, 
    1701, -926, -1326, -174, -708, 1258, -389, -400, -143, -376, 1876, 505, 302, -1001, -949, -14, -1640, 653, -419, -917, 1583, 1615, 427, -1368, -1068, 
    669, 875, -1026, -779, -832, 1421, 863, -306, -768, -182, 889, 536, 396, -247, -1291, -126, -118, -813, 170, -36, -602, -32, -1885, 52, -642, 
    
    -1314, 197, 1721, -1048, -391, -137, -55, 1323, 488, 452, -239, -1354, 43, 163, 396, -401, 1442, -140, -778, 626, -145, -292, 1229, 1583, -114, 
    -893, 131, -110, -1519, 794, -33, 393, -717, 1398, -265, 116, -417, -1173, 2083, -2014, 847, -286, -41, 617, -390, 1314, 1028, 687, -1791, -279, 
    503, -727, 15, -1368, 130, 949, 376, -1272, -350, 986, -1234, 51, -2278, -449, 59, -56, -892, -433, 331, -522, 149, -1452, 146, -1351, -146, 
    222, 1232, 609, 936, 371, 344, -428, 1152, -622, 618, 986, -2147, -458, -190, 967, 698, -835, -343, 315, -591, -178, 727, -1572, 37, -140, 
    35, 210, -749, 118, -115, 198, 224, -1494, 804, 460, 1220, 2309, -759, 2138, 1060, -385, 753, 336, 2803, 254, 1731, 1719, 97, 1820, -105, 
    -694, -223, 524, -1832, 341, 969, 707, 656, -665, 272, -229, -971, -1982, 248, -1638, 786, 358, 91, -925, -338, -1031, 193, 1680, -178, -689, 
    -101, 1319, -930, 1234, -1050, 428, -74, -1129, 231, 457, -740, -1456, -878, -448, 327, -324, -340, -1507, -45, 1388, 1355, 443, -762, -421, 331, 
    -264, -1246, 747, 278, -40, -645, -2193, -959, -312, -650, 247, -865, -521, -530, -1112, -792, -316, -87, -514, -112, 236, -825, 175, -58, -900, 
    438, 170, 6, 1123, -598, 1246, 341, -807, 2106, 1998, -575, 79, -1003, 553, 1148, 2285, -199, 246, 1299, 794, 730, 397, -917, 1158, 191, 
    100, 774, 1065, 754, 817, 479, -365, -404, -662, -605, 1142, -1692, -826, -1977, -2234, -1403, -1388, 272, -1087, -468, 916, -57, -1559, -1149, 601, 
    -847, -316, -20, 839, -381, -622, -1336, -948, -142, 529, 148, -1744, -1181, 582, -1932, -1361, -956, 459, -1770, -1362, -617, -233, -937, -336, -1138, 
    1041, -536, -477, -929, 175, -1579, -2527, 67, -997, -218, -517, -1481, 639, -1940, -1308, -115, -1461, -1087, -1417, -105, -934, 375, -1404, -358, 266, 
    -256, -718, -1897, -312, -1599, 66, 310, -816, -913, -297, 759, 467, -1577, -790, 318, -1353, -2514, -131, -1509, -399, -1464, 124, 1036, 1085, 190, 
    66, 586, 421, 154, -1255, -1730, 518, 1876, -641, -1198, -1818, 508, 1117, 386, 46, -1059, 433, 1857, 1018, 164, 1154, -9, 922, -69, 465, 
    799, 1462, -900, -549, 723, -624, -1649, -734, -1019, -777, -802, -13, -658, -1665, 828, -1683, -1114, -1900, 155, -886, 695, 26, 766, 334, 902, 
    -1150, -407, 115, 597, -1095, -104, -1472, -14, -583, -1762, 637, -672, 700, -158, -111, -1973, 603, -1029, -890, -1222, -530, 800, 1138, 627, -74, 
    85, 603, 748, 87, 3, -363, -210, -317, 158, 254, -1403, -1044, -752, -946, -1885, -445, 248, -924, -651, -2014, 272, -852, -371, -1883, -894, 
    -930, -76, 560, 163, 847, 1408, 966, -184, -246, 1449, -29, 589, -6, -1052, -91, 562, -1448, -727, -411, -1516, 254, -244, 357, -1528, -124, 
    545, 526, -346, -824, -437, 1919, 323, 183, 634, 1483, 79, -1170, -2570, -2533, -1564, 215, -347, -581, -775, -1913, -773, -2168, -815, -2022, -666, 
    544, 449, 805, 1124, 561, -653, -884, 643, 1190, -316, 736, -1957, 29, 1602, -1118, 1106, -601, 1008, 1190, -311, -49, -894, 474, 855, 631, 
    -145, 142, 632, 672, 390, 76, -114, 163, 909, -798, 290, -1315, 594, -279, 583, 432, -281, -1064, -503, -770, -774, -233, -782, 636, -249, 
    725, 233, 1679, -34, 397, 454, -186, 595, -238, 795, -189, -958, 1089, 99, -934, -60, -744, -429, 706, 1350, -625, -632, -357, -862, -1017, 
    1467, 919, 1196, 191, -1564, -72, -762, 1003, 588, -107, 1331, -685, 1398, -686, -937, -1788, -670, 471, -688, 1063, -358, -2184, 81, 101, 1282, 
    -901, -1728, 942, 514, 1338, -34, 642, -294, 2159, 840, 1336, 148, -88, -246, 508, 330, 879, 1632, 953, 64, 1124, 432, -69, -64, -420, 
    1231, 163, -733, -744, 788, -970, -1310, -117, -79, -1655, 346, 121, 1165, 739, 154, 459, 175, 1732, 126, -1544, -998, 255, 1158, 385, -639, 
    717, -304, 1832, -419, 1305, -191, -1022, -1000, 730, 487, -239, -1710, -358, 1126, 287, 1264, -1294, -763, 1796, 227, -57, -325, -45, 802, 399, 
    -779, 98, 69, -85, -1553, -1013, -1360, 1099, -705, -609, -1750, -1445, 766, -996, -594, -1260, -164, -563, -382, -54, -1503, 967, 972, 601, 201, 
    -251, -1083, -462, 62, 705, 248, 413, 1550, -768, -597, -1461, -1027, -33, -314, -1026, -1298, 943, 842, -1244, 27, -322, -1370, -142, -140, -261, 
    527, -402, -160, 162, -764, 503, -129, -146, -664, 321, -66, -404, -998, -898, -1176, -1065, 426, -843, -927, -451, -1738, -1953, 323, 321, -253, 
    1478, 720, 82, -75, -178, -267, -2669, -849, -72, -1185, -230, -1204, -1539, 535, 133, -273, -763, -12, -763, -606, 240, -1161, 713, -101, -183, 
    852, -437, -411, 902, -59, -1054, -2673, -500, -1054, 490, -281, -122, 737, -98, -1306, 664, 250, -74, 355, -625, 157, -823, 456, 6, -251, 
    -221, -621, 857, 492, 315, 394, 565, 121, 1657, 1217, 222, -1505, 42, 940, 967, -565, -2004, -1416, 1785, 214, 74, -1758, -1076, 1356, 1177, 
    
    548, -1445, -544, 1110, 406, 1121, -1334, -693, -1417, -463, 807, 83, -124, -773, -142, 234, 482, 392, -505, 288, -157, -274, -814, -1113, -291, 
    -211, 483, 246, -620, 141, -479, -1742, -1052, 476, 1823, 77, 2123, 942, 1956, 1074, -912, -558, 1229, 1392, 818, 131, 918, -48, 39, -1280, 
    283, -649, -1062, 247, 1219, 208, -60, 314, -198, 2115, 490, 509, 1092, 1549, 433, 758, 97, 77, -1570, -1883, 11, -1521, 378, 1098, -614, 
    -713, -789, -1345, -759, -1487, 403, 901, -551, 130, 708, 468, -118, 132, 425, 76, -599, -1968, -663, -998, -2279, -950, -284, -680, -984, -740, 
    373, 886, -340, 246, 175, -362, -1289, 641, -24, 399, 256, -1576, -365, 859, -233, 1387, 1303, -59, -396, -234, -791, 610, 625, 0, -632, 
    245, -1919, -350, 796, 949, 342, 1087, 686, -229, 904, 1477, 3443, 3183, 2389, 1290, 1575, 2584, 2744, 1582, -872, -337, 650, 1117, -99, -818, 
    144, 1661, 1531, 140, 787, 595, -219, 1526, 893, 150, -193, -249, -1422, -1375, -144, 57, 1474, -1359, -753, 673, 920, 591, -616, 548, -497, 
    -490, -667, 1330, -809, 524, -182, 755, -242, 661, 569, -1420, -724, -83, -1924, -1794, -770, 102, -1568, -1676, -995, 702, 1549, 648, -82, -427, 
    1329, 1825, -50, -736, -1241, 452, -1328, 585, -1043, 627, -209, -2161, 995, 937, 121, -799, -666, -1173, 583, -1428, -2344, -1714, -301, -114, -1881, 
    -495, -1047, -121, 491, 1633, 1867, -25, 1239, -290, 3071, 1620, 1905, 2017, 1933, -129, -1339, 108, 1270, 76, -208, -1036, -505, -994, -615, -1606, 
    -834, -16, -1125, 756, 1552, 906, -259, 498, 1248, 231, -436, -478, 287, -215, -1755, 656, -996, -455, -1380, -496, 1169, 928, 1376, 815, -99, 
    -589, 1271, 708, -99, 1042, -335, 194, 850, 1035, 1321, -1536, -1117, -884, -324, -1554, -821, 871, 1032, 554, 643, 714, 1184, 726, -109, 495, 
    270, 1731, 2081, 1116, 523, -1098, 1088, 2244, 1293, 666, 537, 572, 98, 1978, 1410, 2279, 3217, 2076, 2139, 1179, 2201, 1499, 105, -9, 627, 
    1109, 246, -88, -340, -1060, -497, 943, 114, 1033, 1103, -863, -688, 611, -1104, -475, -1294, -1935, -703, 39, 1184, -311, -78, -1317, -451, 724, 
    342, 1510, 1458, -217, 620, -913, -222, 476, 558, -739, -1642, -2313, -340, -1929, -1416, 262, 1247, 1887, -808, 656, 66, 2727, 1900, 76, 645, 
    -68, -36, 521, 656, 481, -1358, -609, 958, 631, -392, -1471, -1878, -1034, -652, -1487, -1594, -1004, -1775, -1460, -569, 1458, -685, 1064, 1791, 50, 
    -1242, -1223, -1010, 1080, 959, 637, -983, -1123, 1920, 1190, 1357, 346, 1725, 711, 1562, -260, 949, -487, -461, -1225, 772, -1125, -1468, -1681, -1041, 
    -1334, -667, -646, -169, -700, -822, -1082, -1203, -769, 233, -595, 326, 2542, 2865, 688, -120, -1310, 1678, 653, -432, -562, -826, 1170, -1253, -326, 
    1, -718, -1428, -428, 2108, 519, 1210, -442, -70, 987, 1325, 1282, 2321, 936, 1004, 294, 1859, 1474, 282, -722, -948, -255, -1246, -2080, -2162, 
    459, 1470, 601, -806, -538, -39, 1189, -767, -1377, 1204, -469, 257, -51, 629, -1006, -1145, -2017, -405, -190, -1426, 235, 734, 239, -801, -1642, 
    238, 1212, -689, -1011, 1169, -12, 814, 570, 272, 684, -701, 643, -166, -1846, -152, -1227, 466, 229, -1770, -897, -1023, -442, -770, -1534, -1459, 
    568, 95, -490, -744, -1156, 872, 870, 1150, 1165, 884, 21, 187, 533, -576, -508, -626, -351, -2330, -1335, -1827, 746, 320, -532, -1267, -412, 
    -645, 817, 798, 238, 712, 1461, 817, -856, 1071, 1374, -2017, -390, -137, -3, -1143, -744, -593, -1708, -1902, -416, -852, 846, 1072, -408, 393, 
    121, 57, -1475, -704, -1528, -1022, -1519, -2057, -1428, -1501, -1136, -2681, 730, -365, -572, -1796, -973, -329, -392, 155, -1512, -1243, 432, -166, -508, 
    175, -1365, 300, 597, 1184, -232, 757, 1013, 1130, 4, 234, -1040, 755, 676, 613, -438, -1584, -1522, -1757, -1992, -124, 37, -1010, -852, -87, 
    762, -839, -838, -544, 359, 28, 599, 1449, 165, -123, -1430, -631, -831, -110, -1166, 199, 706, -795, -597, -1043, 527, 1417, 341, -434, -107, 
    14, 994, -784, 1604, -455, -928, 584, 452, -467, -275, -798, -190, -751, -1826, -906, 620, -379, 622, 340, -757, 1036, 444, 1493, -231, 305, 
    392, -1312, -1569, -170, -125, 1207, 662, -493, 1185, 28, 1177, 1486, 1545, 1275, 1595, -1941, -418, 75, -438, -2142, -1469, -1158, -2190, -2275, -852, 
    405, 288, -13, -2017, 1435, -174, 1218, 1342, 693, 774, -263, 593, 1766, 1136, 1457, -1234, 717, -845, -952, -2043, -1304, -1430, -1613, -2448, 139, 
    -182, 881, 791, 1558, 1030, -1213, 527, 592, 35, 151, -871, -581, -1497, -1140, 273, -174, 835, 1231, 408, 872, 1507, 1598, 2081, 1229, 160, 
    -322, -24, 677, 877, -195, 96, 1240, 1175, 964, -608, -598, -1610, -148, -619, -1289, 1200, -45, 873, -1176, -684, 558, 1602, 1537, -391, -88, 
    -869, -911, -985, -953, -604, 1650, 761, 778, 48, 1120, -1055, -398, -389, -212, -482, 308, -2075, -835, -2289, -1431, -433, 256, -1048, -888, -1783, 
    
    -1852, -618, -1254, 632, 434, -91, 101, 867, 1696, 179, -403, -69, -1296, 181, -878, -82, -1477, 218, 706, 1187, 195, -796, -745, -569, 1184, 
    -778, -1648, -2065, -953, -1470, 888, -145, -1004, -1849, -2189, -211, 949, 104, -1252, -829, -374, -304, 1903, -67, -1373, 900, 855, 735, -1781, -494, 
    421, -38, 313, -1688, -784, -516, 461, 614, -1064, -760, -1125, -116, -162, -1389, 332, -1664, -378, -387, -888, -1096, 198, 1459, 97, -885, -200, 
    -1520, 106, -985, 146, 123, 1015, 913, 936, 115, 831, -920, -1338, -46, -392, -350, -353, 1060, -623, 227, -601, 790, -1062, -188, -1840, -52, 
    -1196, -1841, -1334, -76, -176, -1814, -664, 484, -844, -93, -1413, -1251, -746, -814, -109, -138, 117, -1953, 337, -1265, -293, -1404, -294, 65, 261, 
    -1512, -177, -11, -364, -275, -305, 183, -767, -97, -781, 400, -451, -539, -1924, -1963, -1151, -864, -846, 137, -1307, -555, -245, 491, -259, 165, 
    -432, -458, 1150, 963, 1239, -629, -569, 19, -817, 790, -786, -150, 119, -917, -319, 269, -1458, 9, -417, 262, 1656, -769, 381, 505, -520, 
    -114, 328, 572, 473, 807, -898, -192, -1671, -496, -49, -1011, -154, -1130, -860, -707, 424, -1379, -606, -1535, 343, 1198, 1047, -472, -1106, 26, 
    -1747, -1270, -1515, 306, -1478, -859, -231, -1741, -1508, 71, -1064, -252, 971, -309, 724, -794, 68, -24, 149, -363, -690, -569, 266, -56, -1378, 
    -1051, -734, 1835, -913, -1743, 374, 886, 204, 745, -412, -403, 5, -843, 930, -841, -1417, -1209, -922, -203, 995, 801, 327, -832, -96, 666, 
    773, 353, 1017, 345, 780, 725, 745, 807, -301, -206, -1567, -810, -105, -571, -816, 1464, -354, 431, -42, 918, -197, -401, 419, -1231, 767, 
    2181, -287, 1241, -1611, -206, -745, -608, -74, -1348, -658, -1541, -541, 185, -43, 958, -792, -213, 911, -1150, -1698, 307, -1162, -909, 780, -102, 
    -11, 552, -413, -1556, 107, -316, 109, -1862, -8, 553, 1624, 332, -1124, -2100, 400, 938, 330, -1487, -380, -202, 1064, 446, 904, -76, 890, 
    -1268, -118, -104, -1018, -2123, -612, -931, 423, 89, -1059, -230, -109, -140, 1286, 1672, 568, -770, -1398, -582, -24, 454, 468, -189, -81, 208, 
    1072, 222, 1676, 1512, 99, 650, 657, -525, -557, -626, -261, -839, -1047, 99, 615, -123, 267, -715, -2488, 209, 1879, 1344, -1041, -377, 350, 
    -15, -419, -648, -1113, -1601, -1757, -1188, 236, 559, -457, -551, 638, -495, 1295, -378, 570, -1588, 134, -1575, 14, 1601, 131, 277, -234, 986, 
    -907, 421, 832, -150, -393, 928, 1801, 497, -638, -235, 178, -493, -463, 300, -158, -812, -131, -694, 17, 494, 14, 1, -494, -1578, -411, 
    -833, -1188, -1997, -225, -1062, -1375, -327, 383, -1492, -1854, 561, -162, -121, -1973, -594, -287, 948, 493, 127, 542, -2358, 1364, 1406, -668, -1276, 
    -506, -275, 1200, -116, -665, 1303, 1153, -765, 331, -1625, 694, -1041, -1224, 390, -1123, -1813, -1183, 440, -134, 688, 111, -316, -334, 861, -1076, 
    91, -582, -970, -71, -1397, 216, -552, -191, 860, 896, -550, -760, -5, 791, 455, 1147, -731, 517, -1400, 670, 402, 1321, 447, -1156, 664, 
    623, -10, -555, 927, 187, -1535, 1082, 390, 392, 1025, -1233, -727, -713, 525, 989, 464, -1334, -328, 641, 333, -801, -220, -1667, 1025, -640, 
    559, 751, 461, 154, 273, 1523, 332, -1194, 1650, -124, -46, -80, -1009, 217, 1337, 535, 113, 539, -893, 695, -627, 294, -1331, -1692, 427, 
    1284, 1847, 669, 716, -83, -751, 431, -243, -155, 863, 309, -236, 413, 974, 1001, -598, 183, -1578, -450, -598, -260, -892, -1234, -197, -217, 
    -1570, -2374, -1663, -2372, -109, -2347, -70, -1201, 114, -193, -274, -789, -312, 281, 201, -446, 745, 1196, 149, 349, -1923, -463, 1139, -637, 24, 
    -194, -848, 337, 983, 296, -1081, 632, -98, -373, -494, 1413, 846, -492, 17, 162, -820, -449, 586, 388, 688, 1292, -421, 604, -479, 985, 
    438, 1533, 778, -776, -212, 814, -768, -285, 443, 298, 982, -1838, -473, -408, 969, -1436, -400, -490, -836, -664, 1733, 1157, 107, 547, -30, 
    -963, -1536, 372, -1009, -1494, -123, 338, -538, -306, -394, 95, -1018, 515, -745, 316, -537, -516, 538, 201, 288, -1377, -41, -596, 572, 542, 
    -513, 1388, -40, -132, -892, -651, -26, -240, -313, -1799, 149, -673, 1166, 364, 196, 117, -984, -743, 517, 381, 310, -1226, -612, -652, 1305, 
    -499, -62, 613, 1069, -183, 487, 1615, 1211, -291, -504, 1458, -1633, 614, -324, 156, -1361, -514, 423, 922, 549, 94, -130, 472, 400, 1087, 
    650, 1439, 890, -594, -104, 323, -517, 515, -106, -961, -619, 900, -1338, -1933, 414, 888, 248, -1309, -127, -1012, -486, 1381, 255, -207, -233, 
    657, 966, -364, 638, 977, -255, 95, -204, 1537, 373, 260, 155, -608, 346, 520, -219, -1039, -619, -565, -807, 489, -1049, -591, 371, -1252, 
    1, -504, 488, 1772, 469, 1147, -477, -817, -189, 93, 491, -1048, -192, 370, 1502, 308, 325, -1513, -166, 598, 281, 1162, -1089, -322, -809, 
    
    1985, 387, -1177, -1955, -649, 133, -1727, 724, 24, 1155, 37, -1698, 877, 42, 971, 920, -510, -694, -505, -61, 463, 1589, -26, -901, -929, 
    -773, -827, -1097, -1348, -858, -2512, -905, -317, -634, -868, -1077, -62, -700, -763, 2084, -2002, -3235, 649, 2270, 1807, -1983, -1592, 1287, 1057, 192, 
    -1344, -45, -98, -271, -529, -2130, 1465, 1250, -95, -1290, -1360, 1542, 425, 512, 1685, 42, -178, 609, 332, 600, 101, -916, 1592, 1222, -52, 
    -1293, 374, 784, -16, 267, -245, 1070, -626, -370, 207, -349, -767, -1175, -724, 1051, -1352, -370, -146, -732, 517, -510, 50, 181, 494, 173, 
    -409, -583, -922, 361, 660, -433, 486, -713, -168, 558, -256, 297, -442, -1308, 990, -36, 384, -548, -154, -180, -622, -766, 500, -200, -1933, 
    735, 374, 175, 94, 1209, -27, -518, 907, 944, -114, -485, 1160, 239, 1368, -114, 48, 38, 457, 51, -497, 359, 734, 1537, 808, 774, 
    -1302, 106, 571, -140, 9, 243, 705, -214, -672, 577, 22, 1109, -16, 148, -1324, 1464, 790, -846, 17, -973, -958, 847, -1355, -1284, 265, 
    -1448, 90, -1410, -32, -545, -432, -172, -665, -261, 849, -302, -467, -488, -693, -758, 356, -96, 475, 388, 990, -2362, -438, 677, -750, 696, 
    485, 1011, 196, 316, 678, 297, -1260, -1078, -234, -736, 492, -537, -1393, -971, 987, -445, 851, -626, 1622, 425, -7, -2240, 372, 287, -925, 
    270, 481, 675, 222, 914, 523, 584, 1954, -229, -274, -676, 570, 426, 1413, -212, 551, -587, -611, 52, 164, 1314, 955, 1524, 687, -1201, 
    -30, 1608, 184, -287, -856, -241, 481, -1299, -1943, 625, -1607, 188, -1102, -998, -1169, 388, -951, 1322, 324, 159, -1535, -583, -373, -364, -546, 
    -1511, 57, -261, 791, 535, 230, -488, -1421, -62, 340, -337, 225, 2051, -395, -800, -1043, 260, 702, -1088, 1132, -2166, -1282, -570, 1275, 572, 
    676, 1420, -704, -382, -167, -162, 1088, -512, 695, -370, 601, 2735, 1411, 1015, 16, -1085, 389, -582, 529, 371, 907, -465, 854, -494, 339, 
    642, 466, 98, 49, 389, -291, -98, 813, 235, -1932, -1769, -206, 524, 1065, -1058, -595, -234, -857, 415, 539, 1235, -1205, -1153, -844, 432, 
    366, -1489, -968, 1664, 1285, -780, 404, -1036, 1524, 571, 1384, 745, -271, 186, -76, 156, 2619, 1541, 67, -494, -1011, -8, 354, 1979, 564, 
    895, 825, 572, -1136, -1107, -457, -235, -76, 107, 623, 780, -1669, 251, 1238, -845, -33, -2051, 614, 44, 1014, -184, -1632, -653, 1384, -186, 
    78, -403, -1392, -1606, -218, 692, 1437, 919, -589, -795, -605, -177, -1876, 1222, 1012, -1055, -232, 428, 1127, -660, 923, 1613, -218, -359, -1231, 
    -1302, -586, -1407, -1721, -893, -2721, -1042, 124, -1388, -766, -175, 211, -1078, -154, -225, -437, -1684, -889, 734, 1014, -366, 263, 803, 165, 350, 
    -967, 1283, -19, 385, -605, 537, 350, 2237, -324, 510, -803, -284, -625, 1662, 532, -483, -1219, 944, -369, -1363, 497, 1891, 965, -867, 167, 
    -405, 825, -423, 580, -1061, 428, -577, 15, 809, -676, 1101, 696, -410, 184, -264, 684, -437, 605, -7, -1087, 1119, 887, -23, 365, -818, 
    -1027, 1278, -185, -459, 739, 504, 599, 1211, -1145, 84, 1281, -1055, -1133, -166, -149, 768, 1049, -823, -514, 792, 984, 506, 352, -1973, -1743, 
    -950, -1717, 1122, 411, 1747, -708, 189, -508, -799, 194, 2040, -300, -374, -1665, -1371, 1882, 1240, -400, -1142, -1035, -185, 653, -689, 213, 848, 
    463, 1545, 858, 232, 52, 127, 839, -615, 1703, 380, -167, -132, 95, -978, -1696, 1004, 128, 578, -2024, -1453, -1126, 626, -389, -545, -227, 
    -1369, -178, -1494, -691, -785, 1, -1193, -1404, 420, 167, 879, 109, -1119, 459, 810, -515, -1415, -1667, 34, 1077, -903, -1493, 377, -1188, -127, 
    -507, 1227, -686, -401, 298, -813, 545, -911, -10, -167, 1029, -973, -614, -152, -908, 425, -681, 5, -487, 238, 661, 543, -150, -607, 1338, 
    -1771, 51, 1517, 444, -604, 39, -40, -557, 1516, 1655, 1173, 1677, 384, -858, -1509, -506, 977, 223, -1125, 423, -777, 490, -516, 299, -1208, 
    -608, -1178, 338, -4, 182, 882, -1595, -1062, -338, -376, 368, -865, -172, -1013, 109, 964, -223, 954, -863, 1236, 1189, 192, -587, -144, 38, 
    282, 949, 1334, -545, -1010, -1023, 692, 214, 1089, -592, 630, -446, -1259, 774, 277, 1753, -539, 565, 373, -1685, 165, 556, -751, -140, -90, 
    612, -969, 777, -607, -444, -766, -1110, 1917, -1023, -790, -681, -2389, -1352, -489, -294, 1482, 1046, 987, -412, -1573, -178, 904, 476, -375, -207, 
    1067, -1002, 342, 841, 243, 134, -63, 570, -510, 127, -232, -1250, -1179, 407, -36, 241, 785, 1036, -695, 77, -1765, -740, -1438, 875, 1312, 
    372, -310, -262, -947, 1558, 1059, -607, 556, 1230, 213, 936, 2295, 947, 844, 141, 1975, 1802, -243, 332, -677, 197, 1098, 320, -626, 563, 
    192, 985, 210, 653, -753, -93, -313, -575, -315, 519, -649, 366, -2279, -177, 113, -1256, -142, -85, -774, 893, 830, 801, 586, 1089, -6, 
    
    1663, 803, 237, -708, -1093, 710, 14, -1358, -369, 587, 90, -1450, -1318, -1222, -591, -653, 745, -1373, -372, -803, 1254, 1687, 1361, -39, 162, 
    -1907, 586, 769, 1997, 2136, -711, 1105, 1300, 1417, 181, 1051, 2675, 2300, 167, -1177, -794, 22, -1247, 367, -706, 115, 1130, -2117, -384, 60, 
    706, 295, 571, 1289, 1477, -296, 208, 825, 1260, -995, 118, 957, -154, -301, -315, 586, 1765, -1409, 201, -2427, 286, -145, -471, -411, -686, 
    -683, 484, 1991, 581, 265, -345, 2240, 453, -655, -1260, 1484, -100, -1251, -1754, -1519, 341, 299, -1199, -2493, -757, -242, -406, -1567, -136, -656, 
    -2157, -711, -54, 93, 860, -1035, 41, 759, 434, 441, -1376, 1246, 491, 172, 182, 224, 487, -193, -1512, 168, -93, -1594, 1152, 1535, -320, 
    -224, -1339, -1399, 250, 96, -929, 608, 1488, 854, 502, 1273, 1763, 667, 960, 602, 167, 1354, 487, 870, 264, 22, -869, -506, -961, 541, 
    797, -925, 1715, -486, 569, 75, 706, -319, -170, -84, 61, -10, 350, -1161, 79, 370, -1184, 429, 168, 96, -1106, -1670, -117, -86, -186, 
    230, 654, 1290, -93, 264, 818, 715, -160, -1578, -367, -368, -267, -1056, 247, -779, 228, -621, -1447, 288, -1044, -1312, 346, 412, -429, -182, 
    -1316, 1433, 954, 1367, 495, 55, 1064, 2476, 834, 21, -180, 2246, 1911, -1452, -1605, 285, 75, 68, -477, 620, 219, -883, 1316, 693, 497, 
    531, -864, -368, -77, 1134, 395, 698, 462, -730, -15, 1160, 798, 1090, -906, -592, 1854, 51, -206, -244, -708, 1258, 197, -82, -124, -121, 
    -781, 216, 1214, 676, 186, 275, -94, 145, -194, -2124, 903, -172, 601, -1678, -529, 424, 520, -457, -571, -1011, -509, -1185, -563, -1000, -618, 
    569, 1086, -1228, -713, -476, 1868, -1730, -2748, -2089, -166, -172, -249, -96, 727, -1307, -787, -145, 78, -408, 559, -733, -614, 596, 597, -250, 
    653, -216, -523, -879, -1252, 716, 184, -1971, -118, -1717, 1556, 2278, 174, 452, -1236, 925, 1088, 75, -55, 613, 55, 534, -333, -4, 927, 
    702, 1963, 876, -642, -131, 834, 389, -1065, -2816, -1152, 1537, -1216, -2630, -2358, -547, -687, -1516, 17, -945, -1097, -1260, 828, 687, -398, -1267, 
    -435, 960, -221, 138, -25, 1680, -1433, -2626, -2144, -406, 285, -424, -1084, 334, -370, -615, -427, -14, -363, -187, 814, -264, 80, 339, 1421, 
    546, 64, 2199, -307, -970, 1333, 890, -272, -1169, -151, -1135, -321, -1700, -549, -1960, -1239, -985, 213, 715, -2176, -1286, -5, -243, 385, -495, 
    1864, 1361, -498, 311, 1238, 1203, 1730, 1797, 2042, -370, 797, 2040, 1258, 153, -689, 390, -121, -997, -1293, -492, 1523, 1015, -870, -751, 663, 
    450, 1095, 88, 123, 556, -2128, 1677, 1015, 1758, -680, 1255, 1613, 1147, -841, -1213, 1198, 610, 205, -776, -1460, -106, 144, -1704, -1044, 16, 
    1264, -1352, -123, -672, 1435, -376, 1925, 545, 427, 229, 621, 1474, 1594, -146, -1158, 1415, 130, 558, -889, -807, 2090, -607, 789, -1080, -1612, 
    -312, 852, 579, 1393, 881, 1276, -82, -155, 1265, -2092, 159, 1191, 178, -1547, -1555, 537, -102, -1324, -307, -1027, -606, -2010, 684, 319, -112, 
    199, 815, 465, 764, 827, 454, -728, -29, 34, -481, 378, -351, -2042, -1400, -1124, -1087, -1749, -967, -1662, -611, 559, -601, -193, 906, 139, 
    -470, 195, 750, 286, 948, -927, -120, 1118, 1676, -1559, 66, -1164, 11, -494, -1163, -240, -508, -1090, 301, 255, -995, -125, -132, 398, -695, 
    978, 213, 460, 2062, 10, 27, -218, -558, -1705, -605, 153, -1855, -2243, -2693, -497, 583, -314, 48, -211, -1754, -1069, -672, 1204, 1220, -415, 
    -2025, -109, 1987, 1604, 1908, -541, 600, 1900, 1471, 1297, 709, 1311, 235, -834, 101, -297, -756, 1101, -1285, 497, -332, -290, 1204, 636, -1314, 
    -199, 479, -973, 117, -1353, 1948, 1396, -806, -275, -1367, 1637, 729, -853, -2724, -1612, -245, -820, -1681, -789, -625, -1039, -1230, -1759, -1288, 554, 
    462, -86, 977, 353, -1032, 1282, 411, 256, -440, -917, 1641, -389, -899, -1307, -568, -1425, 91, -1668, -1608, -641, -491, -1080, 409, 1488, 1553, 
    723, 841, 542, -89, -349, 1258, -571, 141, -698, -976, -157, -732, -673, -1058, 389, 539, -1847, 906, 793, -530, -156, -496, 543, -1229, -1024, 
    -58, 1495, 1570, 423, -1524, -1198, 369, 1891, -1049, -559, 513, -646, -209, -55, -1062, 708, 593, -373, -1399, 334, -870, -226, 672, -117, 142, 
    1625, 1222, 1088, 744, -630, -129, 458, 2150, 1157, -893, -487, 189, 1080, -1514, -834, -323, 403, 520, 61, -488, 379, -1218, 562, 852, -501, 
    188, -281, -86, 506, -681, 387, 468, -1265, -1842, -2273, 1778, 11, -47, -375, -1365, 107, -1112, 1584, -406, -257, -1186, -320, -454, 352, -593, 
    -82, -1069, -861, -930, -405, -1590, -2060, -662, -512, 416, -921, -282, -646, -958, 443, -1194, 1708, 513, -455, -929, -466, 961, -300, 546, 1056, 
    -304, 176, 329, 63, 100, -415, -285, 712, -230, 73, 510, 425, 50, -287, -752, 117, -410, -1721, -411, -798, -896, -1809, -789, 429, 419, 
    
    844, -185, -350, 1098, -1114, 994, 1075, 450, -1033, -950, -411, -1882, 575, -870, 333, -759, 1092, 747, -745, -407, 786, -1017, -609, 55, -1183, 
    480, 586, -148, -432, 345, 1016, 744, -861, 914, 92, -1174, -1014, -2096, -8, -80, -1141, -1105, -1368, -1452, -258, -665, 260, -157, -659, -186, 
    646, 32, -259, -1797, -718, -1863, 171, -1037, 538, -539, -189, -1143, -1759, 527, -1283, 1288, 662, -83, -466, -1407, -1062, 910, -503, 582, 2099, 
    -683, -229, -1245, 801, 1169, -1999, -1131, -603, -1218, 368, -365, -853, 858, -959, -1276, 370, -471, -1159, 145, 1172, -1508, 362, 929, 602, -823, 
    -412, -3, 256, -122, 960, 5, -1355, 857, -497, -92, 137, -973, -1087, 240, -622, -2533, -1832, -1202, -1058, -300, -2075, -411, -246, -2529, -1034, 
    1159, 476, -1164, -167, -62, 1068, 560, -1435, 0, 1564, -931, -994, -1146, -11, -758, 574, 295, -2006, -2107, -92, 1527, -70, 133, 2285, 387, 
    -1739, -1635, -482, -279, 478, -1011, -541, -542, 55, -761, 476, -21, -504, -291, 1571, 403, 358, -129, 129, -427, -34, 150, -1328, -1428, -616, 
    -914, -74, -422, 1143, -1465, -679, -664, 554, 33, -186, 974, 87, 341, -303, -322, 104, 85, 10, 302, 264, 294, 946, -627, -483, 168, 
    150, -1163, -68, -111, 408, -944, -163, -356, -569, 646, -1836, -1295, 166, 93, -831, -1308, -1442, 215, 8, 17, -777, -347, 162, -490, 455, 
    -266, 549, 1158, -1120, -49, -14, 1029, -124, -288, -640, -480, 299, 44, -864, -1350, 1219, -282, -467, -716, -215, 1071, 298, -722, 1671, 727, 
    -1183, -333, -1388, 642, 744, -730, -47, -546, 819, 223, 178, 200, 1261, -281, -440, 1731, 446, 510, 593, 1602, -1037, 72, -350, 142, -744, 
    -1428, -535, 652, 946, 757, -410, -747, -107, 692, -674, 1761, 1305, 1381, -1322, 1096, -103, 584, -255, 69, 1002, -1208, -1883, -163, 8, -2158, 
    -1737, -351, -465, -986, 857, 1560, 511, 93, 794, -67, -763, 775, 79, 1250, 968, -326, -908, 96, 643, -967, -677, -114, -37, -1018, -1002, 
    1446, -821, -1920, 221, 1146, -1414, 748, 931, 1130, -829, 1538, 762, 1403, -1553, -304, -96, -110, -386, 818, -156, 528, -567, -369, -669, -764, 
    -339, -691, -297, -703, -526, 252, 106, -126, 622, -1157, 410, 542, -352, 445, 1486, -585, 549, 1695, 1345, -587, -633, 455, -345, -1300, -420, 
    -176, -112, -772, 361, 538, -714, 211, 205, 41, -235, -176, 1747, 659, -1227, -377, 211, -364, -501, -357, -765, 136, 536, -1532, -783, -2082, 
    -875, 717, -840, 520, -23, 793, 284, 510, -950, -77, -1297, -1458, -10, -485, -117, 1950, -565, -1254, -2234, 497, -23, -146, 1530, 1465, 1529, 
    -342, 224, -403, -1050, -115, -400, -948, -334, 1072, 205, -2624, -1635, -1887, -1701, -1510, -35, -283, -1895, -1362, 189, -850, -481, -388, 238, 2256, 
    -976, -594, 295, -851, -1867, -344, 68, -1030, -170, -31, -922, -2025, -128, -1084, 389, 1253, 410, -535, -1457, 947, 1687, -340, -476, 1131, 1226, 
    -666, -1701, 400, 675, 30, -2675, 423, 1153, -617, -1225, -325, 24, 512, -384, -746, 264, 210, 326, 582, 391, -1284, -68, -306, -410, 282, 
    24, 688, 1387, -640, -49, -65, -773, -654, 842, -820, 284, 189, -384, 325, 948, 440, 558, -1149, 660, -72, 742, 380, 1762, 175, 67, 
    -1095, 391, 141, 506, -1315, -1775, -540, -478, -1051, 151, 1072, 760, -129, 182, -14, 857, -384, 539, -159, 770, 550, -156, 1325, -285, -409, 
    740, -1306, -987, 1118, 1691, -1886, 515, 897, 837, 597, 620, 1169, 839, 145, 511, 950, 740, 1207, -348, 1186, 1380, 206, 897, -240, -449, 
    -996, -301, 576, -141, -1419, -1894, -2064, -1856, -1228, -502, -2166, -2144, -776, -444, -686, -1900, -2001, 445, -1108, -302, -378, -744, -2487, -1389, 1012, 
    -1074, 391, 319, 386, -933, -552, -262, -1740, -310, -197, -295, -1515, 813, 687, -527, 1133, 280, -150, 124, 430, 1424, 161, -185, -678, 1370, 
    -2667, -1430, -427, -43, 311, -1892, -2265, -1688, -326, 1066, 1339, -935, 1259, 1018, 176, 1098, 565, 715, 1004, 140, -260, -150, -925, -903, 920, 
    366, -1310, -796, 140, -519, 1469, -573, 1285, 272, -886, 593, 25, -213, 125, 699, 416, 1455, -84, -1499, 345, -249, 262, -935, -961, -1479, 
    145, 177, 1339, 532, -1256, 229, 1134, 459, 1380, 1157, -835, -592, -1262, -311, -538, 1218, -467, 712, 368, 477, 818, 645, 666, 632, -186, 
    80, 492, -771, -1058, -249, -1112, -256, 535, 715, 507, 116, 405, -64, -631, 156, -193, 1946, -420, 166, -299, 947, -76, 956, 65, 1058, 
    -1025, -108, -1275, 96, 1033, 397, -1129, 304, 1058, 736, 1591, 196, 240, 1123, 485, 422, 1336, -383, 238, 1213, -1515, -1944, -846, -701, -1523, 
    -1326, -871, 587, 311, -1384, 208, -355, 933, -1127, 410, 1273, 627, 233, 218, 1086, 350, 1780, 237, 482, -382, -1231, -388, -1808, -1038, -874, 
    -354, -177, 60, -1423, 847, -1068, -121, -633, 416, 621, -1199, 232, 1324, 1111, -745, 465, 169, 1262, 248, 710, 760, -683, 1148, 471, 475, 
    
    -633, 1174, 564, -729, 88, -145, -381, 14, -92, 809, -254, 560, -191, -646, -621, 1357, 466, -452, 306, -969, 861, 2139, 184, -769, 367, 
    2118, 411, -1362, -106, -81, -325, 401, 1870, 279, -2234, -666, -2278, -942, 47, 485, -1356, -1884, -2576, -1096, -194, -1348, 805, -163, -387, 496, 
    -536, -665, -686, 251, -295, -289, 499, -504, -343, -1048, -339, -1311, -1769, -379, -424, 664, 1216, -2014, -697, -252, 823, -832, 688, -39, 462, 
    -36, 306, 626, 495, 938, 733, -867, -476, -372, -776, -301, 546, -100, -876, 9, 438, 797, 18, 97, -527, 353, 1527, 1542, 429, 1070, 
    341, -852, -22, 427, 1040, 1775, 191, 396, 668, 13, -902, 1783, 1454, 1947, 685, 864, 447, -453, 183, 74, 496, -699, -1013, -801, -903, 
    -33, 432, 714, -68, -1838, -534, 1168, 189, -1254, -115, -1589, -1850, 289, 207, -480, 89, -245, -1098, 738, -839, 298, 232, 1079, -104, -378, 
    232, -1406, -956, -860, 919, -92, -598, 576, -1282, -349, 1346, 200, 50, 1129, -1434, -584, 1160, 881, 1544, 786, -1060, -685, -642, -1118, 235, 
    636, -1844, 12, -289, 1391, 907, 149, -367, -1920, -99, 1439, 88, 154, -421, 129, -423, -209, 1369, -330, 1628, -295, 17, 441, 594, 802, 
    1156, 288, 121, -115, -166, 1010, 845, -344, 866, 824, 435, -288, 1967, -846, 583, -342, -1188, -1059, -1042, 246, -484, -12, -148, 1133, 1321, 
    -1502, -133, 589, -615, -304, -1012, -860, -888, 1272, 385, -1281, -1906, -1533, -954, 625, 1170, -295, 82, -686, -887, 1044, 69, 2392, 1904, 1124, 
    -310, 548, 154, 1229, 547, -620, -192, -626, -799, 7, 223, 123, 483, -884, -949, 833, 1129, 393, 834, 815, 293, 784, -837, 785, -959, 
    908, 148, 181, 318, -153, 1624, 523, -929, -556, 62, 867, 763, 0, 608, -1146, 113, 788, 805, 274, -216, -730, 651, 539, -278, -839, 
    -1186, 1073, 944, -580, -608, 504, 410, 578, -1983, -31, -581, 992, 1463, 922, 1071, -697, -1625, 44, 2408, 844, 1214, 794, -1151, -978, -1568, 
    -1197, -1106, -308, 362, -98, -137, 311, 183, -5, 53, 925, -293, -953, -576, 2349, 4, -793, -587, -1477, 1031, 1369, 444, -1394, 669, -68, 
    -809, -283, -445, 96, 204, 444, -1155, -436, -345, 60, 914, -39, 739, -1034, 871, -702, 16, 211, 1163, 553, 925, 1375, -983, -1457, 892, 
    -1253, -901, 1039, -327, 450, -436, 752, -673, -579, 1281, 884, -158, 260, -674, 321, 169, -491, 371, -883, -249, -986, -508, -1193, -1351, -503, 
    308, -138, -115, 1016, -1517, 339, -783, -610, -15, -320, -1625, -1310, -412, -872, -1235, 470, -806, 72, -239, 847, 900, 1584, 1413, 552, 923, 
    -595, 476, 371, -341, -1128, -1056, 665, 1032, 236, -1125, -228, -818, -1243, -1160, -221, -412, -320, -601, -1268, 850, -142, -730, 1266, 0, 1522, 
    180, 4, 463, -683, 79, -1569, 28, 6, -633, -1092, -669, -2538, -1274, 155, -1547, 774, -1066, -914, -2228, -1759, 1573, 1299, 1342, 1470, -190, 
    -2419, -704, -804, 134, 390, 253, -613, -1618, -55, -1463, 776, -36, 105, -114, -1, 1933, 870, -218, 370, -728, 350, 387, 793, -942, 274, 
    -1817, -671, 341, -701, 272, -555, -812, -1216, -102, 622, 5, 592, -972, -43, -126, 1329, 345, 370, 580, 1442, 1762, 1588, 1108, 1453, -194, 
    -1305, -1519, -379, 1167, 1339, 470, -765, -536, -537, 1809, 962, 355, -41, 38, -1048, 1118, 1579, -552, -491, -992, -1903, -745, 828, 1109, 629, 
    -1541, -1820, -577, -138, 172, -1093, -1436, 460, -556, -461, 1856, 79, -476, -673, -934, 560, 893, -350, 34, 579, 459, 650, 201, 1494, -356, 
    1863, -1089, -482, 392, 418, 76, -331, -1363, 849, 1466, 969, 113, -460, 657, 7, -544, -457, -285, 393, 463, -182, -503, 162, 178, 776, 
    -517, -1084, -667, 787, -757, -1355, -214, 656, -325, 1546, 1503, 88, 6, -1066, -763, -151, -275, 475, 1065, -141, -405, -341, -1188, -150, -423, 
    -169, -1029, -405, -536, -938, 864, -11, -608, -1597, -1116, 454, 1604, -419, -380, 115, -672, 435, 213, -957, 30, -1470, 528, 418, -36, -719, 
    171, 155, 900, -114, 124, 1626, 262, -302, -879, 579, -217, 109, -11, 692, 379, -368, -862, 716, -146, 2113, -457, -29, -494, -2129, 810, 
    22, -266, 1137, -508, -532, -1582, -1539, -883, -672, 1262, -1256, -978, 618, -139, 155, 1680, 1230, 230, -812, -147, 1155, 1009, 1213, 576, 1662, 
    -1667, -55, 205, 339, -535, -983, 80, -1019, -1310, -156, -114, -452, 410, 735, 1068, 2074, 1752, 364, -716, -216, -973, 998, 1813, -409, 578, 
    13, -675, 1046, -1229, 40, 1966, 201, -1018, -755, 97, 2422, 1156, 896, 1003, -385, -1082, -1, 382, 1672, 189, -535, 376, -241, 1556, 312, 
    -721, -860, 593, 1367, 1063, 1200, -1193, -304, 144, -332, 1836, 1402, 920, 745, -22, 523, 1644, 1197, 394, -189, 319, 405, 1182, 1008, 185, 
    -1357, -405, -673, -687, -1113, -1269, -2119, 95, -8, -284, 1285, 331, -825, -764, -842, 1, 979, 164, -129, 915, -818, -196, 1196, 1225, 214, 
    
    268, -944, 479, -608, -870, 413, -224, 303, -549, -395, -26, -185, 746, -785, -132, 676, -1217, -252, -1893, -671, -1160, 1203, -1064, -368, 543, 
    332, -1072, -1326, 841, -1746, -454, -1201, -2175, -844, -1470, -582, -1565, -916, 1161, 970, 625, 361, 1323, -330, 478, 489, 410, 1265, 1622, -262, 
    1473, -1057, -607, -242, 94, 1186, -264, -1249, -850, 952, -640, -287, 301, 2041, -608, -1708, -539, 1055, 227, -820, -47, 531, 447, -394, -296, 
    -80, 15, -1652, 129, -441, 501, -55, -242, 484, 297, -494, -339, -277, -596, 453, -946, 1850, 873, 1185, -1849, 1091, 1246, 499, -56, -1864, 
    -1256, -119, 312, -142, -1279, 50, 546, 560, 1412, 603, -667, -895, 690, 688, 399, -417, -1897, 522, 293, 753, -1842, -1345, -1177, -423, -828, 
    591, -1079, -207, 507, 399, -726, -2351, -1050, -206, -9, -201, -744, -1816, -1821, 59, -2362, -819, -1364, -1631, -424, -182, 504, -1448, -626, -1277, 
    405, 594, 286, 1070, -1929, -621, 1421, 81, -641, -84, -928, 361, 3, 602, 730, -214, 602, 111, -111, 985, -762, 142, -235, 1014, 580, 
    376, 64, 1475, 1177, -121, 1456, 1031, -623, 347, -857, -381, -1084, -781, 308, 19, -293, 1590, -222, -2052, -468, 895, -48, -110, -42, -777, 
    -1016, 49, 729, -444, -1378, -1412, -1959, -597, 387, 362, 118, 7, 143, 1253, 858, -385, 988, 1597, 1131, 710, 37, 2087, 439, 803, -1477, 
    1553, 266, -473, -717, -44, 240, 273, -106, -559, -1293, -569, -1163, -1604, -1528, -60, 63, 92, -741, 32, -258, 1422, 1005, -371, 336, 174, 
    -1555, -356, -541, -396, -850, -32, 318, -276, 904, -439, -650, 236, 711, 515, -1138, 404, 1380, 442, 698, 721, 1065, 150, 477, -1101, -382, 
    719, 1353, 663, 374, -279, 1301, -1405, -341, -864, 1158, -740, 349, -1252, -2114, -1260, 1067, 77, -2920, 796, 381, -424, -393, -1171, 761, 213, 
    29, 25, 333, 1388, -355, 1007, -610, -1214, 290, -451, 457, -233, -2351, 30, -596, -85, -1242, 573, -1130, -880, -1062, -2010, -1084, -265, 652, 
    521, 749, -832, -1049, 1477, 1639, -22, 319, -809, -652, 211, 466, 1739, -1569, 449, 1102, -186, 986, 1159, 177, 255, 0, 598, 402, 268, 
    -921, 1392, 1643, -51, -1423, -157, 1236, 1635, 1055, 99, -586, 981, 895, 573, -371, 5, -838, -1493, -832, 102, -653, -689, -280, -561, 39, 
    28, -354, -316, 282, -306, 207, -210, -840, -545, -1652, -1315, 466, 609, -284, -656, 1064, 462, 1657, -388, 737, -1382, -721, -403, -906, -4, 
    -276, -933, -1491, 603, -163, -128, -1902, -890, 374, -600, -83, -1726, -265, 327, -84, 413, 853, -373, 1261, -1405, -162, -913, -140, -533, -658, 
    -1174, -1158, -2424, -1000, -778, 1003, -1073, -517, 95, -152, -1393, -674, 115, 743, 435, -1955, 226, 1276, 676, -65, -412, -536, 1590, 1394, -599, 
    2075, 177, -1076, -921, -1140, 1194, 255, -1770, -2346, -1111, 218, -84, -1579, -94, -326, 7, 142, 979, -468, 568, 28, 354, 331, -713, 953, 
    421, 321, -808, 205, -401, -257, 698, 371, -103, -1365, -83, -157, 319, -956, -1306, -463, -222, 122, 1174, -481, -51, 1316, 1080, -329, -187, 
    380, 46, 101, -1986, -387, -299, 894, 21, 284, -54, -72, -1092, 782, -1140, -1035, 1093, -110, -275, -256, -1155, 562, 616, 1117, -530, -165, 
    -1, 1500, 17, -314, 779, 666, 370, 1045, 746, 61, -77, 233, -559, 575, -891, 505, -468, -988, -651, -260, 990, -86, -1451, -1482, -349, 
    -50, 1337, 353, -325, -863, 475, 166, 109, 274, -32, -787, 453, -881, -1552, -1224, 561, -6, 600, 218, -1280, 508, 928, -681, -460, 883, 
    -1007, -1709, -56, -241, 782, 392, -2423, 747, 868, 544, 555, -1079, 11, 2106, 150, 257, 1390, 1206, 1607, 60, 98, -359, 1647, -632, -267, 
    -657, 123, -610, 380, -252, -1311, -234, 335, -1425, -1855, 255, -90, 621, 975, 499, 312, -523, 1778, -1069, -370, 1441, 1113, 632, 883, 711, 
    -316, 691, -384, -339, 601, 700, 1048, 1276, 621, 216, -1683, 1052, 701, -46, -364, -36, 635, 268, -1469, -1396, 925, 434, 208, 276, -936, 
    342, 666, -975, 223, -707, 1341, 283, -673, -1232, 735, -1429, 1932, 750, -138, -1287, -653, -52, -707, -470, -99, -656, -143, -506, 217, 1204, 
    996, -522, 207, -687, -226, 445, 886, 564, -1044, 538, -761, 359, -282, -281, -520, -689, -463, 592, -472, -974, -114, -283, -1084, 27, -760, 
    -840, -172, -1072, -1282, -100, 1554, 325, -40, -1378, -1078, -246, 455, -505, -443, -412, -968, 915, 304, -906, -1373, 682, 878, 703, -1176, -206, 
    272, -472, 852, 534, 1242, 515, 751, 324, -129, -849, -417, -697, 759, 453, 11, 272, 1844, 1086, -64, -1132, 733, -1510, -1252, -729, 21, 
    2517, 1025, 786, -487, -593, 120, 382, 2168, 1195, 124, -527, 1035, 102, -72, 271, 631, -1098, -2493, 281, -889, 508, -1271, -843, 615, 21, 
    -720, 196, -138, 337, -1087, -332, -173, 1148, -596, -447, 1090, -289, -52, 492, -1614, -294, -742, -67, 688, -485, -486, 730, 754, 275, 7, 
    
    -223, 115, -52, 599, -527, 542, 539, 1019, -735, -982, -521, 608, 1179, 848, 72, 536, -1243, -1180, 1133, -152, 469, -254, -795, 345, -131, 
    935, -267, 147, 203, 793, 465, -605, 778, 1670, 958, -928, -644, -222, 989, 1204, 580, -874, -1876, -220, 1046, 2147, 762, -302, -336, -25, 
    -2348, 554, 130, 372, -204, 475, 295, -194, 312, 375, -798, 1725, -182, 880, 255, -811, -214, -99, -615, -1434, 296, 887, 260, -2118, -1549, 
    -2188, -573, -391, -751, -196, -107, 90, 948, 861, 648, -776, -1572, -440, -412, 462, -1870, -277, 68, -1898, -2624, -256, -517, -155, 74, -1579, 
    -718, -29, 1593, 208, -339, -170, -1752, -79, -408, -952, 596, 1092, 308, 240, -2080, 580, -323, 886, 756, -1240, 331, 134, 501, 1637, 565, 
    -485, -740, -903, -664, -635, -37, 1067, 1219, 1122, 1887, 918, 3478, 2038, 2568, 1916, 155, 2120, 2271, 2045, -281, -338, -882, 408, -1143, -809, 
    452, -424, 1402, 614, 705, -1481, -1542, -1014, 591, 345, -277, -1364, -1607, -1495, -307, 968, 221, -266, -510, -246, -99, -933, -836, 611, 188, 
    804, -946, -314, 1001, -426, -644, -329, 64, -938, -382, -512, 216, -2930, -2236, 480, 262, 46, -243, -1829, -941, 1164, 556, 674, 900, 414, 
    -388, 16, 1642, 1521, -342, -820, 150, 1253, -375, 495, 103, -964, -579, -1461, -984, -916, -705, -1013, -2, -2183, -336, -30, 539, -1340, -488, 
    41, -923, 114, -551, -1098, 1057, 1317, 230, 63, 1693, -393, 947, 1402, 1007, 1864, -1471, -54, -1564, -635, 544, -1234, 104, 217, 561, -1675, 
    -934, 1286, 291, 519, 447, -1762, 448, -645, -822, 658, -452, -312, 619, -1613, -1019, -828, -72, -506, -72, -272, 1055, 574, -519, -26, 414, 
    -182, 1040, 788, 321, 1120, -1137, -330, -1139, -49, 611, -1101, -1008, -291, 987, -360, 2062, 543, 1939, 726, 44, 1068, 960, -112, 356, 1531, 
    433, -1263, -133, 204, 1242, -363, -1451, -1389, 996, 162, 1535, 1169, 2432, 2081, -697, 794, 3118, 2287, 705, 2235, 166, -225, -40, 504, 1170, 
    -263, 1481, 1699, 152, 698, -213, 616, 1340, 1371, 242, -1132, -1397, -651, 208, -1419, -328, -1450, -1639, -1576, -1126, 1182, 1407, -135, -592, -496, 
    -251, 195, 37, 802, -177, -20, -95, -1304, -1628, 159, 674, -1484, -639, -989, -1524, 1111, 211, 290, 1758, -599, 1976, 1507, 904, 1547, 939, 
    144, 896, 518, 728, 1543, -720, 332, 297, 726, 755, -1671, -1382, -1975, -724, 258, -371, 1652, -291, 254, -227, 520, 588, 1131, 675, -765, 
    51, -112, 193, 109, 342, -106, 1113, 1234, 488, 767, 738, -7, 577, 870, 636, -1606, -518, 38, -1493, -699, 165, 311, -10, -2572, -63, 
    -2144, -409, 335, 646, 243, 472, -327, 919, 988, -61, 297, 430, -372, 1058, 1538, 912, 274, 102, -639, -484, 1248, 378, 446, -566, -642, 
    -877, 72, -632, -697, -521, 873, 1222, 1492, 402, 153, 1789, -327, 2809, 2148, 717, -1061, -913, -573, -169, 515, 1049, 1017, -633, -1247, -963, 
    -1720, -774, -639, -281, -42, -1942, -300, -167, 1062, -1639, -1045, -116, -1486, -142, -980, -902, -489, -1429, -1992, -2378, -620, 775, -475, -777, -979, 
    -1585, -218, 860, 823, -628, -742, -652, -65, 310, -311, 460, -16, -333, 84, -810, -942, -2175, -1777, -1869, 514, -485, -272, -291, -884, -1228, 
    -405, 265, 471, 526, -828, -1073, 190, 175, 1322, -126, 66, -462, -477, -743, 325, -601, -988, -585, -873, -1461, -783, -792, 1700, -860, -1215, 
    -565, -1380, 117, 782, 1502, -380, -189, 1127, 672, -970, -1950, -347, -1501, -1573, -1001, 573, 450, 553, -685, -388, 843, 319, -750, -186, 427, 
    -1131, 1618, 1215, 1528, 653, 236, 294, 980, 1417, -720, 1152, -1398, 246, 777, -193, -1475, -892, -958, -475, -1483, -1065, -707, 651, 961, -1022, 
    -41, -402, -253, -895, -332, -505, 730, 471, 1076, 591, -616, -716, -914, 955, 793, -455, -1033, -1484, -1640, -476, 77, 348, 867, -820, -307, 
    962, 117, 584, 702, -1171, -355, -30, 1845, 234, 1129, -621, -311, -2435, -1937, -1199, -86, 382, 1128, 405, -1187, 193, 979, -746, 604, 631, 
    -1143, 74, 1235, 2035, 616, -816, -522, 526, 447, -1212, -865, -254, -2039, 395, -834, 287, 658, -830, 915, -820, -261, 353, -5, 549, 960, 
    -1691, 482, -515, -8, -1067, -173, 783, -213, 1449, -26, 1185, -954, 12, 832, 64, -55, -680, -677, 631, -427, 134, -132, 1057, -721, -292, 
    -1341, -911, -298, 119, 308, 1459, 64, -131, 1663, 164, -765, 21, 450, -476, 1116, -604, -1258, -2044, -1332, -1694, 19, 607, 92, -558, -574, 
    737, -1243, 1212, 1465, 63, -950, -912, -73, 236, 787, -301, -2423, -466, -2244, -1203, 2243, 25, 1049, 1043, -321, 2423, 1030, 959, 226, 439, 
    -566, -1019, 897, 1098, 24, 807, 592, 649, 28, 618, -1983, -1228, -1399, -337, -2060, -273, 363, 134, 1194, -925, 1413, 1548, 1772, 1628, 1577, 
    -389, 1330, 29, 118, 319, -467, 160, -179, 93, -461, -541, -1410, -672, -41, -113, -1143, -2012, -391, -2056, 27, 334, -1072, 402, -507, 291, 
    
    -835, -412, -463, 838, -1880, -164, 549, 996, -1021, -1204, -1958, -24, 64, -903, -1684, -208, -288, 20, 604, -932, -266, 701, 1251, 1178, -1113, 
    326, -590, 1359, 1802, 1905, 1234, 2158, 770, 1007, 872, -1147, 1437, 1220, 1546, -69, -189, 832, -574, -843, -198, 184, -131, -446, -408, 775, 
    740, -195, 183, 475, 602, 1310, 1651, 85, -273, -171, -743, -870, -1433, -243, -1798, -172, -1820, -1090, -369, 146, 2038, 643, -501, -437, -840, 
    -811, -73, 1131, 1039, 814, -1741, 637, 359, -691, -2295, -1226, -79, -2257, -392, 471, 40, 266, -859, 214, -74, -848, -543, 434, 1076, 1041, 
    -329, -1832, 205, -862, 586, 1470, 614, -928, -262, 809, 700, 857, 824, 1245, -1673, 462, 238, -256, 152, -849, 781, -842, 1156, 803, 998, 
    744, 718, -293, -38, 526, 1850, 2817, 1578, 1588, -241, 572, 2416, -229, 1169, 672, -1126, 452, 191, 15, -350, -169, -546, 378, -657, 41, 
    -1206, -7, -593, -73, -1685, -1563, -1947, -2330, 594, -444, -15, 56, 163, -812, 439, 876, -605, 1213, -244, 857, 346, 1059, 1095, 747, 63, 
    640, -715, 1489, 572, -981, -393, -1588, -1838, -1059, -915, 301, -796, -1915, 189, 762, 992, 1124, 556, 350, 466, 475, -636, 872, -321, 1070, 
    628, 1881, 827, 692, 605, 256, -396, -170, 1677, 221, 508, -2352, -137, -405, -1883, 1323, -372, 49, -1436, -1453, 1208, 871, 271, 200, -624, 
    849, 1481, 1309, 1631, 421, 438, 1105, 570, 1382, -792, -1143, -456, 726, -1789, 74, -1143, 907, -1011, -179, 564, -320, -54, -1079, -1147, 934, 
    -1100, -1249, -764, 604, -341, -1668, -2049, -1077, -1321, -822, -721, -2176, -313, -1106, -1251, -362, -409, 449, 341, -151, 1644, -466, 116, -29, 1194, 
    -1176, -446, 442, -1015, -388, -977, -1197, -836, -382, 608, 1112, -55, 1061, -104, 1765, -192, 1412, 879, 723, -226, 5, -214, 1380, 1038, 564, 
    -119, -190, -308, -1615, -448, -238, 959, -193, -830, 454, 1076, 2241, 211, -80, 360, 1096, 1404, 743, 931, -713, -245, 52, 237, 1075, 1058, 
    51, 1540, 1038, 1399, -651, -923, -479, 429, -353, -1698, -820, -1018, 471, -596, -545, 718, 1395, 514, -894, 191, -269, 1097, -131, 996, 537, 
    462, -484, -1010, -101, -1742, -680, -1009, -1852, -412, -697, -1068, 1483, 218, 360, 434, 1051, -254, 236, 218, 1028, 1331, 174, -590, 1792, 1286, 
    -918, -155, -311, 186, -1133, -1070, -1003, 315, -545, -478, -395, -1157, -1500, -1035, -819, 1343, 143, -981, 435, 245, -1012, -628, 1580, 554, -518, 
    347, 1634, 231, 2358, 273, 916, 2080, 587, -359, -1778, -582, -1613, -541, -974, -2130, -1377, -1292, -1188, -1810, -228, -412, -1356, 315, 704, 927, 
    -190, 1399, 1401, 1544, 623, 1067, 1198, -161, -751, 1796, 14, -439, 162, 565, -1152, 730, -1010, -1048, -1192, -70, -373, -1386, -916, -1644, 875, 
    -229, -349, -80, 1617, 857, 1198, 890, 1980, 345, -322, -634, -509, -353, 738, -1572, -992, -1578, -2727, -1763, -702, 410, -167, -28, -343, -658, 
    -1523, -968, 1427, 776, 305, -771, -759, 991, -295, -916, -893, -1505, -2412, -896, -761, -413, -410, 264, -458, 347, 1092, 867, -127, 405, 806, 
    -499, 962, 461, -322, 223, -1247, -992, -528, -1116, -1519, -1211, -1234, 148, -1582, 345, 1328, 467, -879, 84, -44, 671, -48, 633, 1112, -438, 
    -362, 1007, 1891, -39, 562, -811, 87, 1229, -1397, 880, -640, -361, -1703, -411, 419, 242, 62, 1164, -951, 1190, -243, -692, 1748, 413, 624, 
    191, 153, -352, -118, -950, -1768, -863, -551, -1494, -1219, -896, -683, -1001, 8, -1343, -392, 116, 95, -738, 666, 1110, -433, 1127, 964, -768, 
    -525, -1298, -6, 2926, 2567, -987, -24, -212, 520, -657, -402, -66, 135, 187, -434, 1604, -416, -955, 249, -1073, 68, -673, -1086, 557, -39, 
    58, 855, 2445, -91, -834, 116, 780, -518, -336, -1490, -1904, -1524, -813, -925, -1419, 149, -469, 604, 810, -220, 367, 653, 878, -539, 149, 
    -515, 1029, 11, -458, 18, -126, -399, -457, 34, -506, 511, -59, -679, -1081, 172, 269, 773, 792, 284, -863, 2059, -217, 1040, 2135, 1196, 
    -978, -422, -1159, -1559, -1154, -1179, -319, -1022, -1730, -451, -100, -650, -1219, -173, -102, 615, -105, 1699, 339, -1273, 1748, 1210, 701, 710, -1255, 
    -72, 1, 1747, -643, 377, 830, -589, 323, 1175, -1459, -1047, 358, 89, 975, -141, 279, -428, -1271, -482, 41, -276, 219, -264, 850, -128, 
    1032, 887, 425, -176, 700, -869, -574, -870, -173, -615, -2160, -1381, -168, -1209, -361, -154, -1659, -408, -1074, 720, 198, 655, -715, 316, 262, 
    -1105, 943, -31, -177, -1641, -457, -1114, -949, -776, -428, -745, 236, 7, 529, -331, 546, 617, 599, 1172, 1378, 1494, 1732, 255, 1207, -344, 
    543, 1482, -172, -1520, -941, -1253, -951, 227, 465, 192, -926, -926, -646, -250, 203, 176, 1801, 1371, 113, -264, -712, 2005, 794, -670, 1513, 
    911, 266, 631, -428, -218, -684, -1105, -267, 123, -1536, 362, -183, -965, -2475, -589, -415, 914, -166, 59, 1299, 921, -850, 127, 969, 1115, 
    
    -641, 71, 1143, -668, 453, -931, 979, 1759, 1033, -124, -700, 1227, 2252, -451, -664, 1172, 1269, -897, -121, 439, 30, 285, -1000, 892, 265, 
    -801, -229, -434, -1096, 1449, -1183, 599, -1123, -999, 383, 958, -2258, -1085, -188, -181, -185, -452, 631, -175, -260, -1369, 942, -62, -319, 767, 
    1099, 428, -1931, 286, -639, -406, -420, -2024, 1054, -199, -708, -2405, -772, 632, 104, 400, 409, -802, -763, 52, -171, 315, 693, 869, 1328, 
    -698, 403, -634, 438, -1335, 765, -23, -943, 273, -1795, -1574, -800, 407, -16, 1245, 351, 1431, -469, 611, -570, 439, 556, -920, 1141, 539, 
    -11, 294, 474, -1109, 1639, 621, 1213, 1037, 1124, 16, 1743, 313, 1011, -810, 806, 971, -1694, 495, 41, 196, 44, -476, 660, -967, -990, 
    -1122, 567, -500, -1010, -626, -303, 475, -210, -1145, -659, 28, -1250, -1634, -1648, -257, -904, -809, -1488, -1888, -1844, 455, -1035, -746, -856, 875, 
    904, 728, -120, 317, -778, -1352, 0, -144, 1037, 1722, 326, -193, -476, 1676, 1143, -1477, -1315, -836, 535, -90, 21, -635, 661, -423, 658, 
    -195, -409, 133, -869, -226, -842, -52, 1441, 1452, -924, -306, -351, 1284, 353, -1380, -1250, 596, 605, 982, 27, -238, 634, 186, -926, 334, 
    733, 880, 99, 692, 1276, -358, -1662, 1274, 2386, 1890, -981, -2018, -940, 1335, 10, -1203, -1231, 527, 1285, 481, -303, 1815, 938, -997, -759, 
    485, 992, -11, 70, -685, 337, -1019, -1118, -88, -1297, -516, 57, -2590, -321, 888, -411, -1329, -562, -981, -1044, -1460, 540, -926, -329, -685, 
    30, 275, -340, -494, 1526, 467, 380, -1016, 833, 14, -1482, -1519, 2194, 917, -1257, -578, 1092, 930, 800, -939, -265, 338, 774, 886, -289, 
    -523, -339, 1146, 1907, -676, 9, -277, -1228, 1341, -269, 1595, 1393, 336, -596, -252, -275, 276, -357, 261, 800, 701, 346, -387, -272, 621, 
    -1787, -1153, 329, 363, -182, -390, 1622, -1724, -428, -100, 1241, 703, -1667, -1611, 151, 445, -1422, -706, -704, -172, -1209, -1877, 342, 750, 302, 
    -516, 431, 1230, 413, -1125, -1720, -433, 458, 1293, -1935, -488, 633, 1049, 318, -605, 816, 802, 1156, 121, 224, 301, 1467, -560, -600, 1118, 
    -1193, 193, 1152, 705, 233, 30, 546, -164, 1324, -214, 709, -47, 911, -959, 778, 505, 1141, -878, 914, 688, 922, 726, 531, -346, -393, 
    530, -50, -575, 837, -869, -1111, -571, -642, 1073, -127, -383, -202, 1048, -387, -61, 1563, 667, 388, -397, 829, 1434, 857, -254, 182, 738, 
    -276, -407, 651, -466, 70, 480, 390, -1094, -975, 748, -1309, -341, 340, 237, -655, 195, 684, 302, -655, 121, -405, 588, -167, 183, 400, 
    857, -453, 380, -476, 128, 785, -183, -1595, -312, 881, 171, -1731, -1338, 415, -808, 447, -1373, -164, -1387, -94, -1094, -708, -444, -908, -221, 
    763, 709, -1063, -1398, 883, 562, -534, -1342, -242, 10, -730, -2191, -1915, -1028, -87, 1411, 334, -1390, 255, -462, 474, -447, -19, -1234, 135, 
    -167, -1826, -96, 1156, 125, -175, -145, -226, 1412, -988, -1402, 251, 1356, -154, -420, -296, 869, 317, 130, 986, -1359, 1400, -433, -739, -961, 
    -160, 73, -780, -412, -371, -1872, 155, 1221, -1359, -472, 34, 302, -896, -939, -1131, -554, 1092, -359, 1010, 796, -320, 769, 751, -56, -724, 
    134, -1027, -314, 410, -713, -90, -1237, -853, 162, -691, -78, -805, -999, 885, -527, -271, 946, 65, 1369, 824, -1269, 955, -1019, -494, 81, 
    716, 147, 60, -844, -1410, -1181, 565, 352, 472, -1002, 268, 802, 1079, 343, -552, -412, -831, -158, 179, 327, -493, -1242, 1179, -874, 578, 
    88, 212, -1284, -669, -221, 697, 263, -319, 654, 1551, -229, -992, 400, 482, 999, 1135, -1201, 267, -173, -1995, -195, -534, 1862, -329, -1383, 
    420, 109, -948, -1007, 1368, -629, -1038, 688, 305, -1301, -2038, -46, -715, 274, -1654, 382, 1098, -17, 991, 21, 500, 175, 1101, -717, -142, 
    62, -243, 327, 123, 991, -1423, -1795, 245, 997, 1433, 26, 12, 414, 1147, 858, -683, -575, 437, 1077, -1011, 581, 253, -1007, -422, 584, 
    -175, -341, -416, 2013, -75, -567, -85, 1306, -75, -135, -680, -207, 201, 267, -278, 344, 1179, 161, 201, -433, 780, -189, 1356, -1316, 669, 
    -21, 832, -751, -225, 440, -547, 834, 411, -203, 720, 34, -1001, 389, -699, -196, -223, -368, 355, -921, 688, 897, -81, -1196, 187, 334, 
    -188, 1275, -304, -1299, 860, -1274, -8, 772, -815, -767, -779, -82, -72, 637, -70, -1338, 985, -1579, 1228, 766, -12, 413, -163, -872, -62, 
    -26, -458, 853, 1530, 980, -947, -893, -381, 91, 1459, -836, -946, -714, -783, 80, -103, 1285, -283, -1905, 604, -357, 1346, -578, 4, 65, 
    989, -1171, 14, 612, 598, -696, -214, 284, 161, 1470, 1036, 62, 495, 565, 207, 467, -1705, 666, 664, 537, 48, -469, 963, 769, 460, 
    -1696, -1626, -785, 179, -233, -2058, -906, 1145, -188, -965, -1059, -493, -453, 611, -501, -1081, -617, -199, -286, 89, -670, -418, 241, -1480, 509, 
    
    -635, 242, -296, 566, 1541, 329, 180, 495, 321, 835, 575, -580, 518, 979, -170, -1183, -1331, 1167, 596, -635, -528, 1143, 787, 2201, -569, 
    -720, -328, 1681, 1730, 2736, -534, -157, 1843, 8, 1413, 664, 830, 555, -938, -817, -569, -263, 131, 788, 650, 408, -984, -602, -630, -416, 
    -532, 1085, 492, 1202, 377, 1150, 559, 262, 1083, -918, 169, 906, -776, -566, -583, -128, -688, -1097, -599, 1136, -226, 599, -1328, -203, 106, 
    617, -359, 143, -522, -133, -563, -474, 220, -470, -983, -361, -2111, -987, -1071, -876, 462, -325, -744, -267, 251, -840, -1068, 258, 1883, -273, 
    37, 57, -1681, 89, 258, -313, 1033, -113, -873, 1067, -595, 85, 239, 645, 1465, -188, 65, 1188, 1465, 554, 634, 128, 1236, 559, 1332, 
    533, 245, 1083, 1651, 479, 718, 1439, 2220, 285, -515, 146, 159, -346, -401, -620, -86, 1396, -490, 137, -310, 447, 587, -327, -1512, 293, 
    -660, -507, 705, 612, -870, -698, -386, -1540, -167, -1575, -1107, 869, 420, -43, -47, -1629, -1063, 240, -453, -533, 1376, -1056, 661, -1087, 1409, 
    1324, -661, -997, -2106, -1148, -1454, -965, -877, 116, 320, 383, -134, 822, 620, 527, -561, 193, 1057, 625, -44, 1068, -450, -262, 1508, 386, 
    -1023, -808, 632, 1188, -324, -464, 169, -944, 534, 648, 900, -1762, -1171, -1099, 1308, 585, -1112, 26, 434, 1081, 152, 432, -923, 662, 383, 
    971, 175, 808, -231, 206, -192, 357, 1942, -302, -1789, 295, 376, -1905, -1359, -1617, -34, -8, 317, -986, -850, -438, 873, -199, -424, -2626, 
    -65, 588, 413, -246, -349, -504, -948, -1485, -1289, -1410, -802, -134, -696, -152, -465, -424, 245, 540, 615, -1039, -714, -545, 73, 1, -303, 
    -63, -302, 304, -2009, -2417, -1742, 99, -428, 639, -1153, 157, -177, -299, 955, -906, -118, 1661, 980, 407, -406, -470, -450, 1196, -288, -1500, 
    663, 677, -525, -669, -1316, 156, -240, -108, 36, 1201, 308, 1095, 1267, 708, 158, -617, 77, 61, 233, 733, -160, -80, -1272, -39, -588, 
    -98, 1394, -287, 926, -742, -497, -554, -1738, -655, -1449, -1861, -1058, -141, 592, -13, 96, 769, 419, 1175, -1025, 542, 233, 808, 416, -99, 
    -1842, -1480, -1001, -1726, -2197, -1121, -1663, -1125, -315, -585, 760, -632, -253, 302, 105, 33, 858, 1635, 450, 881, -112, 612, -38, 251, 547, 
    1533, 213, 240, -640, -723, 182, -1482, -575, -1566, 646, -919, -869, 38, -31, -972, 1098, 1325, -1044, 925, 180, -183, -509, -198, 1273, -528, 
    417, 1221, 1580, 279, 136, 1073, 558, -260, -47, -2198, -1078, 1280, -395, -209, -116, -775, -1307, -701, 946, -52, 145, 1397, -676, 140, 788, 
    337, 849, 873, 1600, 521, 523, 1275, 1606, 451, 282, -63, 474, 209, -362, -304, -6, -969, -496, -1171, 296, -1017, 1095, -736, -142, -31, 
    1316, 1661, 1522, 1370, -395, 377, 832, 2209, -807, -319, 212, 482, -1274, -1214, -1420, 399, -937, -163, -1072, -1301, -202, -1600, -1144, -1103, -1964, 
    237, 280, 437, 303, -756, -1113, -1461, 92, -200, -959, -1814, -1262, -1724, -683, -1367, -166, -403, -789, 821, -206, -1050, -1439, -447, 1414, 1368, 
    124, -641, 458, 862, -1542, -571, -139, -386, 77, -1152, -1969, -474, -625, -1022, -1006, -1127, -892, -634, 748, 383, -323, -428, 1539, 440, 729, 
    65, 36, -673, 358, -1294, -1516, -1368, -729, -1077, -356, -2097, -1840, -621, -131, 235, -693, -461, -1352, 31, -931, 318, -1132, -107, 11, 719, 
    -155, 959, -881, -1124, -2015, 287, -1207, -1085, -109, -721, -1375, -1494, -651, 228, -401, -1818, 370, 632, 706, -735, -1376, 553, -218, 823, 129, 
    1731, -1106, 119, 1760, 742, -158, -136, -22, 143, 195, 1469, -682, -1734, -901, -379, 356, -586, 1213, -193, 653, 1472, 1017, 568, 750, 806, 
    962, 1351, 310, 1144, -991, -725, 780, -1483, -146, 77, -1207, -668, -1135, -260, -68, -1066, -1402, 625, 384, -842, -38, 22, -79, 497, 1190, 
    12, 129, -394, -486, -1829, -996, -1463, -1573, 99, -44, -1075, 222, -860, 1171, -423, -1975, -298, 376, 1911, 1133, 509, 1097, -109, 541, 335, 
    171, -1686, -719, 98, 1065, 424, -229, -412, 1491, 1509, 1138, -750, 170, 1453, -414, 600, 320, -640, 859, 185, 397, -4, 1453, -548, -1528, 
    706, 1834, -1098, 1152, -382, 691, -1056, -617, -847, -947, 144, -1132, -1676, -697, -2048, -2174, 340, -473, 735, 416, 450, 790, 868, 1417, 161, 
    900, 910, 472, 609, -71, -1407, -396, -323, -667, -1964, -1082, -1205, -942, 457, -554, -184, -1028, 1276, 3, -548, 723, -395, 210, 1297, -329, 
    -874, -1793, -371, -1338, -1725, -514, 128, 161, 96, -50, 259, 1589, 265, 316, -261, 649, 595, 1027, 213, -281, -196, 134, 276, -767, 418, 
    303, -458, -209, -2039, -2388, 335, -890, -1411, -864, -1510, -9, -1075, 1036, -939, -1448, -397, -168, 1056, 748, -322, 184, 187, 547, -311, 280, 
    -128, -726, 262, 419, 197, 135, -1610, 140, 79, -1628, 768, -2399, -1516, 1120, -874, -941, -1462, -497, 0, 780, -866, -326, 1049, 669, 501, 
    
    1153, 1149, -965, 365, -59, 860, 527, 363, 28, -431, -50, -521, -112, -213, 845, 840, 86, -317, -1548, -1836, 1103, -583, -268, 6, 976, 
    -23, 1321, 1124, -236, 1180, 518, 370, 690, -424, -17, -1723, -274, -361, -173, -485, -955, -1939, -1316, 183, 1080, -978, -977, -866, 1602, -719, 
    607, -1671, -5, -132, 1208, -275, 956, 1265, 302, 1106, -112, -982, -946, -31, 382, -1997, -754, -1585, -856, -92, -1343, 1171, 676, 1173, 520, 
    -732, 792, -84, -661, -1072, -483, -88, 827, 1081, 326, -432, 527, -667, -762, -439, 138, -1155, 131, 1062, -139, 381, 546, 588, 1388, 804, 
    -84, 1132, 1281, -890, -845, 1053, 78, 251, -731, -543, 472, 827, -600, -1166, -1100, -417, -294, -167, -914, -355, -253, -1263, -476, 37, 948, 
    -1066, 419, -225, -763, 701, -2720, -1195, 649, -458, 890, -1133, -1483, -53, 488, -122, -75, 586, -961, -543, -161, -314, 1388, 1836, 679, 1773, 
    -616, 734, -277, 355, 845, -842, -471, -5, -444, 1406, -823, 307, -40, -1212, -31, 950, -711, 1595, 1205, -202, 40, -1478, 663, -94, -775, 
    -341, 982, -1085, 119, 1234, -1463, 640, -178, -403, 331, -251, -658, -548, -1678, -743, -1590, 139, 1834, 787, 568, 503, 105, 304, 1219, 16, 
    655, 621, -463, 1336, 1413, 846, 1379, 146, 432, -206, -254, 1195, -915, -2105, -906, 772, -674, -1262, -489, 1411, -49, -1661, -1108, -943, 765, 
    312, -510, -957, 304, 1204, -720, -526, -194, 1399, 1622, 511, 104, -1477, 976, 776, 223, 708, -1363, 60, 841, -1154, 1171, 2529, 1723, 202, 
    -598, -537, 822, 1058, 1570, 12, -300, -97, -1598, 216, 636, -1048, 1457, -1975, 344, -724, -180, -553, 2060, 753, -1324, 317, 516, 644, -376, 
    -418, -968, 289, 496, 959, 1172, 596, -312, -842, -32, -338, -831, -119, -149, 692, -1223, 226, 1226, 2000, -28, -640, 469, -27, 1026, 1049, 
    -1760, -1463, 113, 877, -339, -334, -618, 879, -778, 1032, -1020, 2156, 1961, 1451, 1173, 461, 1433, 700, 1828, 2096, -356, 53, 211, 1092, 885, 
    26, -59, -426, 759, -820, 472, 1438, 1108, 81, -936, 1892, -78, -1102, -353, -786, -418, 55, -1057, -415, -1629, 426, 509, 133, -1358, -213, 
    -1367, 19, -875, -1052, -359, -81, -485, -174, -968, -372, -220, -1299, 1117, 1551, 559, -1285, 404, 2262, 514, -615, -872, 1030, 638, 926, -183, 
    -707, -22, 1237, 1092, 146, 551, 1640, -787, -196, -1671, 1265, -161, -795, -1500, -963, 621, 190, 9, -160, 617, 536, -241, -834, -15, -787, 
    -1473, -933, 673, 1449, 1412, 1033, -312, 1852, -116, 140, -108, -711, -46, 393, 366, -721, 50, -67, -314, 486, -1193, 133, 1843, 2072, 70, 
    -421, -968, -208, 47, -539, 247, -414, 172, -586, 345, -215, -1206, -1203, -2266, -635, -2118, -599, -342, -805, 242, -70, -82, 686, -333, 613, 
    -16, -843, -537, 909, 864, 736, -308, 536, 981, 908, -1588, -1043, -711, 22, 616, -188, 594, -465, 1114, 920, 514, 407, 1914, 3333, 1479, 
    207, 980, -239, 1332, -219, -803, -210, -993, -979, -308, -705, 534, 483, 297, -592, 616, 1615, 267, -687, -271, -1090, 97, 663, 620, 648, 
    52, -859, -992, 107, -157, 3, 1186, -147, -979, -1042, -563, -429, -1918, -1285, -234, 1119, 965, 0, 582, 853, 224, 251, 1060, -62, -1433, 
    -459, 1244, 204, 862, 613, 605, -846, -1285, 757, -274, 756, 285, 74, -1223, 483, 681, 1307, 1317, -255, -695, -1331, 1095, 2192, 660, -17, 
    -858, -600, 239, 383, 66, 1211, 1066, 504, -163, 483, -401, -28, 360, -355, 716, 937, 1614, -729, 631, 108, -89, 1491, 703, -393, 1351, 
    99, -650, 1086, -509, 133, 1560, 1084, 74, -368, -859, -369, 800, -1528, -1132, -2260, -660, -2610, -2954, -1975, -1147, -32, -2331, -1188, -436, 50, 
    -17, -597, 365, 152, 461, 1126, 402, 128, -142, -478, -283, 137, -266, -455, 52, 730, -442, -837, -618, -898, -630, -419, 965, 1028, 782, 
    -1051, -1126, 537, 380, -197, 342, -99, -1110, -141, -93, -387, -1038, 1210, -88, 931, -627, 1062, -464, 1053, 1058, -845, -348, -368, 489, 913, 
    -177, 200, -488, 1389, -343, 600, -236, -830, 221, -521, 93, -277, -679, -1126, 326, -367, -1503, -486, 994, 22, 1159, -1237, -867, -679, 404, 
    880, 386, 760, 611, 1110, -670, -1431, -261, 1039, 327, -805, 537, 355, -1073, 359, 1098, 1267, -1170, -1569, -519, 472, 2059, 1666, 1046, -863, 
    -603, 398, 573, 1294, -232, -289, -1964, -488, 1159, -792, -1361, 916, -1464, -1006, 809, -274, 1316, 245, -705, -1204, 134, 932, 2315, 499, 797, 
    -452, -876, 911, -961, -762, 1192, -1671, -638, -1769, 117, -965, -37, 494, 585, 51, -990, -344, 1556, 1559, 1500, 864, -23, -23, 860, 597, 
    881, -384, -994, -721, 172, -1322, 697, 599, 497, 204, -949, 1428, -612, 1650, 2227, 603, 1975, 2215, 1518, 920, -383, 1316, 1227, 1550, 1094, 
    819, 851, -621, 354, -437, 375, 1146, 78, -1229, 48, 977, 806, 313, -513, -464, -1030, 1298, 1199, -303, -24, 455, 661, 300, -48, 784, 
    
    -495, -403, 421, -1578, 1133, 482, 1067, -401, -783, -908, 252, -184, -558, 513, 218, 825, -737, -111, -389, -348, -514, -482, -128, -480, -500, 
    -350, -210, -1115, -529, 74, -287, -312, -1420, 385, 67, 466, -15, -1217, 302, 1388, -267, -796, -844, 684, -11, 239, -263, 32, -998, -204, 
    839, 339, 1356, -603, 812, -1116, 703, -203, 119, -102, 428, -47, 1002, -26, -1680, 1445, 155, -195, 159, -33, 32, -32, -1153, 1005, -982, 
    32, -365, 259, 297, 1148, -673, 1194, -836, 350, -1043, -1248, 182, 758, -45, 524, 416, 510, 101, -1666, -702, -572, -214, -567, 126, 805, 
    -181, 573, 448, -1231, 593, -1286, 368, 472, -598, 1432, -510, 298, -643, -400, 387, -751, 1071, -53, -2, -456, -70, -305, 823, -705, -273, 
    -118, 482, -1059, -505, -1590, -1242, 771, 319, 473, 671, 873, -1531, 317, -1107, -833, 59, 394, 651, 185, -633, 383, -247, -1039, -569, 217, 
    -17, -155, 94, 769, -390, 498, -191, 520, -56, 402, 415, 430, 1318, -184, -253, 565, -481, -763, -1353, -1489, 435, 135, -658, -457, 941, 
    1352, 275, 318, 688, 296, 105, 539, 330, -1173, -1219, -1520, -292, 1, -7, -463, -1024, 1418, -57, 570, 240, 89, 115, -959, -1030, -343, 
    -1171, -104, -554, 162, -1177, -636, 1087, -7, 542, 745, -310, -1174, -934, 773, 1138, -1080, 1344, 190, -485, -931, -614, 88, 335, -366, -701, 
    -1479, 12, 43, 448, 1099, -222, 1017, 580, -288, 162, 357, -598, 525, -777, -27, -940, -872, -1238, 678, 782, -902, -1279, 451, -781, -488, 
    489, -534, 7, 652, 791, -1061, -1046, -167, -797, 343, 854, 144, -675, 569, 215, -666, 96, 470, -906, -473, -318, 1454, 534, 1035, 205, 
    -125, -1020, -346, -1176, -1655, -1335, 425, -292, -1013, -1089, 975, -414, 650, -159, -425, -1253, 505, -870, 894, -479, -199, -1508, -579, 408, -536, 
    868, 680, -1387, -1092, 1257, -619, -743, -206, -677, 111, -41, -571, -1001, -338, -674, 100, 195, 293, 114, -463, 335, 398, 431, 524, 1235, 
    490, 1048, 250, 223, -520, -1689, 211, -1516, -499, -150, -232, -870, 869, 570, -1178, 916, 0, 226, 846, 454, -806, 663, 326, -400, -75, 
    -1081, -567, 629, 471, -384, -126, -104, -550, 217, -1367, -1661, 167, -223, -433, 356, 613, 697, -503, 926, -1351, -3, -186, 701, -137, -669, 
    15, -484, -52, -840, 1147, 352, -1006, -206, -1426, 922, -1164, 243, -124, 634, -854, 1246, 369, 1269, -723, 255, -582, 702, 7, 89, 1427, 
    706, -920, 28, -913, -1083, 872, -422, -1332, 440, -262, -357, 398, -635, 209, 1155, 1124, 27, -279, -432, -734, -16, -1060, -136, -895, -999, 
    714, -257, -961, 89, 1446, -679, 74, -400, 677, 1117, -190, 53, 231, 565, 1383, -485, 166, -1150, 276, 194, 40, -371, -1001, -513, -521, 
    -1399, -936, -612, 643, 66, 964, -330, 354, -543, 833, 1325, 530, -1029, -1169, 1058, -569, -443, -222, 721, -1432, 110, -21, 46, 211, -447, 
    -272, 593, 108, -244, 321, -1223, 564, 840, -372, -101, -249, -107, 724, -439, -418, -683, -1622, -131, -793, -763, 59, 395, -186, -570, 161, 
    191, -39, -500, 127, 573, -568, -10, 509, 804, -357, -441, 876, -1271, -662, 441, -141, -1212, -488, -1069, 828, 493, -133, 347, 926, -378, 
    589, -611, -7, -3, 1062, 1035, 1296, 479, -258, -1166, -937, -132, 764, -824, 1457, -262, -1241, 1203, -1240, 808, -1795, -131, -876, -1188, 1374, 
    125, 668, 578, 400, -352, -505, 497, 516, -720, -243, 509, 284, 796, -167, -414, -327, -72, 1127, -932, 437, -371, 327, -219, -277, -338, 
    -422, 254, 424, -666, -208, -718, -127, -454, 230, -678, 309, -740, -526, -1094, 181, 530, 1376, -1758, -680, -808, -1288, 98, 780, 36, 127, 
    835, -1261, -98, 903, 1358, -521, -2, -988, -431, -200, -257, -587, -715, -12, -677, 16, 1220, 861, -368, -778, -403, 978, 422, -1431, 502, 
    -659, 734, 772, -96, -1366, 101, -44, -1099, 255, -1235, 190, -523, -1275, 15, -41, -1692, 769, -746, -295, -360, -621, 168, 1149, -1218, 1446, 
    1446, 251, 100, 197, -572, -575, -747, 944, 204, -576, -46, 1264, -1489, 393, 367, -1763, -1203, -226, -1286, -446, 732, 226, -696, 569, -71, 
    1086, -352, 728, 366, -999, -893, 749, -960, 1087, -629, -219, 1383, -393, -1090, -1590, -1514, 737, -1186, -134, -1436, 745, -1519, -1135, 371, -166, 
    -1226, -1010, 729, -1422, -396, 147, -1193, -571, -920, -1392, 445, -596, -183, 1142, -67, 620, 585, 336, -56, -629, 544, -574, -465, 446, 431, 
    -394, -74, -34, -654, 284, -549, 1440, -860, -611, -610, 75, 777, -192, 270, -449, 759, 288, 464, -945, -238, -123, -336, -749, -1192, -667, 
    109, -625, -171, -931, 1309, -431, 508, 949, 1127, -505, 712, -783, -833, -1473, -988, -761, -906, 326, -1287, -70, 923, 208, -741, 788, -1519, 
    -1126, -346, 519, -1346, -526, 330, 55, -1535, -540, -92, -157, -663, -105, -4, 430, -659, 255, 588, 523, -636, 32, 516, -512, 239, -807, 
    
    220, 1331, -491, 501, 2183, 1061, 1057, -232, 168, 618, -968, 656, 517, -1762, -777, -910, 332, 1082, -294, -490, -308, -748, -801, -951, -1773, 
    471, -85, -682, -1417, -944, -1010, 508, 127, -1799, -751, -43, -27, -201, 1503, -71, 454, 166, 420, 1390, 1234, 283, -658, -515, 161, -1680, 
    409, -490, -430, 154, -1331, 832, -398, -331, -1427, -183, 1497, -547, -1781, 1538, 1998, 1483, -894, 309, 583, 375, -1610, 1028, -791, 1071, -41, 
    272, 176, -310, 678, 1295, -609, -168, -976, -572, 841, 697, -933, -1593, 447, -542, -956, -1304, 880, 361, -212, 1168, 1508, 1556, -13, -887, 
    -1491, -1100, -2374, 342, 266, -15, -794, -1473, -1476, -264, 717, -379, -1282, -1468, -429, 1640, -1404, -703, -1281, 1041, -622, -91, -22, 1229, -659, 
    -49, 1379, 2063, 927, -1965, 164, 802, 673, -964, -2925, 1207, -318, -913, -4098, -1004, -888, -802, -1414, -1930, -2837, -129, -126, -1423, -836, -89, 
    -187, 332, -528, 541, -430, -1048, -1197, -910, -738, 764, -1056, 1022, 325, 699, -1182, 680, 24, 155, 357, 1088, -183, -1260, -179, 394, -173, 
    213, -905, -489, -844, 433, 999, -1160, -969, 296, 1047, -577, 229, 1504, 1814, 642, 515, 91, 1011, 1062, -1167, -1353, -188, 308, -561, -1014, 
    -1294, -2225, -3187, -713, 120, -1316, 842, -2027, 740, 158, 1100, 652, -1658, 216, 2624, 1830, -375, 510, 1946, -236, 1804, 973, 1127, 277, 34, 
    -883, 1265, 1261, 1122, -371, 904, -234, -51, 526, -390, -734, -1344, -1437, -689, 118, -542, 196, 1000, 87, -940, -689, -951, -317, -650, -1117, 
    -15, -971, -1169, -508, 984, -1557, -1101, -921, 961, 237, 416, 1096, 1127, 951, 400, 1697, 516, 1593, 544, -1286, 297, -248, -764, 1005, -616, 
    1256, 1198, -1187, -379, -1289, 1074, 116, 1339, 753, -1328, 870, 1126, -61, -978, -2509, 102, 2068, 446, -1103, -335, 2289, -200, -422, -189, 544, 
    1498, -1015, -172, -1259, -214, 1267, 55, 507, 1386, 177, 150, -154, -1689, -1899, -1715, 795, -251, -2592, -1871, -512, -544, -464, -297, -25, 462, 
    -1189, -434, -950, 397, -1850, 1580, -2030, -1569, 2241, 890, -780, -1040, 1168, 1080, 600, -343, 1093, 764, 1172, -1222, 1125, 1080, -172, -559, -393, 
    358, 130, -1026, 441, -609, 348, 506, -171, 286, -305, 526, -395, 545, -657, -2625, -405, 154, -1382, -272, -717, 2100, -871, -181, 793, -1462, 
    -730, -340, 245, -1386, -772, 377, -1553, 621, 2356, 1878, -186, -838, 2232, 697, 171, 179, 1187, 534, -545, 127, 109, 1413, 628, 461, -1000, 
    -687, 1702, 825, 803, 1088, -108, 133, 307, -207, 589, 106, -1310, -1245, 1841, -77, 1067, -917, 1746, 52, 294, -395, 1084, 1653, 581, -1092, 
    -310, -938, 1009, 256, 12, -1565, 474, 732, -652, 8, -857, 767, 425, 755, 2157, 527, -172, 1195, 2717, 2297, 137, -337, 170, -485, 197, 
    -56, 414, 1045, 2404, -1108, 387, 1041, 2298, -160, -1409, 1281, -1148, -1192, -383, 551, -473, -96, -1363, 1015, 342, -487, -402, 688, 903, -1537, 
    -201, -1358, -218, -720, 1938, -103, 90, -876, -496, 543, 884, 559, -746, 557, -198, 329, -961, 1189, 1162, 130, -351, 131, -26, 1121, -665, 
    778, -267, -963, -344, 911, 34, -890, -451, 819, 113, -1201, -107, 629, 626, 324, -1440, -645, 247, -20, -261, 147, -565, 1679, -466, 41, 
    -766, 1191, 568, 782, 432, -747, -1177, -581, -400, -449, -1296, 42, -1030, 173, 463, -727, -982, -768, -1397, 1541, -1055, 759, 979, 918, -760, 
    1191, 649, 728, 161, 658, 982, -225, -155, 701, 757, 45, -1277, 784, -184, -270, -246, -1127, 735, 400, -834, -411, -85, -185, 269, -300, 
    -725, -973, -3103, -1672, -312, -1507, 366, -1730, -782, 404, -482, 254, -1610, -587, 2204, 583, -833, -236, 1321, 2183, -269, 237, -824, 564, 1337, 
    33, 599, 207, 926, 651, 190, -781, -292, 969, 1052, 534, -280, 908, 1724, 1870, -1233, 1411, -282, -597, -542, -1125, -676, 165, 456, -1393, 
    -383, -416, -1170, -129, 495, -761, -1229, -31, -544, -672, 888, -454, -909, 469, 820, -964, 4, -1715, -847, -574, 808, 642, 601, 250, -438, 
    -569, 767, -556, -1010, 46, -692, -727, 609, 1399, 1568, 1167, -677, 1644, 487, -143, 630, 1748, 671, -427, -456, 594, -348, -782, 1346, -1342, 
    -449, 554, 1144, 2335, 1122, 774, -537, 581, -37, 792, 448, -1667, -458, -160, 100, -529, -160, -486, 451, -1528, 199, 981, 483, -346, -1372, 
    714, -50, 1557, 911, 82, 629, 485, 302, -194, -376, -876, 719, 261, -1075, -1003, 556, -1720, 208, 653, -1071, -779, 307, -32, 190, -402, 
    -809, 1632, -416, -703, -1591, 1344, -1427, -843, 308, 1719, 619, 819, 609, 1012, 593, -594, -974, 262, 822, -1853, 131, 102, -304, -1505, 35, 
    752, -145, -728, 1391, -112, 289, -1348, -316, 748, -759, -555, 22, -19, -694, -602, 26, -941, -2072, -1076, -1053, 75, -2255, -1223, 1393, 444, 
    -1175, 467, -772, 159, 447, -932, 521, -1228, 843, 1423, -1155, 684, 14, 105, 732, -748, -260, -79, 795, 1417, 198, 689, -126, 757, 1041, 
    
    620, 886, 1070, 855, 2069, -555, 1588, 1262, 628, -146, -1954, -589, 416, -291, 128, 494, 523, 2470, 699, -15, -504, -1096, -1018, 976, -668, 
    499, 779, 1053, 140, -571, -252, 643, 980, -237, -804, 75, -813, -956, 648, 320, -223, 375, -65, 557, 434, -616, 195, -504, -717, 1434, 
    330, -160, 731, 229, -109, -878, -649, -151, 1306, -579, -651, -2083, -1611, 13, -256, 765, -781, 165, 438, 17, -349, -1534, 497, -1134, 1053, 
    -680, -130, -601, 32, -1502, -800, -420, -559, 203, 1078, 163, -384, 189, 753, 572, -158, -126, 1028, -148, 548, 714, -1320, -1896, -1772, -1219, 
    1634, -404, -747, -1115, 599, 285, 1025, 1650, -1150, -9, -174, 1121, 23, 861, 285, -220, 1391, -470, -1699, -1236, 1697, 2423, 1124, 31, -1447, 
    882, 818, 1143, -457, 36, 868, 1057, -587, -1099, -305, 1930, 75, 970, 426, 814, 2462, 346, 1848, 2222, 796, 337, 772, 1136, 2539, 543, 
    -610, 238, 462, -990, -1620, 158, -1224, -546, 1714, 223, -404, -301, -1143, 268, -1289, 1656, -744, -634, 1073, 846, 1206, 1792, -187, 144, 1037, 
    432, -1105, 679, -202, 1490, 434, -1045, -251, -1137, -244, 779, -457, -466, 81, -530, -1199, -791, -454, -2565, -956, 993, 49, -682, -29, 567, 
    -736, -76, -440, -1394, -699, -101, -1194, 1890, 320, -587, -1352, -132, -523, -401, -1145, -872, 716, -1328, -19, -1113, -319, 614, 149, -1947, -233, 
    -175, 1235, 767, 1686, 458, -291, -654, -365, -157, -1364, -58, 547, 350, 991, 688, 337, -298, 1536, 2141, 1687, -697, -917, 781, 72, 2153, 
    518, -1788, -1607, -349, -270, -321, -1003, 98, -504, -13, -605, -1934, 1259, -654, -782, 741, -968, -2522, -1475, 584, 718, 1617, 1129, -1463, -81, 
    -680, -169, 313, 97, -104, -195, 1093, 304, 477, 790, -276, -1134, -96, -283, -204, -242, 706, -616, 957, 1799, 1634, 1446, 274, 391, 443, 
    483, 251, 184, 594, 447, -209, 864, 462, -14, 627, -263, -112, -658, -61, 384, 1861, 2281, 2436, 541, 1559, 806, 190, 1653, 2144, 598, 
    -132, -321, -1234, -234, -523, -287, 935, -222, 481, 1847, -877, 751, 526, 432, 219, -2995, -1872, -36, -593, -2152, -1092, -287, -1237, 188, -835, 
    -560, -1378, -620, -658, -475, 481, -491, 1423, 937, -1078, 554, -886, -286, -70, -1777, 131, -509, -1220, -184, 652, 1498, 438, 294, 55, -447, 
    -1123, -965, 657, -746, 555, -2309, -1389, 758, 402, -115, -2617, 272, -658, 1363, 846, -2395, -1033, -949, -843, 542, -57, 225, -1328, -1222, 950, 
    1197, 1489, -525, 1689, 571, 1281, -1317, -936, -327, 316, -212, -665, 202, 1195, 1068, -7, -170, -39, 1569, 912, -931, -1432, -2234, -552, 891, 
    1632, 1437, 1183, 1601, -557, -918, -1181, 796, 736, -800, -32, -1989, -233, -912, 1851, -417, -411, 225, 294, 1402, 883, 185, -900, -349, 399, 
    1329, 2056, 562, 523, -666, -609, -1, -921, -1019, 341, 1127, 916, -13, -903, -33, -777, 2167, 1632, 1739, 1690, -477, -1371, -773, -640, -254, 
    501, -629, 950, -360, -677, -815, -66, 551, 701, 499, -689, -258, -671, 1346, -66, 1346, -515, 532, -211, -828, 526, -1598, -1153, -1153, -1598, 
    351, 488, 62, -1525, 95, -345, -288, -724, -274, 1640, -2206, -1541, 279, 1103, 969, -570, -405, -462, -1274, -123, 10, -515, -383, -1786, -1466, 
    1432, 194, -1326, -923, -11, -683, -1379, -488, 17, -1111, -986, 582, 948, -11, 94, -1018, -733, -2152, 849, -757, -235, -427, -953, -1224, -1362, 
    -590, -667, 1097, 14, 1240, -784, -1072, -49, 1319, -630, 71, -46, -1064, 47, 598, -130, -1477, -711, -1056, -1246, 1213, -88, -347, -661, 391, 
    -51, -1053, 976, -41, 285, -622, 655, -1095, 496, 605, 720, -181, -525, 1180, 1094, 1075, -532, 40, -1767, -1257, -870, 177, -1137, -344, -1362, 
    -620, 859, 557, 15, 263, -432, -1301, 280, -650, 928, -903, -889, -411, -379, 237, -505, 116, -1292, -429, -788, -1643, -746, -300, -521, -981, 
    -1210, -60, -1256, -704, -971, 763, -827, -420, -950, 194, 81, -753, -885, -528, 546, -460, 486, -1387, -1848, -427, 906, 1611, 438, -422, -602, 
    -854, 1317, -183, 60, 704, -1779, 918, -540, 257, -804, -2103, -1877, -631, 1355, -967, -1136, -185, -818, 44, -442, -226, 925, -96, 477, 743, 
