/*
 * Copyright (C) 2020 GreenWaves Technologies
 * All rights reserved.
 *
 * This software may be modified and distributed under the terms
 * of the BSD license.  See the LICENSE file for details.
 *
 */


L2_MEM short int  Filter_Layer0[]={
  -2778, -2292, 6381, 2511, -3011, -2920, -5805, 8328, 2733, -3934, -2613, -6767, 6993, 3748, -2911, -692, -4462, 3966, 3741, 361, -688, -3960, 1029, 270, 1692,0,
  441, 3113, 1777, -3963, -1308, 2868, -173, -6137, -6243, 3362, 2802, -6674, -6312, 1025, 4937, -7236, -8028, 1120, 9011, 1257, -3322, 2847, 8506, 1217, -3018,0,
  -1118, 2691, 3925, 781, -820, 1146, 2585, 6644, 5895, 1104, -439, -4912, -2997, -1235, 653, -2057, -3888, -7498, -6313, -3907, -1084, 1591, 3735, 1968, -1194,0,
  -2443, -4341, -289, 4407, -845, 1187, -1650, -7844, -5747, -308, 843, 2681, 1549, -2151, -887, 294, -681, 4194, 3513, -4027, 765, 3593, 1824, 4649, 4348,0,
  113, -775, 759, -1590, 2183, -214, -4576, -1957, -3200, -2215, 5651, 6490, 8682, 5356, 5868, -2354, -4869, -4261, -7021, -2857, 1717, -3373, 1315, -661, 1878,0,
  125, -3340, -371, -823, -1300, 5276, -462, -1281, -3824, 188, 2286, 2790, 742, -7670, -3122, 4722, 3606, 2661, -4681, -6497, -438, 6207, 4690, -1657, -5042,0,
  -1712, 283, 4854, -5744, 1428, -4747, 4005, 6473, -3529, -2946, 2711, -2659, -7514, 5932, 2849, 4141, -3369, -5511, 4414, 782, -1355, 2496, 4220, -2781, -2886,0,
    -11, 169, 116, 2235, -492, 423, -818, 3199, 3173, -3448, -2298, 1379, 6100, -563, -4180, 2501, 8259, 4735, -3964, -4834, 3122, 3763, -2464, -6297, -1907,0
    };

L2_MEM short int Bias_Layer0[] = {
-693,1761,-28,-2433,-1470,1918,13,-5305,
};

L2_MEM short int Filter_Layer1[] = {
    4020, 706, 1417, 2848, 3616, -770, 5578, 3155, 2450, 3929, 5207, 6061, 5943, 2277, 2692, -6039, -1533, -4843, -2141, -3010, -4448, -13471, -14130, -19120, -12458, 5120, -1027, -962, 3199, 5896, 2936, -287, 1243, 1305, 2615, 3089, 2761, -3017, 5850, 5216, 1421, -4365, 974, 2322, 5654, 2647, -4639, -3410, -2501, -1899, 4642, 516, -1833, -144, 2335, -20, 3732, -1302, -1280, -2876, -2357, -943, 496, 772, -4871, -1311, 2735, -3001, 2154, 1973, -6447, 4845, 2618, 947, -107, 1865, -1321, -6171, -93, -977, -926, -1295, -3401, -2944, -3173, -721, 1831, 637, -724, -1977, 6928, 3105, 5003, 4764, 307, -4441, 11114, 8176, 925, -3616, 1870, -97, -729, 115, 1213, -2069, 8214, 5383, -4470, -2614, 1672, 412, 589, 3015, -951, -10207, 2571, 2582, 941, -4205, -9056, -7056, -1875, 1051, -9572, 3476, 2382, 1313, 4242, 1773, 3710, 5991, 2656, 2941, 2511, 7142, 3305, 3812, 2782, -789, 9069, -1546, -2557, -3750, 2995, -11131, -1514, -7833, -3466, -2399, 4219, -2444, -2573, -4758, 21, 4996, -1088, -1133, 2315, 6237, 5163, -17, -741, 26, -1838, 1873, 273, -5396, -962, -5563, -9771, -7114, -12001, -10063, -8452, 432, -1344, -319, -2415, 1927, -914, 4272, 2494, 2686, 6029, -1263, -1987, 3187, 4053, 1444, 3917, -4856, -897, 2032, 4161, -4534, -8671, -4568, -9234, -5770,
    266, -4389, -10134, -8010, -1059, -1507, -5295, -2848, 1744, 1271, 3556, -496, 1184, -537, 1870, 2831, 1220, 1810, -3850, -1125, 4348, -4163, 1492, -2923, 529, 4858, 3368, 3893, 3231, 1192, 7101, 3955, -381, -5089, -3661, -2230, 1480, -630, -4829, -3630, 1007, -855, 505, -1354, -4808, 1501, -819, -1251, -496, -849, -802, 3728, 4181, 6598, 4688, 4025, 3365, 3926, 5530, 9332, -3786, -1316, -10601, -4388, 1489, -1257, -3649, -2609, 2131, 4519, -3531, 390, -1093, 126, -1298, 3241, 3229, 5130, 6027, 9476, 8388, 2183, -2305, 1240, 5307, -1384, -3013, -9018, -8496, -3439, -5657, -1917, -5202, -2110, 169, 932, 1160, 2112, 1505, 853, 8336, 6715, 4094, 10371, 11822, 11140, 9491, 2096, 6994, 12132, 2710, -8908, -6178, -999, 5058, 10063, -5962, -4448, 2597, 1210, 5712, -760, 1135, 6788, 3076, -1363, -1057, 699, 411, 4489, 18, -41, 274, 3712, 5506, -474, -543, -3002, -914, -2109, -75, -4937, -4552, -3901, -3976, -2961, 353, -1796, -2252, -1297, 3436, 493, 249, 2145, 2000, 3325, 2589, 2714, 3293, 3108, 3565, 817, -4716, -5550, -3064, -256, -1870, -5166, -5091, -12988, 1000, -234, -1986, 774, -5051, 234, -987, -4096, -4796, -7226, -173, 2306, -1982, -18, -3480, 916, 3512, -2668, -3451, 3498, -409, 3592, -1883, -2288, 144, 5448, 3749, 3370, 261, 3203,
    -105, 2260, 5332, 1148, -1213, 71, 1930, 3846, -1290, -1624, 3447, 2017, -936, -1191, 3891, 3591, -2638, -6318, -686, 154, 3732, -364, -10785, -4766, 3968, 3759, -1543, -3670, -5623, -2465, -696, -987, -5101, -3367, -33, -507, 747, -2528, 684, -249, 2584, 2718, 4688, 1982, 2367, 3777, 5186, 4715, -1781, -1053, 6272, 2239, 4018, 241, -2270, -3151, -4119, -3445, -5713, -4461, -2233, 1623, -2361, -754, -2748, 5774, 4466, 4474, 2049, 4251, 670, 2471, 5368, 5011, -406, -772, 3257, 1240, 1717, -845, -4627, -9149, -8247, -6442, -1093, -4006, -1827, 229, -3793, -1995, 6117, 11080, 7031, 5223, 4522, 1798, 3368, 3939, 5554, 3513, -1666, 1205, 2808, -5653, -5243, -6240, -6050, -2032, -6400, -1322, -8042, -7021, -3169, -4462, -4968, 3511, 4605, 10016, 6350, -851, 920, -2923, 3644, 3406, -1524, 465, 2699, 3004, 1969, -2297, 3053, 3130, 3488, 947, -1896, -551, -2221, -3741, -1075, -293, 4218, -2044, -2509, 3768, 1705, 1545, -3949, -223, 6177, 6731, 1493, 3254, 1735, 127, 3177, -4540, -5136, -6048, -4678, -1853, -3849, -3300, -3596, -1440, -2982, -134, 557, -2752, -2740, -2142, 1084, -1545, -963, 3893, 5384, 1037, 6714, 6435, 3224, 2355, -4140, -136, 930, 5005, 4960, -2208, -2743, 1204, 2829, 3695, -433, -1648, -1203, 990, 2486, -1300, 1735, -4201, -3199, 1521,
    -925, -2498, -1985, -5663, -2610, -2390, -3413, 410, -19, 820, -2871, 2413, -4546, -107, -2326, 1243, -4310, 2302, 3376, 50, 4164, 976, 64, -196, 1026, 8278, 7008, 9654, 6232, 12113, 9708, 10557, 9338, 8146, 9083, 9251, 6161, 6126, 6116, 4181, 8218, 9168, 2107, 5924, 6475, 5664, 5688, 4922, 7922, 1927, -4687, 339, -2522, 938, -4263, -706, 1517, 525, -895, -4652, 4418, -1848, -6749, 596, -4447, 1771, -2588, -6896, -4322, -1555, -4154, 2131, 925, -1121, -518, 1618, -3316, -4623, 1197, -124, 1143, -1917, -6332, 1906, 555, 1015, -3049, -2556, 1634, -3629, -3237, -2255, -1707, -92, -2711, -6986, -1947, 2680, 2044, -2592, -1541, 2562, 30, -2565, -3856, 458, 44, -2619, -4560, -11470, 2856, -2249, -10621, -7717, -5135, 3461, -3470, -9636, -5716, -7310, -2156, -3603, -2386, -3168, -7037, -1758, -4064, -4310, -6407, -1881, -3201, -2353, -1473, -6472, -1103, -2586, -1386, -6096, -1856, 2751, 797, -740, -2562, -1014, -4498, 1883, -401, -1422, -2510, -659, 8233, 2076, 2388, -2334, 1514, -1640, -1757, -2124, -2600, 4280, -106, -3973, 657, -1482, -576, -8718, -3992, 4476, 5069, -6118, -5970, -1759, -3497, -4187, -2463, 2508, 6258, 2674, 255, 537, 7508, 4721, 4766, 3702, -563, 4531, 1298, 3329, 5026, -413, 5089, -2161, -723, 1063, 3964, 2394, 1516, 1508, 5567, 641,
    -772, 2843, 6406, 1638, -3815, -4984, -1792, 3690, 2702, -4658, -3987, -3704, -2568, -7762, 936, -886, -1787, -5599, -1419, -1398, -8635, -8054, -5385, -5679, -4272, 485, 911, 3683, 4441, 209, -720, -2536, -1832, 3031, 100, -3184, 4632, 785, 3427, 3533, -675, 323, 1043, 8177, 12171, 890, -2230, 2413, 4022, 11712, 1883, -466, -261, 8287, 1198, 2811, -1123, 3278, 5033, 853, 6456, 1508, 531, 4265, 2957, 4895, 6399, 1882, 1321, -4670, 4925, 3528, 621, -1332, -10348, 1048, -3028, 145, 5861, -1853, 5141, -3297, 1193, -3024, -714, 2303, 1730, -2096, -4071, 1991, 5045, 2624, -6917, -4780, -10404, 5882, -4482, -3083, -1087, -6030, -1512, 2756, 2601, 3712, -6246, 1006, 972, 410, 4039, -610, 8749, 10124, 5688, 10925, -6027, 13259, 10080, 6865, 8377, -6464, 22198, 6406, 3221, -2250, -11258, -2902, -1126, -3209, -6862, -7172, -2519, -3716, -3480, -3920, -2117, -3565, -2850, -6211, -2764, 1313, -6670, -2474, -1178, 3185, 5864, -8020, -7067, -6447, 1737, 1134, -5313, -5146, 3176, 2800, 3155, 1976, 656, -1051, 5105, 3950, -4740, 2463, -245, -4288, 3048, -6272, -3607, 1347, -1239, 10164, -14506, -22035, -9101, -5894, 721, 6006, 2531, 1598, -1129, 3647, 1860, 1723, 4152, -4074, -427, -952, 6532, 2362, 857, 3614, 13926, 3780, 5863, 1586, 3590, 4409, 7563, 6164, -1309, -1367,
    -478, -2224, 186, 1240, 1145, 270, -2657, 3468, 4570, 931, -3302, -3888, 2528, 3343, 12454, -838, -4239, 644, 7251, 6217, -1211, -5646, 3815, 1283, 4612, -3324, 228, -3386, -1971, -2024, -1718, -1410, -2511, -2700, -1731, -159, -1269, -6202, -4576, -2180, 6911, 746, -3825, -1903, -4263, 2024, 3414, -687, -90, -6239, -1665, -726, 1596, 1696, -621, 229, 340, -2439, 3048, -5250, 884, -4562, -2201, -5928, -8397, -2078, 1323, -4262, -1039, -689, -2593, -2504, -6218, 2028, -1013, 984, -1595, -1100, 4362, 7280, -1486, -5397, -3048, 1348, 4222, -2081, -4011, -2918, -2262, 1439, -3163, -4988, 33, -735, 2159, -785, -4818, -4981, -1618, -1859, -2279, 44, -4563, 1640, 6338, -4488, 4756, -2166, -3475, -1928, -9251, 2655, -4330, -6486, -2954, -6680, -3733, -1748, -6900, -1264, -4577, -2014, -9282, -5456, -2228, -833, -1957, -1968, -2708, -5056, -344, 302, 895, -2609, -3634, -176, -440, 2195, -1141, 278, 2941, -3671, 3497, -1304, 1932, 5184, 2001, -3919, -4647, 1352, -9511, -7347, -4030, -4575, -2417, -5849, -3413, -4673, -4966, -2418, -5682, -3980, -2816, -2349, -4823, -6845, -7738, -3832, -8255, -6448, -7657, -9281, -6662, -7646, -3994, -7343, -4362, -2887, 1431, 3073, -4156, -4163, -4791, 2748, 1376, -2850, -1047, -4304, 616, 2768, -3678, -4397, -2428, 3408, -765, -3765, -1398, -1732, -173, 2696,
    1484, -1543, 1182, -6175, -5355, 4406, 4819, 445, 8244, -2272, 690, 645, 4041, -752, 9438, -209, 64, 1459, 4253, 5001, 152, 268, -1808, 3359, 3104, -164, -1175, -5447, -3943, -5993, 3493, 732, -476, -3217, -9471, 4919, 2651, -1436, -5352, -4434, 2186, 80, -2172, -3570, -6376, 2128, 5628, 3754, 2133, -640, 3281, 6116, 1672, -6405, 528, -834, 2364, 5749, 1585, -5138, 3247, 4841, 4106, 1281, -1558, -766, -274, 2032, 411, 1978, -4126, -1624, -4009, -265, 795, 7567, 5169, -4908, -5099, 7783, -175, 8231, 2052, -9842, 2110, -267, -1801, 8202, 7309, -9506, -2275, -4067, -3972, 6288, -2390, -6538, -735, -2982, 1240, -5999, 3412, 1344, 1545, -6259, 2478, 370, 1970, 2893, -1324, -2597, 3987, -1314, 1004, -325, 1547, 2916, 1668, -4657, -8041, 7781, 3467, -1487, -18, -4452, 3341, 1889, 1876, -2831, -4191, 2895, 4042, 4862, 4081, -656, -4188, 5941, -2207, 512, 1540, -1366, 916, -569, -347, 3720, 965, -716, -388, 465, 603, 2707, 3194, -3683, -4599, -8504, -7093, 3097, 4396, 3245, -993, -4370, 719, 4333, 10010, 3746, -4930, -3324, -10, -549, 7305, 2558, -1004, 347, 5373, -813, -3845, 1328, -1694, -3186, 904, 959, -2052, -346, -6621, -3785, -2960, -677, 1814, -1333, -6291, -2168, -1426, 1558, 3533, -2026, -5915, 2392, 3067, 3925, 1499, -1642,
    4513, 1291, 1793, 917, 3034, 327, -303, -106, 1279, 2048, 2662, 902, 3655, 270, 2359, -1912, 3233, 5671, 6293, 3603, 2143, 1352, 2282, 4939, 5197, -547, 2933, 2494, 3976, 1030, 5085, -1982, 124, -1092, 2586, 1618, 1618, 3991, -1221, 1143, 3749, -2396, 1076, -315, 1650, 4319, 4609, 3374, 2376, -19, -1837, 2270, 429, 5085, 2064, 328, 8978, -2302, 3294, 3728, 3842, 457, 1872, 3794, 3169, 1934, 368, 5673, 5039, 2047, 271, 2025, 8509, 2884, 1714, 1453, -1398, -4164, 3315, 1755, 2964, 6091, -1640, 3610, 5843, 3505, -400, 3220, 3286, 1567, 2894, -1399, 523, 4212, 3568, 2193, 6700, 3152, -3082, -74, 2961, 4304, -3254, 2661, 7513, 1783, 6255, 6611, 8898, 8496, 5757, 5083, 6658, 3645, 7673, -951, 6508, 10231, 3000, 6687, 5741, 5887, 6153, 5753, 3261, 1471, 174, -39, -1894, -142, -3234, -1120, 1291, 1159, 1346, 1726, -2497, 2798, -1418, 4773, 6695, 5167, -706, 2553, 378, 1841, 4389, 8409, -3153, -1560, -764, -497, 3143, -4825, 2535, 7947, 2296, 7624, 3685, 7661, 8249, 9604, 3141, 1761, 3628, 13960, 2264, 3802, -1054, 7448, 7973, 3603, 6842, 3587, 4137, 2586, 359, 244, 6937, 4827, -3206, 2768, 5194, -397, -1268, -3527, 340, 5178, 4886, -3409, -611, 1629, 1496, 3816, 360, -238, -4063, -1027, 1748, 5315,
    -1440, -7478, -9826, -4912, -6708, -4323, -7195, -7731, -16507, -7221, 3091, 1524, -4550, -14174, -8015, 5513, 5930, -2366, -6819, -4338, 3190, 8409, 6044, -652, -4692, 4947, -580, -1609, -2030, -3902, 5224, 2451, -5289, -4354, -3127, 3515, -6379, -4889, -2491, -609, 771, -1397, -6519, -3257, 2343, -878, 189, -1558, -5195, -2816, -4070, -641, -2168, -4727, -1731, -3549, -2016, -1025, -1760, -3455, 2181, 759, -5038, 166, -2754, -889, 1350, -866, -2436, 4030, 2520, 2739, 53, 1825, -2004, -2549, -5064, -12129, -3291, -5849, -3572, -8551, -3753, -5342, -3637, 519, 547, -4372, 413, -3060, 2820, -871, 900, 10, 1999, 2645, 4468, -63, 3378, -352, -5463, -7304, -1325, -2856, -10925, -7283, -2269, -4974, -4864, -3222, -1752, 2043, -1961, -2199, -3891, -1060, -2152, -581, 5149, -2194, -1273, 4378, -613, 752, 672, -4415, -3753, -4075, -3757, -4665, 3690, 4366, 460, -2614, 1995, 8282, 2785, 1439, -3430, -2075, 6793, 1077, 1504, -1670, -2917, 1224, 3624, 327, -1971, -1617, -2946, -3425, -7806, -7941, -7768, 1777, -3643, -11838, -10652, -8574, 4008, -7900, -11473, -10812, -10712, 3941, -4925, -6140, -6046, -8885, 1818, 2305, -2085, -6578, -2031, 3438, 2785, 1596, -5797, -3513, -793, -3724, -7040, -1079, 1936, -934, -7984, -6834, -5179, 1910, -5907, 581, -4353, -2619, 977, 2809, -1354, 654, -2870, 6171,
    -757, 8942, 3706, 2856, -190, -656, 940, 9393, -3351, 6322, -1214, 840, 12815, -7847, 9260, 3833, 10026, 8456, -6997, 9823, 3095, 9291, 7785, -2915, 5715, 3370, -898, 2863, 2009, 2802, 15, 70, -2506, 1112, 4373, -2946, 345, -1563, -930, 1856, -1276, -5068, -1265, 1007, 1548, -1028, -4313, 262, 2202, 2128, 3490, -1633, -3673, 267, 2590, 3163, -254, -3089, 678, 3418, 1992, 1778, -1821, 2018, -331, -3967, -3007, -2326, -1254, -1560, -1585, -3845, -1198, -523, -127, -3091, -1297, -3506, -1308, -2932, 594, 2040, -86, -3067, -4702, 1318, -371, 937, -3342, -4726, -1653, -2697, 1221, -2525, -3470, 9555, 841, -2870, -3530, -4640, 1203, -3246, 3597, 827, -1856, 4552, -2924, -1946, 1316, 267, 3293, -763, 3987, 4034, 2241, 1169, -7239, -327, -1368, -2908, -724, 4037, 3404, -959, 4754, 2323, 5956, 14, 4372, 2975, -2515, 1491, -6493, 4306, 3540, 1789, 3640, -5450, 1411, 2655, 1120, 1350, -823, 382, 4548, -910, -1878, -5595, -936, 187, -1324, 1312, 144, 3938, -1169, -1033, -2396, -6573, -8638, -9052, -7551, -5735, -5934, -12059, -3570, -5501, -2704, -1357, -8083, -5248, -172, 3794, -2423, -3177, -3173, 1333, 2140, -1108, -2636, -1090, -1861, 1139, 3588, -6573, -1920, 1203, 3864, 6484, -4689, 2593, 5338, 5421, 4071, -1091, 1427, -5055, 928, 1407, -4073, -3439,
    -3031, -3620, -229, -3365, 472, -264, -3777, -3546, -5736, -2709, -805, -732, -6980, -1394, -2393, 2204, -5649, -7109, -3746, -2571, -768, 5645, -987, -11059, -3294, -789, -760, 4666, -2063, -4843, -1648, -2209, -518, -1815, -909, -2452, -5178, -925, 5556, 2252, 3544, -7174, -6179, 2907, -786, 2145, -3949, -334, -3579, -601, -603, -816, -1349, 3963, 1565, -7148, -2575, 2142, 4381, 2645, -2149, -1668, 2789, -583, 4537, 3469, 1085, 1035, -3273, 2930, 1282, -1478, -3461, 4658, -322, -7868, 1033, 2387, -1591, 87, 848, -4163, -3288, 5433, -3045, 5079, 2804, 583, -5099, 4116, -3323, 1350, 2506, 440, 4908, -3402, -805, 4336, 1526, -1237, -2623, 679, 6701, -4220, -3257, 4797, -3726, 3922, 3610, -2324, 6337, -1616, 964, 2593, 217, 1119, -1580, 2229, 613, -3207, 1102, -2367, 3757, 1857, -1021, 2297, 4303, 5571, 4335, 6659, 1791, 1348, 2794, 4514, 5546, -1781, -3040, 3279, 3068, -1807, -26, -1566, 455, 5187, 2281, -3037, 4447, 1629, -938, 524, -6908, -2017, -2514, -3650, -4046, -6893, -5718, -3758, -3402, -4682, 1626, -701, -7652, -4023, -457, 135, 11, -910, -3879, -2045, 128, 672, 4506, 3454, -3296, 2804, 5871, -284, -713, -119, 695, 582, 2741, -2207, -1257, 3129, 3538, -722, -3306, -3655, 6730, 2557, -4179, -3086, 3027, 6122, -1190, -1716, -2795, -471,
    1517, 4927, 3672, 937, -10, 1050, -1059, -1808, -2897, -2940, -232, 955, -341, -5131, -4843, 2537, -1423, -4494, -1513, 399, -699, 3718, 1722, 660, 4008, -682, -1694, -1702, -856, -3115, 754, -218, -3161, -4007, -782, -2337, -4242, -2590, -2061, -2059, 264, -880, -3318, -1386, -504, -2947, 2595, -2050, -5256, -5371, -3373, 2880, -1347, 1656, -1744, -1147, -1937, 5656, -2671, 4119, 2707, 5936, -819, 5960, 4827, 4554, 5140, 8670, 4637, 7851, 1594, 4216, -348, 6474, 9285, 3577, -3015, -1831, 1433, -1163, 2366, -1315, 1810, 411, 3621, 2606, -202, 4506, -1249, -1096, -1862, -1493, 2534, 2148, 2627, -715, -661, -2984, -4126, -988, -6089, -2810, 3260, 4713, 3715, 1427, 3933, 3875, 2217, 7458, -2486, 3145, 10440, 5524, 7497, 4670, -1892, 2879, 5553, 14034, 9370, -2751, 4902, 1190, 10167, -4317, 4, 237, 1230, 561, 2548, -1963, 2185, -1920, -686, 3258, 1711, 2418, -5820, -903, 6081, 6754, 5873, 6963, 3845, 8566, 8260, 5477, 2593, 3749, -1342, -1986, -6170, 3154, 1261, 2648, -762, -4527, -1133, 430, 3397, 422, -3880, -8139, 548, 4421, -640, -3580, -1337, 1510, -4668, -7271, -1568, -6323, -4445, 1823, 262, 2496, 1705, 1258, 3358, -314, -809, -2385, -251, -2574, -5778, -4273, -1661, 792, -4082, -3548, -4434, -1620, -4092, -4700, -2600, -9994, -11132, -8020,
};

L2_MEM short int Bias_Layer1[] = {
-2158,-2217,-4292,-4640,-7207,-1801,-6593,-2988,-4866,-892,-3045,-2287,
};

L2_MEM short int Filter_Layer2[] = {
1637,
4051,
2778,
824,
3130,
8619,
3394,
1819,
5907,
1038,
876,
2663,
-3939,
-1907,
-1638,
-942,
804,
3852,
2514,
-1281,
-671,
7025,
2295,
3657,
2314,
-6567,
-2740,
-3520,
-785,
-8122,
1089,
-1237,
-1533,
2553,
3076,
-2995,
1455,
-156,
961,
1733,
-646,
1136,
-303,
-1676,
2917,
-3802,
-1868,
-4733,
-1935,
-223,
-1020,
-1083,
-5561,
-927,
-1286,
2472,
2739,
-3381,
6104,
-2877,
64,
1658,
-1091,
1226,
-1747,
-1877,
-1103,
-4020,
-2362,
-1359,
-4529,
-515,
-3914,
-1049,
-7091,
-12602,
-1955,
163,
-39,
3983,
-9406,
2548,
841,
-1841,
2239,
-7403,
-2562,
-106,
-3658,
292,
-4236,
-1046,
-2124,
318,
-5504,
611,
-2494,
5803,
-4323,
-5375,
-4670,
-5632,
474,
-555,
2904,
4235,
1574,
-470,
1491,
311,
5482,
2013,
1138,
-5792,
-2977,
4220,
6857,
-454,
1847,
-4273,
6835,
6964,
3059,
-556,
-8062,
4069,
18,
335,
3887,
-3863,
-326,
-1299,
2687,
9,
386,
-1537,
2658,
860,
2751,
-7869,
-1422,
2742,
-1700,
-1151,
-5338,
6105,
3032,
1714,
440,
5213,
1285,
4970,
-3433,
-7304,
-3423,
1988,
1383,
-1035,
-3476,
-6703,
-1575,
481,
-4533,
-10597,
-7054,
556,
-2489,
-4264,
-4464,
-10562,
-2396,
-2350,
668,
-7309,
548,
3225,
1068,
-1512,
1382,
5315,
5573,
7124,
6235,
2807,
11517,
5064,
2039,
4697,
4327,
7759,
2966,
3961,
-733,
2096,
3338,
-3835,
1188,
4816,
6513,
1051,
9234,
-1484,
2644,
4654,
6029,
6876,
2355,
3643,
7494,
7500,
9190,
4007,
2728,
5117,
5953,
5390,
4481,
5129,
6258,
6526,
-1450,
4878,
6210,
935,
5868,
-2411,
-1535,
-4988,
3361,
-1064,
-2055,
-4780,
-2826,
528,
-4168,
7,
688,
-809,
913,
-2510,
-2490,
2022,
-2158,
-4347,
-2006,
443,
-1225,
357,
100,
-4982,
-4311,
-2338,
-2104,
-2839,
-5367,
3690,
-1047,
1828,
1102,
-5926,
-6926,
-4660,
505,
-1018,
-5255,
-1765,
-5679,
718,
2513,
-7394,
-5863,
-10490,
-4847,
-2459,
-1374,
1560,
-2594,
-566,
-2168,
-2992,
-5931,
68,
2163,
839,
-2639,
-7859,
2592,
1454,
1485,
-1728,
-7834,
2211,
3483,
-171,
-1444,
-5558,
-2103,
728,
1357,
4536,
6182,
4912,
149,
1420,
4485,
6459,
3446,
1795,
3580,
1741,
9691,
4444,
3346,
1704,
207,
10598,
8724,
3889,
1629,
9010,
17438,
4365,
9085,
4283,
13211,
-5864,
-873,
433,
-2345,
-2643,
81,
-302,
6063,
-3304,
-5864,
-450,
1809,
-1636,
-2736,
225,
539,
610,
526,
1677,
267,
-6639,
3562,
-666,
6095,
1062,
-2937,
3655,
-4595,
223,
-530,
-970,
-1147,
5541,
-3866,
-3747,
-2229,
-2279,
83,
-5503,
-1265,
-6577,
-2647,
-2514,
2256,
-1239,
-5585,
1666,
3012,
1986,
239,
-2133,
-4546,
-3606,
-9917,
-5771,
3788,
-2718,
-2321,
-1322,
-1043,
-1685,
-5092,
-1668,
-4211,
-5219,
-163,
-1628,
-3945,
-5942,
-955,
-9429,
-4388,
289,
-1264,
11368,
2331,
120,
231,
-279,
-3839,
-158,
-909,
3530,
1692,
1081,
-361,
4794,
3016,
3367,
2346,
56,
-288,
858,
-7563,
5201,
-6185,
4231,
2087,
4829,
10044,
-3003,
994,
4685,
3438,
4805,
-2899,
-3521,
-644,
-3328,
-7273,
-4515,
-4228,
-4839,
-6911,
-3697,
-11910,
-3688,
-3361,
-991,
-4259,
6314,
6104,
4432,
6188,
-4633,
-2566,
-14492,
-14859,
-9642,
-3849,
-10274,
-12190,
-5823,
-5048,
-1643,
-4853,
-5436,
-5685,
-3756,
1530,
2828,
22,
6168,
4028,
-784,
237,
2142,
-939,
3008,
-2603,
3022,
5443,
1185,
1024,
1361,
-3108,
2275,
3987,
3444,
766,
-1476,
-4217,
2135,
-5871,
3013,
2046,
1838,
3075,
-3325,
422,
4873,
4261,
1455,
3947,
-3413,
-2031,
901,
1072,
-1348,
-1659,
1700,
-370,
-873,
768,
-1553,
3144,
3006,
284,
5099,
2634,
8602,
4503,
3933,
7644,
3052,
3400,
1104,
6535,
8357,
-2146,
-145,
657,
-730,
1816,
1070,
-3711,
-5809,
-1887,
-2645,
-6644,
-8966,
-657,
3340,
-6863,
3727,
-2766,
-2840,
2494,
-1902,
3849,
8283,
15766,
11903,
8954,
6320,
-166,
-2705,
-1753,
-4992,
-2011,
-4218,
-1292,
467,
-2024,
-4983,
-7496,
-5998,
-2475,
-892,
-1202,
194,
-1485,
-2018,
-5611,
-5209,
-7704,
-6023,
-4361,
-7801,
-5845,
-3025,
3645,
6057,
-1367,
591,
-526,
2840,
2914,
98,
-5352,
85,
-4603,
-4997,
324,
75,
-3936,
-6876,
-1184,
-1274,
6039,
5476,
5603,
5938,
16,
-1815,
-2898,
-3515,
21,
-3409,
-5706,
-1385,
-65,
838,
-2385,
-2524,
-4186,
-1205,
-3625,
-8598,
-5975,
-3418,
-6809,
-4025,
-3614,
-5538,
-11607,
-6941,
-6280,
-11050,
-9073,
652,
-4317,
-2407,
-2369,
-4946,
-5,
973,
-3049,
-3111,
-2065,
-835,
-1469,
782,
-2462,
-1828,
-559,
81,
188,
339,
-2499,
4452,
1244,
2411,
76,
3775,
-4183,
1496,
-4051,
-3612,
-1600,
-3831,
473,
-4008,
130,
-3398,
-2139,
420,
-7418,
5110,
-8258,
1611,
2804,
-1569,
-455,
-65,
1273,
-2611,
314,
276,
162,
3452,
4981,
2601,
285,
501,
-5159,
4807,
-723,
1150,
2038,
-3675,
4143,
3705,
2258,
33,
-4582,
2556,
2947,
5757,
272,
277,
1526,
2285,
3424,
-4937,
-2348,
73,
-2629,
-3582,
-4689,
-883,
-1728,
-1570,
-4621,
-5295,
-57,
-4151,
-1102,
1140,
-7542,
-369,
-1629,
-3606,
2408,
-2523,
2532,
-4507,
-4947,
-1755,
-11615,
551,
-1296,
473,
-481,
2171,
1924,
1302,
524,
1758,
-1566,
2187,
8453,
4684,
3190,
227,
2457,
-2023,
-853,
-4067,
-4370,
-4471,
-5836,
1674,
-6519,
-4461,
160,
-1877,
1087,
1710,
1257,
-1912,
-1469,
3301,
1221,
-3577,
-2223,
-3368,
-435,
-1950,
-6163,
-4147,
-535,
81,
1666,
-7095,
-3109,
-2418,
-1104,
-4330,
-1407,
1284,
4023,
2124,
7178,
-115,
-18,
3701,
2466,
8007,
2425,
3001,
5520,
1481,
5228,
-84,
2321,
3920,
1555,
3985,
3976,
-4643,
-4399,
-5548,
-3510,
-4587,
1006,
3045,
3920,
136,
-4270,
2288,
1827,
2235,
2068,
1369,
4410,
3028,
5928,
2902,
4848,
-2306,
1517,
2795,
3628,
2511,
4504,
-68,
321,
655,
2373,
1146,
-3727,
-2814,
-767,
-3351,
1468,
-1036,
-3731,
2387,
2168,
-2860,
-5624,
-4343,
-2565,
1992,
-2696,
-4094,
-86,
-2096,
-4502,
-9420,
-1944,
-973,
-3222,
-5908,
-19,
-656,
1630,
4554,
-1797,
2148,
276,
4214,
4903,
2309,
3563,
-1090,
1862,
2802,
-932,
-6061,
-3557,
2094,
1964,
1004,
-536,
-654,
2933,
2089,
-1679,
-531,
3288,
953,
748,
-3298,
-4078,
-366,
4026,
1961,
-21,
-4196,
2026,
6403,
-1887,
476,
2327,
806,
2812,
4519,
-3736,
-6152,
955,
364,
2726,
-849,
2981,
-228,
-2143,
-1472,
2749,
-3096,
-1784,
-1179,
585,
-1107,
249,
-4869,
2203,
-473,
527,
-2348,
-4231,
-1579,
-26,
-938,
-2694,
4600,
1115,
1504,
-2973,
-2123,
-3034,
696,
-4625,
-4749,
22,
-3792,
-7285,
-651,
-2975,
-4794,
-8031,
-2920,
-4417,
-3098,
-2456,
175,
-4099,
-2960,
-3186,
-2585,
-4443,
-1423,
530,
-3968,
136,
1018,
-2404,
-3800,
306,
-2888,
-7882,
-5812,
-6271,
-5080,
-3789,
-1693,
-6462,
-3264,
-3119,
114,
-1619,
-1621,
-1944,
-697,
1491,
-2508,
-3693,
1082,
1482,
595,
-1247,
3059,
4084,
4465,
5995,
-409,
446,
-1201,
-5023,
4241,
2384,
-636,
2437,
-1242,
-4134,
-3210,
-700,
-1771,
-3411,
2429,
-2125,
-4957,
241,
1172,
-3391,
2265,
-1320,
2002,
-1787,
-1300,
1049,
-956,
-947,
189,
-9,
-513,
1638,
-2434,
-1214,
-2387,
-1504,
92,
2297,
1540,
-1980,
-2085,
-2782,
586,
2360,
3088,
632,
2137,
972,
3526,
-789,
175,
-1366,
599,
3580,
573,
354,
1689,
-1865,
336,
3128,
2380,
-590,
140,
373,
3211,
-1494,
473,
2691,
5717,
6864,
700,
1966,
-2875,
614,
2288,
-3544,
-1435,
-2551,
1368,
1307,
702,
-2027,
-1440,
-546,
-2841,
-2858,
-3220,
527,
-5986,
-2700,
-1505,
-1119,
-459,
889,
-2589,
-799,
-2467,
-182,
1130,
-209,
-2433,
-854,
97,
-953,
4318,
4907,
-731,
2668,
-2157,
45,
-373,
-168,
346,
-2758,
2979,
2428,
2477,
6,
3415,
-1718,
-1543,
-931,
805,
-3351,
-2476,
-3306,
-1827,
-1431,
-168,
-1601,
756,
-2639,
-1992,
-2312,
641,
-1017,
-2239,
-1149,
-1964,
330,
365,
338,
-3269,
3181,
5696,
-489,
4415,
3613,
520,
45,
-2785,
-3708,
-2037,
-1368,
75,
-1601,
565,
-6176,
1949,
1261,
-2136,
581,
-304,
2179,
-2005,
-3766,
-1577,
2798,
-3721,
269,
4141,
720,
326,
2954,
4328,
-1564,
-936,
2592,
4415,
2396,
-176,
696,
971,
2145,
-1207,
-1009,
1835,
3716,
4138,
2216,
3261,
1533,
2168,
4312,
4209,
2664,
5355,
2939,
-461,
2023,
-282,
1134,
3624,
-809,
-829,
-1974,
-1018,
-433,
-2198,
986,
-669,
-5499,
-433,
-2148,
-67,
2624,
-6368,
-1606,
-2974,
1708,
-1983,
-801,
408,
679,
1396,
-1333,
-369,
3838,
4219,
-5120,
-2635,
-5753,
-2012,
-2470,
-2887,
-8292,
-7448,
-2156,
-1424,
-6234,
-1985,
-3578,
-2926,
-8150,
-231,
-5703,
-6936,
-2439,
-1069,
-1879,
326,
-1010,
-882,
-1023,
1355,
-196,
7580,
2329,
-224,
469,
949,
2462,
797,
95,
2300,
1045,
2773,
627,
3782,
-2890,
-493,
-562,
-3943,
-2001,
1300,
2599,
-2994,
3874,
-699,
-1324,
3131,
637,
-455,
-955,
2737,
1396,
6908,
-52,
3855,
-943,
6726,
-1510,
226,
1405,
-7531,
-1734,
-570,
-4985,
2090,
-4834,
-2558,
4778,
5103,
2110,
-1150,
3920,
1781,
3333,
-3409,
1439,
2260,
5967,
746,
38,
-2829,
-5902,
2368,
-545,
-8863,
-845,
-4954,
-2684,
-2560,
-1402,
-3398,
-987,
-3914,
2393,
-2876,
-1011,
-735,
538,
-3409,
-204,
1118,
-2867,
872,
-1197,
232,
-736,
-3749,
-3943,
-7918,
-5002,
-3521,
-3905,
-8553,
-6332,
-5640,
-1488,
-3860,
48,
-1852,
-4803,
204,
1496,
2038,
-2216,
1557,
-4447,
-1625,
-1403,
-7450,
-1773,
-10140,
-6481,
-4386,
-9709,
-4684,
-745,
-7726,
-3796,
-5634,
-11113,
807,
-1620,
1366,
-5684,
-4674,
-1544,
851,
-461,
83,
-2188,
-2541,
2457,
795,
-5315,
-4409,
-2395,
1095,
3013,
-4347,
-1055,
1515,
-3210,
85,
-1444,
-6759,
1703,
-1779,
-2006,
1988,
-1704,
-5509,
1959,
1273,
1893,
-5434,
-6550,
-3524,
-5306,
-5885,
-4128,
-6445,
-6619,
-8450,
-5103,
-5504,
-3592,
775,
-1466,
645,
-4476,
-958,
-670,
4086,
342,
-2825,
871,
4976,
1371,
-1362,
-434,
-962,
-2352,
-3520,
-1074,
-3321,
-1002,
-2360,
-2696,
-7955,
-2072,
-1616,
-2605,
2838,
6539,
409,
501,
2371,
-2250,
-1309,
-4756,
-1392,
18,
3729,
2580,
2389,
-580,
237,
707,
1794,
4010,
3541,
2822,
9757,
7142,
5149,
-9628,
-7562,
-10791,
-6578,
-7137,
-1140,
-2351,
-2946,
-2968,
-2359,
-800,
453,
4407,
502,
-578,
-4123,
-4,
4403,
1775,
-1771,
-3695,
-5289,
660,
-1355,
-8478,
564,
-4853,
1945,
-1827,
2133,
2144,
-377,
9775,
-1948,
4211,
3532,
-1828,
3176,
-1455,
-1626,
2067,
703,
5697,
3868,
2619,
-3233,
-1744,
-1824,
-1336,
-3141,
-620,
2295,
-1071,
2776,
-312,
2103,
2806,
4851,
3363,
2270,
-1113,
2740,
6417,
4914,
-3159,
-1817,
2846,
3286,
2866,
-1502,
-2161,
2307,
1297,
3127,
-2018,
3798,
-1784,
-4762,
1415,
2854,
-1090,
-875,
157,
505,
-3694,
-3686,
-5429,
-842,
-4036,
-5265,
-2327,
-3000,
-3286,
-1925,
-3700,
-10530,
-6182,
-2138,
-5739,
-3325,
-2419,
4185,
2029,
754,
-246,
-4271,
-1948,
1261,
1325,
-1286,
827,
-2103,
207,
-2018,
-2797,
3786,
-5495,
-4106,
-2166,
-1142,
-667,
-2409,
-689,
-280,
-2564,
9486,
532,
1806,
-1622,
-2551,
-868,
-2058,
194,
-3497,
-1822,
3684,
1685,
746,
1640,
-208,
2876,
-3412,
-3776,
-930,
-4086,
1663,
-104,
-3225,
1158,
-1463,
245,
3549,
-828,
2181,
-1017,
-907,
733,
-616,
-873,
-5484,
-5246,
452,
2101,
2358,
-961,
-991,
-2206,
2575,
2282,
181,
-440,
-1947,
-1069,
-167,
-2637,
881,
-246,
544,
1531,
2947,
-994,
-2844,
-370,
1011,
1840,
536,
689,
2397,
2064,
4846,
-328,
-963,
62,
1857,
-370,
1212,
2911,
3184,
2162,
4043,
-1607,
-4040,
803,
-2216,
6483,
2354,
892,
183,
-9,
3170,
3332,
928,
3026,
-790,
-1018,
-1790,
1838,
-698,
-1229,
-1768,
494,
-576,
2154,
2429,
483,
-2920,
-3427,
-549,
701,
-4502,
-457,
861,
5267,
3329,
-1860,
-3288,
-2111,
3291,
-521,
-3191,
-1877,
-2644,
-1507,
-2698,
-5006,
1452,
3415,
500,
3116,
2433,
-2980,
1211,
2789,
-279,
-6009,
-2797,
-2108,
-894,
-1687,
-5643,
2105,
812,
689,
-5360,
-1379,
-2873,
554,
-1733,
-4149,
-314,
-2632,
-2179,
-5821,
-2135,
-707,
-2423,
-1721,
-3250,
-3324,
-2779,
4290,
-2474,
-509,
920,
-1888,
-365,
854,
1189,
-3720,
737,
2020,
-23,
1358,
-131,
2002,
1554,
2219,
4993,
3500,
-3211,
703,
2266,
1533,
1372,
6494,
-319,
-1433,
-954,
-1860,
-2083,
1856,
291,
699,
497,
2733,
4045,
-1888,
2130,
533,
3976,
1007,
3776,
-1424,
1136,
1200,
-669,
2452,
-1274,
821,
-1074,
-2762,
-6034,
-2521,
643,
734,
1711,
-6104,
623,
-900,
-938,
1778,
1003,
-6447,
-274,
131,
-4247,
-2097,
466,
-3831,
-917,
2522,
592,
1678,
1705,
-2103,
-988,
1498,
1389,
3575,
2959,
-1508,
-1613,
-1139,
111,
1509,
367,
-1101,
119,
532,
-1163,
899,
561,
95,
-2137,
-3638,
-6000,
-9986,
-5317,
-9638,
-5519,
-12112,
-11184,
-2329,
-9572,
-9671,
-7339,
-8156,
-13606,
-5591,
-6577,
-1996,
-9150,
-1669,
-3607,
-1998,
-5012,
-8181,
-3082,
-3888,
-5898,
-8361,
-7466,
-8854,
-9586,
-9932,
-12435,
-12020,
-16408,
-16245,
-10145,
-7495,
-7821,
-12726,
-11298,
-4251,
-1739,
-7229,
-887,
-6339,
-2334,
-5659,
-3173,
-386,
-2571,
-1240,
9469,
-5889,
3371,
-299,
-3428,
8302,
-2824,
-5957,
525,
2580,
4763,
963,
-4130,
-3397,
-1160,
4917,
3331,
-2527,
-4580,
-1894,
-5236,
561,
1315,
-4188,
-698,
-1882,
1433,
-1253,
3464,
-4787,
-5123,
333,
440,
6777,
604,
-5990,
2313,
-1220,
1870,
4735,
-8326,
3959,
6131,
573,
4692,
-8135,
-3359,
-1533,
-229,
543,
-1686,
-5936,
-8447,
-4889,
-3397,
-3312,
-2271,
-1340,
-2701,
-3110,
-4824,
-8514,
-5533,
-1921,
-689,
-1899,
-484,
-78,
3725,
-1347,
-6733,
-4120,
162,
-5146,
-3440,
-3260,
-2545,
-3686,
-169,
6902,
-1772,
-2301,
-3742,
2393,
4412,
704,
-3568,
-6267,
4199,
3085,
-3235,
2570,
-97,
2800,
1341,
593,
4866,
2861,
2626,
-4304,
263,
2617,
-5698,
-3997,
1994,
4246,
-1946,
-3430,
-7135,
-3760,
827,
3840,
1957,
4829,
2283,
-1251,
-1513,
624,
-15,
-2691,
2124,
1223,
3393,
-2101,
2300,
-2444,
3078,
-1955,
-830,
-3655,
-2948,
-1269,
1082,
-24,
-5579,
-1263,
-453,
-1840,
-6203,
-1421,
154,
-1709,
-643,
-2766,
-1363,
2328,
-1151,
-4976,
-2454,
-3407,
-592,
-7304,
-8156,
-1985,
-3460,
-4691,
-6789,
383,
-2183,
-4929,
-4070,
-5992,
-3062,
-5186,
837,
2171,
3242,
7438,
5569,
1534,
-5591,
1573,
-2761,
-2826,
-3832,
-1230,
-2169,
-7232,
2425,
2577,
-93,
-3404,
-1170,
549,
9177,
2711,
390,
103,
-418,
-214,
-4152,
-855,
4877,
5564,
5232,
-991,
-2906,
1632,
-2318,
-899,
5530,
10197,
1754,
2369,
-4815,
2755,
2396,
2492,
783,
-592,
1855,
490,
-9077,
-4017,
-5873,
-500,
2568,
3060,
2552,
-1456,
89,
-3921,
-934,
-578,
-11164,
-2409,
74,
1411,
1173,
-5098,
-2149,
-1347,
-2651,
746,
-297,
-6065,
-3297,
150,
266,
-649,
-5183,
-3874,
-3875,
24,
-3953,
-5351,
-2240,
-3128,
966,
-5434,
982,
-5349,
-4460,
1792,
-158,
11225,
-1261,
-2630,
-1906,
9306,
3855,
2508,
8306,
2612,
5136,
1066,
4416,
6084,
6004,
4429,
-2096,
4202,
2771,
5616,
229,
3135,
-290,
-497,
6962,
-3238,
5074,
586,
3533,
6910,
-1004,
303,
11647,
16416,
4120,
-4093,
1026,
1972,
7685,
7914,
-278,
-3500,
173,
5496,
-2817,
-2136,
2244,
-4054,
2745,
6955,
-1641,
7919,
-1210,
3140,
7049,
-8846,
1074,
2738,
-3676,
8468,
-7205,
4029,
-1329,
-53,
6285,
-4187,
660,
-3944,
-2462,
-3441,
-4105,
4901,
-7612,
1255,
4491,
1254,
5174,
-6296,
-4999,
-2730,
-4069,
4319,
-5693,
-3662,
-2578,
-7019,
3950,
-3036,
-4563,
-1948,
-6167,
1258,
-2899,
-3060,
-3014,
-10563,
2091,
1703,
-101,
-87,
1281,
-1217,
3498,
1535,
658,
2847,
-945,
-6170,
-5812,
-3430,
27,
-1669,
-1987,
-3485,
327,
-879,
-9347,
-13860,
-6027,
-8703,
-2015,
4182,
4594,
2385,
-5459,
1058,
34,
6051,
1327,
-3084,
1124,
-1349,
1939,
1376,
607,
2464,
-2319,
-953,
-2443,
-2268,
2447,
-7296,
-1314,
-4878,
-1830,
2259,
1729,
3491,
4781,
2614,
4084,
-2136,
-3409,
-4067,
-217,
-1473,
-9141,
-6675,
-6024,
-3677,
-2353,
-5477,
-1972,
-5858,
-2386,
-5399,
-9298,
-7229,
-4639,
-2375,
-3015,
2005,
-4376,
-3956,
3095,
2177,
2707,
3009,
1515,
2746,
-6385,
-4546,
-579,
337,
-1829,
-2694,
-1150,
-2701,
-2195,
-2005,
-2339,
-153,
-3662,
-3334,
-777,
-961,
-3115,
-1040,
-2393,
699,
-1902,
75,
-5645,
-3990,
-1365,
-2323,
4159,
5148,
2572,
-1954,
7469,
4039,
2399,
4149,
2384,
3267,
7008,
6038,
6691,
8212,
5618,
-1894,
-659,
598,
2835,
1149,
-986,
2935,
-163,
-2202,
872,
-256,
967,
-4353,
-5570,
-6538,
-4200,
-187,
-1880,
-4162,
-1993,
-1868,
-4719,
-4416,
-2679,
-5297,
-1649,
-2832,
-7123,
-5719,
9364,
1982,
346,
-7284,
456,
6301,
827,
2434,
2539,
-1186,
1693,
2798,
3512,
3640,
-1681,
3877,
597,
-2758,
2839,
-750,
-2750,
-3136,
1575,
28,
-1186,
523,
1120,
-392,
5415,
-1984,
-1321,
-136,
-4321,
-1341,
-670,
-2447,
4034,
-4555,
-2716,
1599,
345,
-235,
-5258,
1322,
-537,
-149,
-6746,
-5436,
-2306,
-1559,
-4401,
-3925,
1764,
-432,
2114,
-7749,
-3052,
-668,
-531,
-37,
-5630,
-3669,
-1211,
-5558,
1667,
-5062,
-2654,
-2482,
-6666,
145,
-872,
1486,
-2603,
439,
-5060,
-4786,
-2407,
-577,
-2465,
996,
486,
-60,
-4730,
-3378,
-320,
522,
1868,
-4583,
-1868,
-1519,
1683,
180,
-4659,
-4265,
-1177,
-3103,
-4224,
-57,
-4504,
-3191,
-2887,
-2990,
-1799,
-9329,
-3478,
-313,
-3573,
-1696,
1491,
-2656,
802,
-769,
1218,
-3114,
-1658,
4649,
1125,
1068,
-7045,
-6881,
-89,
95,
842,
291,
3804,
1185,
-5056,
-2673,
-1775,
-515,
-1228,
-595,
-2761,
-786,
-4200,
3055,
-3782,
2665,
1146,
528,
7283,
-812,
4424,
7005,
1454,
13666,
-1016,
-3239,
-4203,
37,
-4142,
-2526,
-4281,
2145,
765,
-2270,
-3656,
40,
-1004,
1234,
-4034,
1342,
57,
2162,
5230,
6347,
9849,
1990,
-1261,
10227,
6064,
-9502,
-8687,
-7264,
-12524,
-4674,
-12212,
-7959,
-7007,
-12293,
-9259,
-9990,
-8502,
-9945,
-5998,
-5132,
506,
-8993,
-8420,
-9305,
-7975,
305,
-13536,
-14196,
-12086,
-8241,
-945,
1774,
954,
551,
-207,
-3038,
693,
659,
1742,
-3816,
1856,
2827,
5458,
225,
1802,
10056,
3629,
4194,
-869,
7019,
2715,
-2660,
-2570,
-2362,
611,
4130,
3077,
3358,
6606,
7187,
617,
-2689,
-3020,
-3506,
610,
-558,
633,
-3266,
-91,
3504,
184,
-3152,
-3282,
718,
11334,
223,
2931,
803,
-489,
2521,
-2062,
3298,
4142,
8364,
-3392,
-2089,
-902,
5766,
-503,
-4914,
44,
7503,
5945,
5612,
-6146,
1684,
-538,
-1454,
-6830,
7850,
-2491,
-15581,
-14245,
-4393,
-2727,
-7538,
-4940,
366,
-4210,
-6446,
-3354,
-8214,
1185,
-6226,
-6188,
2978,
-3786,
617,
-5856,
1634,
-3546,
-3053,
-5140,
-1688,
333,
3433,
7957,
4897,
4714,
8350,
2977,
541,
-2144,
2921,
2736,
6264,
-178,
-1472,
3323,
4712,
6153,
1654,
3585,
3282,
4552,
7267,
5939,
1509,
3412,
-2435,
4633,
7259,
2543,
-266,
1434,
915,
225,
-2247,
4544,
-1858,
1130,
56,
-781,
1144,
-3053,
4331,
3882,
1284,
3486,
6549,
11063,
4470,
4140,
5718,
5435,
11953,
6487,
5359,
6840,
7147,
-2922,
-523,
128,
2435,
-6071,
931,
342,
2272,
-2167,
1668,
6702,
784,
-1902,
3820,
4048,
7240,
1224,
888,
-573,
1937,
-1622,
-125,
-4412,
1107,
-4148,
-2825,
-63,
-1495,
-3005,
2660,
-3512,
1571,
-506,
-3032,
-1334,
2044,
-5291,
-2651,
-1674,
-3604,
-4480,
-3589,
-5313,
-2459,
-2335,
-5507,
-3326,
-2791,
-3412,
-828,
5183,
-2543,
-4231,
717,
-4431,
-1463,
-995,
-3623,
-4602,
-5469,
-352,
-5476,
-7892,
-3716,
-8595,
238,
-426,
-3084,
-4941,
-2037,
-3123,
2615,
822,
-4147,
6882,
2961,
3646,
4346,
-91,
6814,
459,
3242,
-2279,
3423,
1507,
3103,
-103,
-132,
1732,
-1247,
-1579,
1264,
1692,
-2240,
736,
-1330,
-3276,
723,
1349,
100,
692,
-994,
2552,
3457,
7594,
1538,
-804,
2865,
-35,
144,
-3046,
3479,
-3113,
-3929,
1969,
-2204,
847,
862,
3663,
3401,
1695,
-1979,
3234,
4924,
-4883,
-2979,
-5791,
-7573,
-5447,
-1121,
-4904,
-5236,
-6108,
-8427,
-6114,
-8645,
-6378,
-7910,
-8915,
-8832,
-3484,
-8100,
-4166,
-3991,
-2945,
-2724,
-3361,
-4633,
1034,
-6072,
2789,
637,
2061,
1139,
3494,
-2405,
-5269,
366,
-3368,
-7604,
-2853,
-6826,
-7560,
-4920,
-4904,
-1304,
-2340,
-2006,
-4615,
-2002,
10715,
7860,
8201,
3627,
2965,
3963,
477,
3350,
-1257,
1680,
1906,
-2134,
-4608,
-3388,
425,
-4182,
-3553,
-3303,
-4265,
-1004,
-3716,
-4674,
-2485,
-3795,
-5697,
-5816,
-2280,
-5558,
-3697,
-5383,
5218,
1575,
3793,
5157,
845,
2175,
6814,
6291,
2569,
-2141,
3033,
2671,
5523,
1478,
7128,
4654,
-982,
4853,
-556,
829,
1595,
3617,
1625,
2209,
7,
4315,
3804,
-1593,
1624,
1037,
-2402,
-4595,
-1405,
495,
-4436,
-2010,
-2578,
1154,
-1903,
-2317,
-2656,
-3389,
-2252,
-4881,
-1843,
-7289,
-2365,
-5454,
-3331,
-3316,
555,
2693,
3647,
941,
-3153,
-871,
1990,
430,
-1189,
3299,
4380,
2354,
-3705,
3022,
6900,
-1314,
198,
4836,
1713,
9933,
3449,
-2500,
1090,
3732,
655,
};

L2_MEM short int Bias_Layer2[] = {
8904,9071,6406,22193,13480,2898,-3994,2337,-1437,4205,
};


L2_MEM short int Filter_Layer0_HWCE[] = {
-2778, -2292, 6381, 2511, -3011, -2920, -5805, 8328, 2733, -3934, -2613, -6767, 6993, 3748, -2911, -692, -4462, 3966, 3741, 361, -688, -3960, 1029, 270, 1692, 0,
0, 441, 3113, 1777, -3963, -1308, 2868, -173, -6137, -6243, 3362, 2802, -6674, -6312, 1025, 4937, -7236, -8028, 1120, 9011, 1257, -3322, 2847, 8506, 1217, 0,
-3018, 0, -1118, 2691, 3925, 781, -820, 1146, 2585, 6644, 5895, 1104, -439, -4912, -2997, -1235, 653, -2057, -3888, -7498, -6313, -3907, -1084, 1591, 3735, 0,
1968, -1194, 0, -2443, -4341, -289, 4407, -845, 1187, -1650, -7844, -5747, -308, 843, 2681, 1549, -2151, -887, 294, -681, 4194, 3513, -4027, 765, 3593, 0,
1824, 4649, 4348, 0, 113, -775, 759, -1590, 2183, -214, -4576, -1957, -3200, -2215, 5651, 6490, 8682, 5356, 5868, -2354, -4869, -4261, -7021, -2857, 1717, 0,
-3373, 1315, -661, 1878, 0, 125, -3340, -371, -823, -1300, 5276, -462, -1281, -3824, 188, 2286, 2790, 742, -7670, -3122, 4722, 3606, 2661, -4681, -6497, 0,
-438, 6207, 4690, -1657, -5042, 0, -1712, 283, 4854, -5744, 1428, -4747, 4005, 6473, -3529, -2946, 2711, -2659, -7514, 5932, 2849, 4141, -3369, -5511, 4414, 0,
782, -1355, 2496, 4220, -2781, -2886, 0, -11, 169, 116, 2235, -492, 423, -818, 3199, 3173, -3448, -2298, 1379, 6100, -563, -4180, 2501, 8259, 4735, 0,
};

L2_MEM short int Filter_Layer1_HWCE[] = {
4020, 706, 1417, 2848, 3616, -770, 5578, 3155, 2450, 3929, 5207, 6061, 5943, 2277, 2692, -6039, -1533, -4843, -2141, -3010, -4448, -13471, -14130, -19120, -12458, 0,
5120, -1027, -962, 3199, 5896, 2936, -287, 1243, 1305, 2615, 3089, 2761, -3017, 5850, 5216, 1421, -4365, 974, 2322, 5654, 2647, -4639, -3410, -2501, -1899, 0,
4642, 516, -1833, -144, 2335, -20, 3732, -1302, -1280, -2876, -2357, -943, 496, 772, -4871, -1311, 2735, -3001, 2154, 1973, -6447, 4845, 2618, 947, -107, 0,
1865, -1321, -6171, -93, -977, -926, -1295, -3401, -2944, -3173, -721, 1831, 637, -724, -1977, 6928, 3105, 5003, 4764, 307, -4441, 11114, 8176, 925, -3616, 0,
1870, -97, -729, 115, 1213, -2069, 8214, 5383, -4470, -2614, 1672, 412, 589, 3015, -951, -10207, 2571, 2582, 941, -4205, -9056, -7056, -1875, 1051, -9572, 0,
3476, 2382, 1313, 4242, 1773, 3710, 5991, 2656, 2941, 2511, 7142, 3305, 3812, 2782, -789, 9069, -1546, -2557, -3750, 2995, -11131, -1514, -7833, -3466, -2399, 0,
4219, -2444, -2573, -4758, 21, 4996, -1088, -1133, 2315, 6237, 5163, -17, -741, 26, -1838, 1873, 273, -5396, -962, -5563, -9771, -7114, -12001, -10063, -8452, 0,
432, -1344, -319, -2415, 1927, -914, 4272, 2494, 2686, 6029, -1263, -1987, 3187, 4053, 1444, 3917, -4856, -897, 2032, 4161, -4534, -8671, -4568, -9234, -5770, 0,
266, -4389, -10134, -8010, -1059, -1507, -5295, -2848, 1744, 1271, 3556, -496, 1184, -537, 1870, 2831, 1220, 1810, -3850, -1125, 4348, -4163, 1492, -2923, 529, 0,
4858, 3368, 3893, 3231, 1192, 7101, 3955, -381, -5089, -3661, -2230, 1480, -630, -4829, -3630, 1007, -855, 505, -1354, -4808, 1501, -819, -1251, -496, -849, 0,
-802, 3728, 4181, 6598, 4688, 4025, 3365, 3926, 5530, 9332, -3786, -1316, -10601, -4388, 1489, -1257, -3649, -2609, 2131, 4519, -3531, 390, -1093, 126, -1298, 0,
3241, 3229, 5130, 6027, 9476, 8388, 2183, -2305, 1240, 5307, -1384, -3013, -9018, -8496, -3439, -5657, -1917, -5202, -2110, 169, 932, 1160, 2112, 1505, 853, 0,
8336, 6715, 4094, 10371, 11822, 11140, 9491, 2096, 6994, 12132, 2710, -8908, -6178, -999, 5058, 10063, -5962, -4448, 2597, 1210, 5712, -760, 1135, 6788, 3076, 0,
-1363, -1057, 699, 411, 4489, 18, -41, 274, 3712, 5506, -474, -543, -3002, -914, -2109, -75, -4937, -4552, -3901, -3976, -2961, 353, -1796, -2252, -1297, 0,
3436, 493, 249, 2145, 2000, 3325, 2589, 2714, 3293, 3108, 3565, 817, -4716, -5550, -3064, -256, -1870, -5166, -5091, -12988, 1000, -234, -1986, 774, -5051, 0,
234, -987, -4096, -4796, -7226, -173, 2306, -1982, -18, -3480, 916, 3512, -2668, -3451, 3498, -409, 3592, -1883, -2288, 144, 5448, 3749, 3370, 261, 3203, 0,
-105, 2260, 5332, 1148, -1213, 71, 1930, 3846, -1290, -1624, 3447, 2017, -936, -1191, 3891, 3591, -2638, -6318, -686, 154, 3732, -364, -10785, -4766, 3968, 0,
3759, -1543, -3670, -5623, -2465, -696, -987, -5101, -3367, -33, -507, 747, -2528, 684, -249, 2584, 2718, 4688, 1982, 2367, 3777, 5186, 4715, -1781, -1053, 0,
6272, 2239, 4018, 241, -2270, -3151, -4119, -3445, -5713, -4461, -2233, 1623, -2361, -754, -2748, 5774, 4466, 4474, 2049, 4251, 670, 2471, 5368, 5011, -406, 0,
-772, 3257, 1240, 1717, -845, -4627, -9149, -8247, -6442, -1093, -4006, -1827, 229, -3793, -1995, 6117, 11080, 7031, 5223, 4522, 1798, 3368, 3939, 5554, 3513, 0,
-1666, 1205, 2808, -5653, -5243, -6240, -6050, -2032, -6400, -1322, -8042, -7021, -3169, -4462, -4968, 3511, 4605, 10016, 6350, -851, 920, -2923, 3644, 3406, -1524, 0,
465, 2699, 3004, 1969, -2297, 3053, 3130, 3488, 947, -1896, -551, -2221, -3741, -1075, -293, 4218, -2044, -2509, 3768, 1705, 1545, -3949, -223, 6177, 6731, 0,
1493, 3254, 1735, 127, 3177, -4540, -5136, -6048, -4678, -1853, -3849, -3300, -3596, -1440, -2982, -134, 557, -2752, -2740, -2142, 1084, -1545, -963, 3893, 5384, 0,
1037, 6714, 6435, 3224, 2355, -4140, -136, 930, 5005, 4960, -2208, -2743, 1204, 2829, 3695, -433, -1648, -1203, 990, 2486, -1300, 1735, -4201, -3199, 1521, 0,
-925, -2498, -1985, -5663, -2610, -2390, -3413, 410, -19, 820, -2871, 2413, -4546, -107, -2326, 1243, -4310, 2302, 3376, 50, 4164, 976, 64, -196, 1026, 0,
8278, 7008, 9654, 6232, 12113, 9708, 10557, 9338, 8146, 9083, 9251, 6161, 6126, 6116, 4181, 8218, 9168, 2107, 5924, 6475, 5664, 5688, 4922, 7922, 1927, 0,
-4687, 339, -2522, 938, -4263, -706, 1517, 525, -895, -4652, 4418, -1848, -6749, 596, -4447, 1771, -2588, -6896, -4322, -1555, -4154, 2131, 925, -1121, -518, 0,
1618, -3316, -4623, 1197, -124, 1143, -1917, -6332, 1906, 555, 1015, -3049, -2556, 1634, -3629, -3237, -2255, -1707, -92, -2711, -6986, -1947, 2680, 2044, -2592, 0,
-1541, 2562, 30, -2565, -3856, 458, 44, -2619, -4560, -11470, 2856, -2249, -10621, -7717, -5135, 3461, -3470, -9636, -5716, -7310, -2156, -3603, -2386, -3168, -7037, 0,
-1758, -4064, -4310, -6407, -1881, -3201, -2353, -1473, -6472, -1103, -2586, -1386, -6096, -1856, 2751, 797, -740, -2562, -1014, -4498, 1883, -401, -1422, -2510, -659, 0,
8233, 2076, 2388, -2334, 1514, -1640, -1757, -2124, -2600, 4280, -106, -3973, 657, -1482, -576, -8718, -3992, 4476, 5069, -6118, -5970, -1759, -3497, -4187, -2463, 0,
2508, 6258, 2674, 255, 537, 7508, 4721, 4766, 3702, -563, 4531, 1298, 3329, 5026, -413, 5089, -2161, -723, 1063, 3964, 2394, 1516, 1508, 5567, 641, 0,
-772, 2843, 6406, 1638, -3815, -4984, -1792, 3690, 2702, -4658, -3987, -3704, -2568, -7762, 936, -886, -1787, -5599, -1419, -1398, -8635, -8054, -5385, -5679, -4272, 0,
485, 911, 3683, 4441, 209, -720, -2536, -1832, 3031, 100, -3184, 4632, 785, 3427, 3533, -675, 323, 1043, 8177, 12171, 890, -2230, 2413, 4022, 11712, 0,
1883, -466, -261, 8287, 1198, 2811, -1123, 3278, 5033, 853, 6456, 1508, 531, 4265, 2957, 4895, 6399, 1882, 1321, -4670, 4925, 3528, 621, -1332, -10348, 0,
1048, -3028, 145, 5861, -1853, 5141, -3297, 1193, -3024, -714, 2303, 1730, -2096, -4071, 1991, 5045, 2624, -6917, -4780, -10404, 5882, -4482, -3083, -1087, -6030, 0,
-1512, 2756, 2601, 3712, -6246, 1006, 972, 410, 4039, -610, 8749, 10124, 5688, 10925, -6027, 13259, 10080, 6865, 8377, -6464, 22198, 6406, 3221, -2250, -11258, 0,
-2902, -1126, -3209, -6862, -7172, -2519, -3716, -3480, -3920, -2117, -3565, -2850, -6211, -2764, 1313, -6670, -2474, -1178, 3185, 5864, -8020, -7067, -6447, 1737, 1134, 0,
-5313, -5146, 3176, 2800, 3155, 1976, 656, -1051, 5105, 3950, -4740, 2463, -245, -4288, 3048, -6272, -3607, 1347, -1239, 10164, -14506, -22035, -9101, -5894, 721, 0,
6006, 2531, 1598, -1129, 3647, 1860, 1723, 4152, -4074, -427, -952, 6532, 2362, 857, 3614, 13926, 3780, 5863, 1586, 3590, 4409, 7563, 6164, -1309, -1367, 0,
-478, -2224, 186, 1240, 1145, 270, -2657, 3468, 4570, 931, -3302, -3888, 2528, 3343, 12454, -838, -4239, 644, 7251, 6217, -1211, -5646, 3815, 1283, 4612, 0,
-3324, 228, -3386, -1971, -2024, -1718, -1410, -2511, -2700, -1731, -159, -1269, -6202, -4576, -2180, 6911, 746, -3825, -1903, -4263, 2024, 3414, -687, -90, -6239, 0,
-1665, -726, 1596, 1696, -621, 229, 340, -2439, 3048, -5250, 884, -4562, -2201, -5928, -8397, -2078, 1323, -4262, -1039, -689, -2593, -2504, -6218, 2028, -1013, 0,
984, -1595, -1100, 4362, 7280, -1486, -5397, -3048, 1348, 4222, -2081, -4011, -2918, -2262, 1439, -3163, -4988, 33, -735, 2159, -785, -4818, -4981, -1618, -1859, 0,
-2279, 44, -4563, 1640, 6338, -4488, 4756, -2166, -3475, -1928, -9251, 2655, -4330, -6486, -2954, -6680, -3733, -1748, -6900, -1264, -4577, -2014, -9282, -5456, -2228, 0,
-833, -1957, -1968, -2708, -5056, -344, 302, 895, -2609, -3634, -176, -440, 2195, -1141, 278, 2941, -3671, 3497, -1304, 1932, 5184, 2001, -3919, -4647, 1352, 0,
-9511, -7347, -4030, -4575, -2417, -5849, -3413, -4673, -4966, -2418, -5682, -3980, -2816, -2349, -4823, -6845, -7738, -3832, -8255, -6448, -7657, -9281, -6662, -7646, -3994, 0,
-7343, -4362, -2887, 1431, 3073, -4156, -4163, -4791, 2748, 1376, -2850, -1047, -4304, 616, 2768, -3678, -4397, -2428, 3408, -765, -3765, -1398, -1732, -173, 2696, 0,
1484, -1543, 1182, -6175, -5355, 4406, 4819, 445, 8244, -2272, 690, 645, 4041, -752, 9438, -209, 64, 1459, 4253, 5001, 152, 268, -1808, 3359, 3104, 0,
-164, -1175, -5447, -3943, -5993, 3493, 732, -476, -3217, -9471, 4919, 2651, -1436, -5352, -4434, 2186, 80, -2172, -3570, -6376, 2128, 5628, 3754, 2133, -640, 0,
3281, 6116, 1672, -6405, 528, -834, 2364, 5749, 1585, -5138, 3247, 4841, 4106, 1281, -1558, -766, -274, 2032, 411, 1978, -4126, -1624, -4009, -265, 795, 0,
7567, 5169, -4908, -5099, 7783, -175, 8231, 2052, -9842, 2110, -267, -1801, 8202, 7309, -9506, -2275, -4067, -3972, 6288, -2390, -6538, -735, -2982, 1240, -5999, 0,
3412, 1344, 1545, -6259, 2478, 370, 1970, 2893, -1324, -2597, 3987, -1314, 1004, -325, 1547, 2916, 1668, -4657, -8041, 7781, 3467, -1487, -18, -4452, 3341, 0,
1889, 1876, -2831, -4191, 2895, 4042, 4862, 4081, -656, -4188, 5941, -2207, 512, 1540, -1366, 916, -569, -347, 3720, 965, -716, -388, 465, 603, 2707, 0,
3194, -3683, -4599, -8504, -7093, 3097, 4396, 3245, -993, -4370, 719, 4333, 10010, 3746, -4930, -3324, -10, -549, 7305, 2558, -1004, 347, 5373, -813, -3845, 0,
1328, -1694, -3186, 904, 959, -2052, -346, -6621, -3785, -2960, -677, 1814, -1333, -6291, -2168, -1426, 1558, 3533, -2026, -5915, 2392, 3067, 3925, 1499, -1642, 0,
4513, 1291, 1793, 917, 3034, 327, -303, -106, 1279, 2048, 2662, 902, 3655, 270, 2359, -1912, 3233, 5671, 6293, 3603, 2143, 1352, 2282, 4939, 5197, 0,
-547, 2933, 2494, 3976, 1030, 5085, -1982, 124, -1092, 2586, 1618, 1618, 3991, -1221, 1143, 3749, -2396, 1076, -315, 1650, 4319, 4609, 3374, 2376, -19, 0,
-1837, 2270, 429, 5085, 2064, 328, 8978, -2302, 3294, 3728, 3842, 457, 1872, 3794, 3169, 1934, 368, 5673, 5039, 2047, 271, 2025, 8509, 2884, 1714, 0,
1453, -1398, -4164, 3315, 1755, 2964, 6091, -1640, 3610, 5843, 3505, -400, 3220, 3286, 1567, 2894, -1399, 523, 4212, 3568, 2193, 6700, 3152, -3082, -74, 0,
2961, 4304, -3254, 2661, 7513, 1783, 6255, 6611, 8898, 8496, 5757, 5083, 6658, 3645, 7673, -951, 6508, 10231, 3000, 6687, 5741, 5887, 6153, 5753, 3261, 0,
1471, 174, -39, -1894, -142, -3234, -1120, 1291, 1159, 1346, 1726, -2497, 2798, -1418, 4773, 6695, 5167, -706, 2553, 378, 1841, 4389, 8409, -3153, -1560, 0,
-764, -497, 3143, -4825, 2535, 7947, 2296, 7624, 3685, 7661, 8249, 9604, 3141, 1761, 3628, 13960, 2264, 3802, -1054, 7448, 7973, 3603, 6842, 3587, 4137, 0,
2586, 359, 244, 6937, 4827, -3206, 2768, 5194, -397, -1268, -3527, 340, 5178, 4886, -3409, -611, 1629, 1496, 3816, 360, -238, -4063, -1027, 1748, 5315, 0,
-1440, -7478, -9826, -4912, -6708, -4323, -7195, -7731, -16507, -7221, 3091, 1524, -4550, -14174, -8015, 5513, 5930, -2366, -6819, -4338, 3190, 8409, 6044, -652, -4692, 0,
4947, -580, -1609, -2030, -3902, 5224, 2451, -5289, -4354, -3127, 3515, -6379, -4889, -2491, -609, 771, -1397, -6519, -3257, 2343, -878, 189, -1558, -5195, -2816, 0,
-4070, -641, -2168, -4727, -1731, -3549, -2016, -1025, -1760, -3455, 2181, 759, -5038, 166, -2754, -889, 1350, -866, -2436, 4030, 2520, 2739, 53, 1825, -2004, 0,
-2549, -5064, -12129, -3291, -5849, -3572, -8551, -3753, -5342, -3637, 519, 547, -4372, 413, -3060, 2820, -871, 900, 10, 1999, 2645, 4468, -63, 3378, -352, 0,
-5463, -7304, -1325, -2856, -10925, -7283, -2269, -4974, -4864, -3222, -1752, 2043, -1961, -2199, -3891, -1060, -2152, -581, 5149, -2194, -1273, 4378, -613, 752, 672, 0,
-4415, -3753, -4075, -3757, -4665, 3690, 4366, 460, -2614, 1995, 8282, 2785, 1439, -3430, -2075, 6793, 1077, 1504, -1670, -2917, 1224, 3624, 327, -1971, -1617, 0,
-2946, -3425, -7806, -7941, -7768, 1777, -3643, -11838, -10652, -8574, 4008, -7900, -11473, -10812, -10712, 3941, -4925, -6140, -6046, -8885, 1818, 2305, -2085, -6578, -2031, 0,
3438, 2785, 1596, -5797, -3513, -793, -3724, -7040, -1079, 1936, -934, -7984, -6834, -5179, 1910, -5907, 581, -4353, -2619, 977, 2809, -1354, 654, -2870, 6171, 0,
-757, 8942, 3706, 2856, -190, -656, 940, 9393, -3351, 6322, -1214, 840, 12815, -7847, 9260, 3833, 10026, 8456, -6997, 9823, 3095, 9291, 7785, -2915, 5715, 0,
3370, -898, 2863, 2009, 2802, 15, 70, -2506, 1112, 4373, -2946, 345, -1563, -930, 1856, -1276, -5068, -1265, 1007, 1548, -1028, -4313, 262, 2202, 2128, 0,
3490, -1633, -3673, 267, 2590, 3163, -254, -3089, 678, 3418, 1992, 1778, -1821, 2018, -331, -3967, -3007, -2326, -1254, -1560, -1585, -3845, -1198, -523, -127, 0,
-3091, -1297, -3506, -1308, -2932, 594, 2040, -86, -3067, -4702, 1318, -371, 937, -3342, -4726, -1653, -2697, 1221, -2525, -3470, 9555, 841, -2870, -3530, -4640, 0,
1203, -3246, 3597, 827, -1856, 4552, -2924, -1946, 1316, 267, 3293, -763, 3987, 4034, 2241, 1169, -7239, -327, -1368, -2908, -724, 4037, 3404, -959, 4754, 0,
2323, 5956, 14, 4372, 2975, -2515, 1491, -6493, 4306, 3540, 1789, 3640, -5450, 1411, 2655, 1120, 1350, -823, 382, 4548, -910, -1878, -5595, -936, 187, 0,
-1324, 1312, 144, 3938, -1169, -1033, -2396, -6573, -8638, -9052, -7551, -5735, -5934, -12059, -3570, -5501, -2704, -1357, -8083, -5248, -172, 3794, -2423, -3177, -3173, 0,
1333, 2140, -1108, -2636, -1090, -1861, 1139, 3588, -6573, -1920, 1203, 3864, 6484, -4689, 2593, 5338, 5421, 4071, -1091, 1427, -5055, 928, 1407, -4073, -3439, 0,
-3031, -3620, -229, -3365, 472, -264, -3777, -3546, -5736, -2709, -805, -732, -6980, -1394, -2393, 2204, -5649, -7109, -3746, -2571, -768, 5645, -987, -11059, -3294, 0,
-789, -760, 4666, -2063, -4843, -1648, -2209, -518, -1815, -909, -2452, -5178, -925, 5556, 2252, 3544, -7174, -6179, 2907, -786, 2145, -3949, -334, -3579, -601, 0,
-603, -816, -1349, 3963, 1565, -7148, -2575, 2142, 4381, 2645, -2149, -1668, 2789, -583, 4537, 3469, 1085, 1035, -3273, 2930, 1282, -1478, -3461, 4658, -322, 0,
-7868, 1033, 2387, -1591, 87, 848, -4163, -3288, 5433, -3045, 5079, 2804, 583, -5099, 4116, -3323, 1350, 2506, 440, 4908, -3402, -805, 4336, 1526, -1237, 0,
-2623, 679, 6701, -4220, -3257, 4797, -3726, 3922, 3610, -2324, 6337, -1616, 964, 2593, 217, 1119, -1580, 2229, 613, -3207, 1102, -2367, 3757, 1857, -1021, 0,
2297, 4303, 5571, 4335, 6659, 1791, 1348, 2794, 4514, 5546, -1781, -3040, 3279, 3068, -1807, -26, -1566, 455, 5187, 2281, -3037, 4447, 1629, -938, 524, 0,
-6908, -2017, -2514, -3650, -4046, -6893, -5718, -3758, -3402, -4682, 1626, -701, -7652, -4023, -457, 135, 11, -910, -3879, -2045, 128, 672, 4506, 3454, -3296, 0,
2804, 5871, -284, -713, -119, 695, 582, 2741, -2207, -1257, 3129, 3538, -722, -3306, -3655, 6730, 2557, -4179, -3086, 3027, 6122, -1190, -1716, -2795, -471, 0,
1517, 4927, 3672, 937, -10, 1050, -1059, -1808, -2897, -2940, -232, 955, -341, -5131, -4843, 2537, -1423, -4494, -1513, 399, -699, 3718, 1722, 660, 4008, 0,
-682, -1694, -1702, -856, -3115, 754, -218, -3161, -4007, -782, -2337, -4242, -2590, -2061, -2059, 264, -880, -3318, -1386, -504, -2947, 2595, -2050, -5256, -5371, 0,
-3373, 2880, -1347, 1656, -1744, -1147, -1937, 5656, -2671, 4119, 2707, 5936, -819, 5960, 4827, 4554, 5140, 8670, 4637, 7851, 1594, 4216, -348, 6474, 9285, 0,
3577, -3015, -1831, 1433, -1163, 2366, -1315, 1810, 411, 3621, 2606, -202, 4506, -1249, -1096, -1862, -1493, 2534, 2148, 2627, -715, -661, -2984, -4126, -988, 0,
-6089, -2810, 3260, 4713, 3715, 1427, 3933, 3875, 2217, 7458, -2486, 3145, 10440, 5524, 7497, 4670, -1892, 2879, 5553, 14034, 9370, -2751, 4902, 1190, 10167, 0,
-4317, 4, 237, 1230, 561, 2548, -1963, 2185, -1920, -686, 3258, 1711, 2418, -5820, -903, 6081, 6754, 5873, 6963, 3845, 8566, 8260, 5477, 2593, 3749, 0,
-1342, -1986, -6170, 3154, 1261, 2648, -762, -4527, -1133, 430, 3397, 422, -3880, -8139, 548, 4421, -640, -3580, -1337, 1510, -4668, -7271, -1568, -6323, -4445, 0,
1823, 262, 2496, 1705, 1258, 3358, -314, -809, -2385, -251, -2574, -5778, -4273, -1661, 792, -4082, -3548, -4434, -1620, -4092, -4700, -2600, -9994, -11132, -8020, 0,
};
